<?xml version="1.0"?>
<opencv_storage>
<f16 type_id="opencv-object-detector-hog">
  <winSize>
    96 160</winSize>
  <blockSize>
    16 16</blockSize>
  <blockStride>
    8 8</blockStride>
  <cellSize>
    8 8</cellSize>
  <nbins>9</nbins>
  <derivAperture>1</derivAperture>
  <winSigma>4.</winSigma>
  <histogramNormType>0</histogramNormType>
  <L2HysThreshold>2.0000000000000001e-01</L2HysThreshold>
  <gammaCorrection>1</gammaCorrection>
  <nlevels>64</nlevels>
  <signedGradient>0</signedGradient>
  <SVMDetector>
    3.98512557e-03 1.27858226e-03 -2.24150857e-03 -1.09602802e-03
    -3.19606671e-03 6.40074629e-03 7.29112467e-03 7.60681508e-03
    3.66669474e-03 3.53120291e-03 -7.59417948e-04 -2.62130145e-03
    2.31616152e-03 1.06933969e-03 4.27116733e-03 5.32874418e-03
    5.93824545e-03 1.30367780e-03 5.06444694e-03 -3.73378838e-03
    -4.52364143e-03 -5.39299101e-03 2.15755100e-03 2.20409781e-03
    1.14094950e-02 1.37315448e-02 5.04134875e-03 8.25064164e-03
    -4.53564618e-03 -2.13464908e-03 -3.39504750e-03 2.95925280e-03
    3.53301223e-03 2.44127586e-03 9.68649145e-03 3.86804761e-03
    -1.72102009e-03 -4.77757957e-03 -1.44927250e-03 -1.25380210e-03
    -8.55905528e-04 3.30304354e-03 4.89556650e-03 3.23157711e-03
    -2.83248303e-03 -6.44614175e-03 7.10323278e-04 8.01304169e-03
    6.30999974e-04 -1.17860327e-03 -4.15414426e-04 6.66928943e-03
    5.32175973e-03 -1.54218357e-03 2.74110679e-03 -4.40787850e-03
    -1.64864375e-03 -3.09973746e-03 1.15472847e-03 4.13421635e-03
    1.52494223e-03 7.47394515e-03 5.54464478e-03 5.18376473e-03
    6.01907540e-03 9.68049187e-03 5.48456982e-03 1.24366535e-02
    5.74936485e-03 8.21883976e-03 1.08805997e-02 1.20509453e-02
    -7.21906824e-03 3.21292947e-03 7.53599592e-03 1.73934049e-03
    -3.08285863e-03 -6.71698293e-03 -9.74082272e-04 5.71359415e-03
    -3.35536175e-03 -5.76676801e-04 1.04573136e-02 3.65162129e-03
    -7.01390498e-04 -7.26261130e-03 -6.01256778e-03 2.72265589e-03
    8.09833687e-03 -2.42929440e-03 2.41491408e-03 1.02966018e-02
    1.23094330e-02 1.04972273e-02 5.89578878e-03 -3.14339832e-03
    2.60296790e-03 5.09558804e-03 4.31438629e-03 -2.78445100e-03
    1.08698020e-02 5.94429532e-03 -5.68486576e-04 3.82635463e-03
    -3.06028314e-03 2.34363833e-03 2.66080792e-03 -5.30528510e-03
    6.42073748e-04 9.20532830e-03 4.44237376e-03 -5.22446353e-04
    -2.00261580e-04 -2.36093998e-03 9.03549511e-03 1.01436116e-02
    9.32005816e-04 -4.04102029e-03 3.12064122e-03 4.69561573e-03
    2.75458582e-03 -7.36787333e-04 -6.16067974e-03 3.16851516e-03
    5.46076917e-04 -1.96808507e-03 -2.65799277e-03 6.59722602e-03
    2.11283425e-03 -6.67029666e-03 2.26279371e-03 4.35182155e-04
    8.50471575e-03 9.44137201e-03 1.40574249e-03 -3.91479162e-03
    4.13778517e-03 -1.15193496e-03 -4.08392260e-03 -2.07675679e-04
    -4.13417863e-03 1.03802774e-02 1.84897589e-03 -4.58076393e-05
    -6.03120076e-03 4.69609210e-03 3.21408198e-03 4.42053564e-03
    4.54788376e-03 1.00526458e-03 1.65358884e-03 -2.43883743e-03
    -3.27571156e-03 -7.17250863e-03 5.14882337e-03 5.53409522e-03
    1.43574330e-03 7.32412748e-03 3.78121203e-03 -2.11909227e-03
    -9.90717788e-04 -4.61882167e-03 -1.89366867e-03 6.69205096e-03
    4.68110724e-04 1.31945859e-03 7.55486637e-03 -1.12996926e-03
    5.92095451e-03 -3.69355059e-03 -1.76658016e-03 -5.96163701e-03
    7.31796352e-03 8.03689379e-03 1.34786416e-03 7.71981338e-03
    3.95259494e-03 -3.80607625e-03 -2.47533317e-03 -3.00570577e-03
    -6.52464619e-03 2.91012623e-03 1.07168907e-03 -2.61953333e-03
    2.15457333e-03 -1.38553907e-03 -4.96720988e-03 -2.95801461e-03
    -6.84730848e-03 -1.91477663e-03 3.04779457e-03 5.31472173e-03
    -2.38204910e-03 3.70792276e-03 -6.73031993e-03 -1.46964425e-03
    -4.13084915e-03 -5.05401287e-03 -7.12645939e-03 3.08587635e-03
    6.60398463e-03 1.28704100e-03 4.40384401e-03 1.15931907e-03
    -2.16417946e-03 -1.05399592e-03 -6.37017796e-03 2.64139753e-03
    5.70097240e-03 1.88776907e-02 1.62656531e-02 1.95113514e-02
    -1.79115217e-03 2.67745974e-03 -1.33384590e-03 -3.92215792e-03
    -9.96028725e-03 -6.33746618e-03 -1.38720637e-03 -6.73523964e-03
    -1.63889816e-03 -6.11156272e-03 -2.71827594e-04 -5.66226291e-03
    -1.07566118e-02 -9.53672361e-03 2.99292547e-03 7.06987781e-03
    -3.54980398e-03 3.15360352e-03 3.75972944e-04 1.43292081e-03
    -5.69942128e-03 -1.35648567e-02 -3.40372301e-03 3.36076249e-03
    1.07245250e-02 5.73806977e-03 6.08450966e-03 -3.98380822e-03
    -2.74680817e-04 -8.32012563e-04 -5.04758209e-03 -1.10432170e-02
    8.35249666e-03 1.55564407e-02 2.62949686e-03 8.63335375e-03
    3.45230987e-03 4.93393512e-03 -3.47139197e-03 -1.41091542e-02
    -9.49066412e-03 5.27894031e-03 6.96540019e-03 -6.73767761e-04
    -2.54193507e-03 2.53850769e-04 2.49660516e-04 -4.22371970e-03
    -1.01068933e-02 -5.14959730e-03 4.38900851e-03 6.06265897e-03
    -4.26817499e-03 -7.27012521e-03 -7.64764193e-03 -2.51236837e-03
    -2.59791687e-03 -5.79535495e-03 -3.25199217e-03 7.57399946e-03
    9.95877292e-03 -2.30150507e-03 1.85775361e-03 5.62426541e-03
    7.86975026e-03 8.57693842e-04 -9.46547743e-03 -1.32072586e-04
    3.29701276e-03 3.08803306e-03 -3.34168691e-03 -3.95568041e-03
    -2.47236458e-04 2.48559983e-03 -1.13174785e-03 -2.65271706e-03
    -4.28615557e-03 3.03294440e-03 -1.45318662e-03 -7.97248259e-03
    -9.80664603e-03 -9.02522355e-03 -6.11927127e-03 -6.43463153e-03
    -8.02449975e-03 -1.18424487e-03 5.93656767e-03 -2.23970623e-03
    -3.15566501e-03 -5.81873441e-03 -1.01602059e-02 -7.38808932e-03
    -6.75334362e-03 -2.97234859e-03 2.34967587e-03 1.01470463e-02
    -9.39895632e-04 -4.77376860e-03 -6.55897241e-03 -7.80917192e-03
    -5.47110848e-03 -6.57890690e-03 -2.63371505e-03 9.94020328e-03
    1.57038458e-02 8.93391389e-03 3.04469909e-03 -3.03413696e-03
    -1.35105513e-02 -7.39112822e-03 4.36581159e-03 9.96330939e-03
    1.14993413e-03 2.17304449e-03 -4.34520328e-03 -1.02599477e-02
    -1.60546377e-02 -1.38407275e-02 -9.21503454e-03 -2.67288764e-03
    -6.91245310e-04 -4.02601063e-03 8.69186886e-04 -3.45493900e-03
    -7.75271049e-03 -1.78863518e-02 -1.42952492e-02 -1.27605218e-02
    -2.09033815e-03 -4.68046544e-03 9.14265681e-03 8.19431990e-03
    2.76756776e-03 -6.37283875e-03 -1.43218040e-02 -1.51888356e-02
    -4.69184155e-03 1.14687486e-02 1.88486185e-02 1.46292550e-02
    2.05913074e-02 1.26945013e-02 -1.34260952e-03 -1.89688522e-02
    -1.45870363e-02 -4.86460049e-03 4.79855156e-03 1.35658057e-02
    -5.02153859e-03 -4.93895682e-03 -6.05321396e-03 -8.88632890e-03
    -1.54939508e-02 -1.19708087e-02 -5.70754334e-03 9.38939024e-03
    -3.77276866e-03 -1.54914744e-02 -9.09349881e-03 -8.10247753e-03
    -1.79158021e-02 -2.32116263e-02 -1.71813704e-02 -2.10579229e-03
    6.86163269e-03 -9.72493459e-03 1.78229902e-02 1.72400102e-02
    8.48708767e-03 -5.65230940e-03 -1.64045803e-02 -1.00533720e-02
    6.52605994e-03 1.52962413e-02 1.61459241e-02 3.53093329e-03
    2.40009767e-03 -3.37261800e-03 -1.38133392e-02 -1.33732976e-02
    -5.94126340e-03 2.00895257e-02 2.34042108e-02 1.68427099e-02
    -1.02361031e-02 -5.58428839e-03 -3.69063625e-03 -9.38257203e-03
    -7.97869824e-03 -4.01639706e-03 1.04245758e-02 3.38918972e-03
    -1.27854627e-02 -1.52691845e-02 -6.32046349e-03 -2.78589060e-03
    -6.93088304e-03 -1.99695514e-03 -8.21872428e-03 3.86051717e-03
    -9.42207035e-03 -1.99461989e-02 -6.95401861e-04 -2.09613051e-03
    -2.67518684e-03 -5.81444241e-03 5.48096700e-03 6.68225344e-03
    2.67564040e-02 2.52359360e-02 2.83397967e-03 -9.01205745e-03
    2.14583124e-03 2.23245355e-03 5.50460070e-03 7.04364059e-03
    -3.50054353e-03 9.97681916e-03 5.47824008e-03 -6.54399814e-03
    -6.47541089e-03 2.75190733e-03 7.77949719e-03 -3.95598850e-04
    -2.57998845e-03 -7.96317030e-03 -1.73656084e-03 -8.82970821e-03
    -1.22450395e-02 6.49980223e-03 8.84883944e-03 5.52249141e-03
    -6.55483222e-03 -3.99119547e-03 -4.51311003e-03 3.28610768e-03
    -3.08856112e-03 -4.82186489e-03 -4.38477658e-03 1.10814543e-02
    1.48273958e-02 9.74184275e-03 5.28272009e-03 -1.41332892e-03
    -5.18836721e-04 -2.18023988e-03 -2.49799946e-03 6.56052725e-03
    1.37058524e-02 8.68934859e-03 -8.61596502e-03 -2.80674989e-03
    2.31988379e-03 2.66236998e-03 -1.47407374e-03 -4.18059481e-03
    5.91015210e-03 9.97597165e-03 7.40469852e-03 -6.66324981e-03
    -1.12017454e-03 -5.50117251e-03 2.46324926e-03 -6.76636759e-04
    -2.20459467e-03 1.51589175e-03 9.66202840e-03 1.53673124e-02
    -1.47461914e-03 2.68692500e-03 -8.73869751e-03 -6.76253345e-04
    -2.26354040e-03 -1.38950112e-04 8.76831077e-03 1.06486194e-02
    3.52179748e-03 -1.34284822e-02 -4.14729305e-03 -2.42797867e-03
    2.28975294e-03 2.61489092e-03 9.62894293e-04 3.70730623e-03
    9.69030149e-03 1.25621986e-02 -6.71741273e-03 -8.33372585e-04
    -8.32186546e-03 8.84084962e-04 3.27064074e-03 4.21989709e-03
    5.34538820e-04 6.30026590e-03 7.56223360e-03 -4.73308843e-03
    -1.20083429e-03 -1.11512272e-02 -1.55081390e-03 -4.67154570e-03
    -4.43227962e-03 1.66107656e-03 4.77038044e-03 4.19791089e-03
    -9.06395912e-03 6.84861466e-03 -8.71839188e-03 9.86001338e-04
    -5.50736720e-03 -2.79412884e-03 -1.71286333e-03 7.41848210e-03
    1.39552662e-02 -1.78943004e-03 5.06604207e-04 -9.61535703e-03
    -2.88846134e-03 -6.68391446e-03 -3.98952793e-03 6.45162584e-03
    6.54310687e-03 9.90665425e-03 -2.70928186e-03 7.37513276e-03
    -4.56507364e-03 -1.35654851e-03 -5.20177744e-03 1.35992363e-03
    -3.35021468e-04 1.08094455e-03 3.14034615e-03 -2.91816937e-03
    5.54290367e-03 -5.18140197e-03 3.34414071e-03 -3.61071085e-03
    -2.44270428e-03 7.75001885e-04 4.31604544e-03 3.63708683e-03
    -4.55631781e-03 -4.42423858e-03 -1.09826559e-02 6.53763535e-03
    8.40855006e-04 -1.67431473e-03 1.44737437e-02 1.11576356e-03
    -1.96573717e-04 -3.23070493e-03 3.84529121e-03 -9.76273324e-03
    -7.25487596e-04 1.98403769e-03 1.03664165e-02 1.54835917e-02
    5.88348787e-03 -2.06342200e-03 -3.90816294e-03 -5.35940705e-03
    -1.69408917e-02 3.80523782e-03 1.04551623e-02 1.60944555e-02
    -3.36181838e-03 5.36228344e-03 4.00399882e-03 -5.65488869e-03
    -2.60970788e-03 -5.24338149e-03 5.24688931e-03 2.67448509e-03
    -1.65430387e-03 -5.21878758e-03 2.51602614e-04 2.75259401e-04
    -5.91969863e-03 1.03281892e-03 -5.22434991e-03 5.45470091e-03
    3.94371990e-03 1.35266304e-03 9.18992795e-03 8.97969864e-03
    1.26270659e-03 -4.36694361e-03 -1.55474187e-03 -1.06708268e-02
    3.98008013e-03 4.92878351e-03 8.34255945e-03 1.01961764e-02
    9.54840239e-03 5.46954945e-03 -3.81610822e-03 5.39728347e-03
    -6.84362277e-03 3.89804062e-03 3.09066731e-03 7.32958363e-03
    -3.90957762e-03 1.25510094e-03 5.65713504e-03 -1.82214892e-03
    -2.71713687e-03 -5.81408711e-03 3.00161983e-03 4.51897597e-03
    -4.78093000e-03 -7.76281086e-05 5.31108398e-03 1.07325651e-02
    -1.27817388e-03 2.30397028e-03 -1.06684910e-02 -2.25303532e-03
    -2.03451840e-03 -5.47515973e-03 9.91579238e-03 8.11211672e-03
    3.71597032e-03 -4.07094462e-03 -2.62259180e-03 -3.99305811e-03
    1.29390950e-03 9.38408356e-03 2.67262710e-03 1.24355732e-02
    1.73937324e-02 1.48610529e-02 2.31498317e-03 -1.32233102e-03
    -1.23811467e-02 -6.66067423e-03 3.16127902e-03 -3.36486311e-03
    -2.58233421e-03 2.02491530e-03 6.51665824e-03 1.67978101e-03
    -1.89859176e-03 -1.05838273e-02 -1.30288140e-03 -4.23641643e-03
    -6.87466608e-03 -5.77259483e-03 3.10358919e-05 5.52677643e-03
    4.01798263e-03 1.05120065e-02 -5.50661562e-03 -2.36694212e-03
    -4.32749698e-03 -8.19918513e-03 2.47210055e-03 5.29316952e-03
    1.11628063e-02 6.89653261e-03 1.37624878e-03 -6.30403962e-03
    -1.34495681e-03 -3.91741691e-04 -4.36085463e-03 -3.53347929e-03
    -2.15377240e-03 2.66759447e-03 1.18894968e-02 1.28311031e-02
    9.37649980e-03 6.24538446e-03 1.95963541e-03 -4.41670790e-03
    3.15252226e-03 4.16027149e-03 -2.32762843e-03 -7.61805288e-03
    -2.34968751e-03 -9.74447234e-04 8.94526392e-03 9.01251938e-03
    3.03697796e-03 4.25129803e-03 -7.45092329e-05 1.19205448e-03
    -2.38752225e-03 -3.17118992e-03 -4.78834007e-03 -5.10371290e-03
    9.93895065e-03 5.98529028e-03 -6.62810126e-05 8.50837212e-03
    4.78721270e-03 -9.10647097e-04 -3.80454515e-03 8.01575079e-05
    1.02374982e-02 1.49382744e-03 -3.76984011e-03 4.85306140e-03
    1.60852186e-02 1.69785134e-02 6.96030119e-03 -3.55172204e-03
    -1.03294030e-02 -2.98100105e-03 -1.27071387e-03 -1.30757061e-03
    7.33452180e-05 -2.16801255e-03 1.66892784e-03 1.81601860e-03
    -1.86552585e-03 -3.04759853e-03 -5.97443944e-03 4.11153166e-03
    6.97213598e-03 4.37361095e-03 1.05707068e-03 5.45321824e-03
    3.20021273e-03 5.23040676e-03 -5.97193651e-03 8.86679336e-04
    5.03246253e-03 1.02776689e-02 2.43209698e-03 1.31252194e-02
    1.40283164e-02 5.37895365e-03 -5.50387381e-03 -6.63988711e-03
    -2.29257951e-03 1.59905129e-03 4.27469844e-03 7.38398056e-04
    7.08164228e-03 5.72187826e-03 -1.62955315e-03 -4.58842656e-03
    -8.36874731e-03 5.79105457e-03 4.37227311e-03 5.08978637e-03
    4.28891135e-03 9.90494341e-03 1.64164640e-02 1.02679431e-02
    4.35619242e-03 -8.67379550e-03 1.06449670e-03 1.10827002e-03
    2.73933285e-03 -3.48050613e-03 9.50946659e-03 7.97819160e-03
    -2.09172163e-03 1.12968939e-03 -5.22335013e-03 1.22151664e-03
    1.36461994e-03 -2.69020163e-03 -2.80590937e-03 5.25013683e-03
    7.56596448e-03 5.50169824e-03 -2.70069763e-03 -7.91178364e-03
    9.55740979e-04 -4.72105894e-04 1.82138802e-03 -6.74363878e-03
    7.23263994e-03 5.58686256e-03 -4.11703112e-03 -1.08970497e-02
    -5.95305581e-03 3.47021339e-03 4.05398244e-03 -2.94263405e-03
    -9.75464412e-04 4.40126844e-03 1.21474685e-03 -4.20088554e-03
    -4.25295846e-04 -1.60080148e-03 5.57990698e-03 6.43727835e-03
    3.04729067e-04 8.02144757e-04 3.42188170e-03 2.85276771e-03
    1.38845202e-03 5.33122942e-03 -4.91242716e-03 7.35675043e-04
    -3.15355486e-03 -2.78278138e-03 -1.54913776e-03 5.10050822e-03
    3.72571615e-03 -1.28360337e-03 -2.84950947e-03 -4.06032079e-04
    6.13264320e-03 6.19952753e-03 -4.76183556e-03 7.53663771e-04
    -1.51626382e-03 9.48576722e-03 6.52507599e-03 3.24590108e-03
    -7.55836302e-03 -4.38249297e-03 1.49753207e-04 -3.50650330e-03
    -1.31410488e-03 3.89724970e-03 2.27861223e-03 -1.28095946e-03
    8.04150477e-03 -6.10680925e-03 -2.20135879e-03 -6.61638053e-03
    -2.53293128e-03 7.13740184e-04 3.25166225e-03 4.89184447e-03
    -6.40834728e-03 -2.15180870e-03 -4.35023988e-03 -3.00783012e-03
    -4.66877036e-03 2.89574498e-04 -2.42733839e-03 -1.26157713e-03
    4.96069156e-03 -5.82924695e-04 3.37739708e-03 -1.41062879e-03
    -1.05947931e-03 1.02213293e-03 8.80852342e-04 2.81195645e-03
    4.10403963e-03 6.84071332e-03 -2.33428320e-03 4.23985068e-03
    1.06939394e-02 4.88961115e-03 -2.34495103e-03 2.52621807e-03
    -5.81044378e-03 -3.50752356e-03 4.06713923e-03 -5.56792971e-03
    -6.71632402e-03 -2.08160258e-03 -4.60064784e-03 -7.58957583e-03
    -8.21605697e-03 -5.18895732e-03 -1.41527562e-03 1.20106610e-02
    9.54547990e-03 1.51272742e-02 2.81635951e-03 -1.42178533e-03
    -4.02866583e-03 -1.01848803e-02 -3.84038477e-03 -7.45841186e-04
    6.68177847e-03 -3.24421749e-03 -4.83229104e-03 3.85139300e-03
    -2.96921004e-03 -9.91442520e-03 -6.61788508e-03 -5.24923252e-03
    3.16745136e-03 1.01820761e-02 4.45894850e-03 5.92226349e-03
    5.85430255e-03 2.47870688e-03 -3.31262709e-03 -5.43402787e-03
    -6.57764543e-03 2.36317073e-03 6.73163356e-03 3.05202091e-03
    3.17641324e-03 -5.61387092e-03 -2.21812213e-03 -3.82733787e-03
    -8.31857231e-03 -1.42905060e-02 3.02996836e-03 1.11012394e-02
    1.89323479e-03 5.64651843e-03 6.25003036e-03 7.86731578e-03
    -3.19596613e-03 -1.60352550e-02 -6.34272769e-03 1.23856601e-03
    6.72558090e-03 -1.66447146e-03 -4.83383704e-03 -5.18997945e-03
    -1.99690508e-03 -5.88772260e-03 -1.01794964e-02 -8.11773632e-03
    -8.18529748e-04 5.59157785e-03 -1.92325015e-03 1.32591976e-03
    5.62553061e-03 7.99571630e-03 1.66338298e-03 -1.53835015e-02
    -7.29636755e-03 1.44771172e-03 4.37150896e-03 -3.67842359e-03
    -3.11628985e-03 9.34093259e-03 8.53390805e-03 -4.42119286e-04
    -1.16724111e-02 -4.34912625e-04 7.55267963e-03 -3.32359108e-03
    -9.81671643e-03 -7.13646552e-03 -3.25068017e-03 -3.78197478e-03
    -9.43195913e-03 -9.84475855e-03 -1.13803456e-02 -8.29245604e-04
    8.38535256e-04 -3.31099029e-03 1.50686654e-03 9.11933463e-03
    1.06602460e-02 3.52861173e-03 -1.32901538e-02 -4.84097051e-03
    3.42630595e-03 5.94970956e-03 -5.22976648e-03 1.05789199e-03
    -2.91035185e-03 1.73293578e-03 -5.00623230e-03 -1.18700657e-02
    3.35503044e-03 7.57569075e-03 -1.76642509e-03 -7.66262878e-03
    -1.33604659e-02 -1.11380015e-02 -9.35680047e-03 -1.11298664e-02
    -8.20834655e-03 4.28211642e-03 6.58918358e-03 4.43049846e-03
    3.51874973e-03 -8.96913931e-03 -1.42455436e-02 -8.41545034e-03
    -3.87288001e-03 7.52866559e-04 -5.58880949e-03 7.99505506e-03
    5.76014072e-03 5.79954649e-04 -5.52893616e-03 -1.01141669e-02
    -6.40221406e-03 -9.90852807e-03 -7.82018807e-03 4.78831027e-03
    1.39028337e-02 1.61470082e-02 9.63778049e-03 -6.98109483e-03
    -1.47815999e-02 -1.05250496e-02 -4.63998783e-03 -7.16709904e-03
    7.30979838e-04 -1.79319561e-03 -3.56918364e-03 -8.65157880e-03
    -1.39759760e-02 -1.24690989e-02 -7.52656208e-03 2.59870151e-03
    4.09034546e-03 7.06997979e-03 9.91936959e-03 -2.07162957e-04
    -9.84861236e-03 -1.64999012e-02 -1.33859664e-02 -9.37949959e-03
    -5.36501035e-03 1.33711880e-03 1.72089553e-03 7.28486944e-03
    3.09874979e-03 -2.81656976e-04 -9.08875000e-03 -8.75285640e-03
    -4.23586648e-03 -4.87956393e-04 -6.28566835e-04 3.62093630e-03
    1.29414080e-02 -9.94803500e-04 -1.03275925e-02 -6.34611584e-03
    -7.49456557e-03 -2.41631991e-03 -2.64133653e-03 5.59521141e-04
    2.79238517e-03 7.59406714e-03 -2.28436827e-03 -1.31937610e-02
    -1.67847741e-02 -1.09902034e-02 1.31548883e-03 2.44800304e-03
    2.92585650e-03 -5.87663939e-03 -1.71084795e-03 -3.74991936e-03
    -1.53930318e-02 -1.55159906e-02 -8.51023756e-03 7.85952155e-03
    6.22592634e-03 4.21898440e-03 4.53921640e-03 7.32779223e-03
    -2.23329174e-03 -1.17157148e-02 -1.22050242e-02 -7.35003781e-03
    2.50672409e-03 1.34700548e-03 6.36736338e-04 2.29349220e-03
    4.54059476e-03 -1.27533637e-03 -1.18406480e-02 -1.25207631e-02
    4.16890020e-03 1.45012764e-02 1.25645082e-02 -1.99128757e-03
    -1.44533543e-02 -7.70482421e-03 -3.54999094e-03 -7.42550986e-03
    -4.25090780e-03 -6.72160240e-04 1.12890350e-02 7.28397956e-03
    -8.74206796e-03 -2.40518991e-02 -1.00130811e-02 -7.50249764e-03
    -7.75930006e-04 -5.47439279e-03 -1.35291731e-02 -6.13824045e-03
    -1.03491489e-02 -1.91301629e-02 -7.46943103e-03 -3.56952031e-03
    1.77176227e-03 -2.67228833e-03 -2.15864202e-04 1.46997673e-02
    2.63152644e-02 1.75193511e-02 -9.19019396e-04 -9.13332589e-03
    -1.08120358e-02 -6.72336621e-03 7.31090957e-04 -2.25652751e-04
    9.34566269e-05 1.37971547e-02 3.25463200e-03 -8.20923410e-03
    -1.45984953e-02 2.26417347e-03 2.21379520e-03 6.84118364e-03
    1.29648997e-03 -7.97547773e-03 -6.81241788e-03 -1.13125751e-02
    -1.27986297e-02 -6.85158186e-03 4.82783979e-03 -9.28188732e-04
    -1.40280109e-02 -1.45032136e-02 -1.06968004e-02 -1.00140246e-02
    -1.66305751e-02 -1.44477570e-02 5.52606245e-04 4.20961436e-03
    3.77617683e-03 6.75944099e-03 7.41320150e-03 4.71574813e-03
    1.07065942e-02 4.91570961e-03 -9.78320721e-04 1.10922083e-02
    1.83023382e-02 4.90158191e-03 -6.15404081e-03 -9.28361621e-03
    -7.58132758e-03 1.63275166e-03 -8.38855223e-04 1.06183859e-03
    -1.84755586e-03 7.52408896e-03 -2.86317867e-04 -1.39609175e-02
    -1.22711118e-02 -1.08237313e-02 -4.91956901e-03 -7.38524366e-03
    -9.46865045e-03 -3.02383956e-03 5.92828589e-03 1.83073780e-03
    -1.57074183e-02 -5.00024017e-03 -8.75391532e-03 -2.88724271e-03
    -9.95768583e-04 -7.95213133e-03 7.37996213e-03 1.73935387e-02
    6.51024561e-03 -8.36216286e-03 -9.79634747e-03 -5.89443790e-03
    7.10931793e-03 1.24132223e-02 2.41691410e-03 1.66774564e-03
    7.73475692e-03 4.61387541e-03 -1.14249773e-02 -4.35603783e-03
    -1.26839487e-03 7.59900501e-03 6.94354437e-03 -6.09676214e-03
    -1.23444712e-03 2.15151138e-03 2.67397868e-03 -1.11597832e-02
    -2.48754001e-03 -4.94715990e-03 -7.30991189e-04 -1.24462333e-03
    -4.61776787e-03 6.16544066e-03 8.02464318e-04 2.87856965e-04
    -1.05700223e-02 -7.27621512e-03 -3.15536768e-03 6.08719012e-04
    -5.42933447e-03 1.53374393e-03 2.47844588e-03 1.57373864e-03
    -2.14305171e-03 -1.34251518e-02 -2.02802103e-03 -2.40465486e-03
    7.42434990e-03 5.71094267e-03 1.77677558e-03 2.42546084e-03
    -5.99912880e-03 -6.67817239e-03 -1.47114908e-02 4.86443937e-03
    -1.62887922e-03 1.06141474e-02 3.51656461e-03 7.56787928e-03
    8.99663940e-03 8.68637580e-05 -3.24606732e-03 -5.79412980e-03
    -6.11630967e-03 -8.37888476e-03 -1.22556463e-03 5.12842380e-04
    3.90972383e-03 6.07320527e-03 1.48497568e-03 -2.18459824e-03
    -5.18628862e-03 1.47673988e-03 -1.30373538e-02 -2.22093589e-03
    5.55297965e-03 3.22332908e-03 4.40392224e-03 -3.80524597e-03
    -5.75916888e-03 -6.01029070e-03 4.98992531e-03 -1.23294396e-03
    9.06278193e-03 1.77474623e-03 5.49841439e-03 6.99029258e-03
    5.26225660e-03 2.19265954e-03 2.86832708e-03 7.89001025e-03
    -4.64356225e-03 -1.21235801e-03 8.37732200e-03 3.45874671e-03
    4.17713681e-03 5.42915612e-03 1.74429978e-03 -1.65482773e-03
    6.27315370e-03 -9.27925576e-03 1.57050497e-03 4.74097906e-03
    1.73396780e-03 7.59987533e-03 8.72705318e-03 3.94505402e-03
    -1.71994150e-03 2.45497725e-03 -7.82790408e-03 -1.32255477e-03
    -2.21117749e-03 -2.04715482e-03 3.55960126e-03 6.78491872e-03
    7.63975782e-03 7.89146125e-03 9.75831784e-03 -6.97014714e-03
    -1.58111250e-03 7.35118520e-03 3.46562068e-04 -6.59599609e-05
    5.67404134e-03 3.12592299e-03 -1.37712806e-03 2.86922231e-03
    -8.84244777e-03 -2.00533238e-03 1.38412789e-03 -5.05354861e-03
    8.22769664e-03 1.02738831e-02 4.26321616e-03 -3.85485380e-03
    2.14699144e-03 3.43324617e-04 2.77158455e-03 3.75014474e-03
    -1.59140024e-03 7.88816810e-03 1.87311415e-02 1.24485800e-02
    -7.52512016e-04 -8.50566721e-04 -1.00735659e-02 -2.03604647e-03
    3.77602642e-03 -1.96992769e-04 -3.79190687e-03 3.56500526e-03
    4.53188969e-03 -1.89968233e-03 3.32613662e-03 -2.79692467e-03
    5.34009980e-03 3.24435183e-03 -3.58960615e-03 -4.08305670e-04
    8.07673950e-03 1.56166265e-02 -3.78347747e-03 -3.15486197e-03
    -1.47710508e-02 2.31811590e-03 4.96195024e-03 2.22821813e-03
    2.36375257e-03 5.02071902e-03 7.64057506e-03 -9.25289933e-04
    -1.04111712e-03 -8.86231847e-03 -1.15724673e-04 5.20123809e-04
    -4.76202462e-03 -5.17175067e-04 -3.59061803e-03 -1.26489077e-03
    1.47237326e-03 1.33022191e-02 4.49949550e-03 9.34010837e-03
    1.56557269e-03 -4.13492089e-03 -2.16552406e-03 4.19408688e-03
    1.02319634e-02 -4.62550391e-03 -5.21808118e-03 -1.45291332e-02
    1.38301833e-03 3.36397719e-03 -3.33103072e-03 -1.50619645e-03
    -4.80083888e-03 -2.77183042e-03 2.42769532e-03 1.27626853e-02
    -2.69524520e-04 1.42449075e-02 9.83265042e-03 1.08472945e-03
    -1.46701292e-03 4.55310708e-03 4.96867346e-03 2.52773101e-03
    -8.95543396e-03 2.00848258e-03 6.09635282e-03 6.65208558e-04
    -5.07815881e-03 6.50951685e-03 1.45036420e-02 1.57371741e-02
    4.52778116e-03 -6.95539406e-03 -8.49662907e-03 -4.84690676e-03
    -7.32700760e-03 -4.16384265e-03 -8.32298771e-04 3.10417381e-03
    1.04210824e-02 3.48747382e-03 -2.81491317e-03 6.68353774e-03
    9.05573927e-03 2.57730740e-03 -2.97163287e-03 6.87406538e-03
    8.24118685e-03 1.03000188e-02 -9.75491246e-04 -1.26247120e-03
    7.99057167e-03 6.04375359e-03 -2.19046022e-04 -1.59911846e-03
    6.25416636e-03 1.42669706e-02 1.24588022e-02 -4.93042753e-04
    -5.09007694e-03 -3.54951853e-03 -1.49398472e-03 -1.24930800e-03
    5.58297674e-04 1.97784510e-03 9.01551265e-03 7.45001901e-03
    -1.69573317e-03 -1.01368111e-02 -2.78805546e-03 5.43337036e-03
    4.15143510e-03 -1.25016773e-03 6.53336896e-03 9.44067165e-03
    6.18490390e-03 -7.03444006e-03 -1.91637280e-03 7.62758870e-03
    1.92075851e-03 7.12125050e-03 4.58139321e-03 9.76654352e-04
    1.11060012e-02 7.31771346e-03 -5.66958031e-03 -1.11256707e-02
    5.91575541e-03 7.40315858e-03 9.86933149e-03 2.90732644e-03
    -2.54520960e-03 2.21972330e-03 4.96729137e-03 5.22691803e-03
    -5.48394443e-03 -1.80051732e-03 4.84366715e-03 8.59310152e-04
    -1.94007516e-04 -5.34656877e-03 1.15951279e-03 3.90362693e-03
    3.74840572e-03 -6.92769233e-03 -5.86162275e-03 8.99275765e-03
    3.13236238e-03 -3.49080400e-03 2.60535465e-03 5.51862782e-03
    3.60870827e-03 1.61655375e-03 -8.98273848e-03 -1.30382110e-03
    6.71736803e-03 7.01072672e-03 1.44557538e-03 1.03771905e-04
    -1.99789833e-03 3.65890050e-03 1.54119926e-02 3.25158209e-04
    -3.68324225e-03 8.01413879e-03 2.95395683e-03 -1.05667580e-03
    -2.82915332e-03 2.49689631e-03 5.74603491e-03 2.44875532e-03
    -3.38924769e-03 -4.60945815e-03 3.82517092e-03 -2.73527927e-03
    -9.30941291e-03 2.73758871e-03 1.10273203e-03 8.01157579e-03
    1.12054730e-03 -7.49518257e-03 -8.91112164e-03 -4.68559284e-03
    -1.78907521e-03 -5.06264437e-03 1.92551015e-04 -3.58019094e-03
    4.90662316e-03 1.33820921e-02 3.51569452e-03 -2.15564948e-03
    3.78405955e-03 -2.77128350e-03 -5.35294088e-03 1.41240871e-02
    1.05724465e-02 8.19816161e-03 3.61528900e-03 -2.84368376e-04
    -5.48395328e-03 -2.71474477e-03 -2.66894419e-03 6.08517323e-03
    -3.07124667e-03 -7.18790106e-04 2.71108467e-03 -6.31179800e-03
    -1.11778304e-02 -7.52122374e-03 -5.87495649e-03 -6.69349451e-04
    -4.82033519e-03 -4.73693153e-03 1.30392029e-03 5.12140524e-03
    -1.44416117e-03 -8.18658248e-03 -6.66304445e-03 -6.48539281e-03
    -4.55925660e-03 -6.29941002e-03 8.84184986e-03 1.03964042e-02
    7.86394253e-03 -1.86940737e-03 -1.04489438e-02 -1.14060687e-02
    -8.34342465e-03 -1.31245854e-03 4.55602584e-03 4.41789394e-03
    1.17799994e-02 2.14438103e-02 1.02521628e-02 -1.86096889e-03
    -1.67997256e-02 -8.92622303e-03 3.12342541e-04 9.49930749e-04
    -4.66748560e-03 -1.62488874e-03 3.40276957e-03 -1.98486392e-04
    -1.05736954e-02 -5.88907022e-03 -6.03716541e-03 -6.62064413e-03
    -9.32338089e-03 -5.87294926e-04 8.60443863e-04 5.55794546e-03
    -5.20364381e-04 -6.75089285e-03 -7.44287996e-03 -1.66005420e-03
    -4.03872412e-03 -4.43286169e-03 7.52545055e-03 4.21606470e-03
    9.56532266e-03 -8.32963211e-04 -9.36562102e-03 -1.27578070e-02
    -8.59008636e-03 2.59384420e-03 2.09418801e-03 7.79087376e-03
    -1.18462765e-03 -4.24710428e-03 -9.37250815e-03 -7.76512409e-03
    -1.30545273e-02 -7.08444603e-03 5.45782456e-03 1.95748676e-02
    -2.71598785e-03 -2.93517741e-03 5.84531575e-04 -5.02230925e-03
    -1.08432444e-02 -9.09998082e-03 -2.89927190e-03 -3.30877723e-03
    -5.85888093e-03 -6.13414356e-03 -7.82226678e-03 -4.97710612e-03
    -6.93645561e-03 -3.83583037e-03 1.34064769e-03 3.62459873e-03
    1.19332073e-03 -9.32908896e-03 9.83149745e-03 -6.99257804e-03
    -8.49545188e-03 -9.45508573e-03 -9.13319457e-03 -1.05416486e-02
    -6.95795240e-03 -2.25210004e-03 1.27778640e-02 8.83969292e-03
    -1.10126182e-03 -9.20762215e-03 -5.47491061e-03 1.47205230e-03
    9.24673304e-03 6.26333570e-03 -7.70779094e-04 9.61620267e-03
    -7.36852875e-03 -5.66445896e-03 -3.78885772e-03 -8.10386613e-03
    -5.33055188e-03 2.47809640e-03 3.25698382e-03 -7.48695282e-04
    -1.30484570e-02 -8.81499518e-03 -5.14835073e-03 -2.25962559e-03
    1.92067906e-04 -1.17596377e-04 -3.19996243e-03 1.13100477e-03
    -7.43042398e-03 -1.57830045e-02 8.21117684e-03 1.96950091e-03
    -4.92694043e-03 -7.87490979e-03 -7.41812773e-03 1.73938007e-03
    2.34158884e-04 -3.62919085e-03 3.30721523e-04 -4.63612983e-03
    1.69714610e-03 7.58454530e-03 7.76207307e-03 -6.68447232e-04
    3.88832670e-03 4.85854718e-04 -3.01373424e-04 -6.39912393e-03
    -8.03993456e-03 2.57809740e-03 8.19858909e-03 9.69099812e-03
    -2.34527467e-03 -7.56653445e-03 -7.30596576e-03 -9.56007000e-03
    -9.77752265e-03 -5.81484893e-03 5.47170360e-03 1.09601775e-02
    1.16405999e-02 -7.05481553e-03 -1.11659029e-02 -8.85247253e-03
    -8.12903419e-03 -7.28139002e-03 -8.82101152e-03 3.97957256e-03
    1.72113217e-02 1.32235112e-02 -6.69136469e-04 -1.35931408e-03
    -7.63301831e-03 -5.88678231e-05 -1.72344618e-03 -3.91932484e-03
    8.22556019e-03 1.03739798e-02 8.09341576e-03 -7.42677879e-03
    -5.12077194e-03 -1.08303837e-02 -6.25784742e-03 -4.03690431e-03
    -6.84793014e-03 5.42743225e-03 4.87764087e-03 2.50807195e-03
    -9.10483766e-03 -7.72279734e-03 -3.25936591e-03 -1.98159949e-03
    -8.97417497e-03 -1.84333173e-03 7.69075006e-03 2.11532158e-03
    -7.87581597e-03 -2.67579430e-03 -4.81219543e-03 4.61795833e-03
    4.60396288e-03 -5.03676850e-03 -6.71596825e-03 6.90936577e-03
    6.68182410e-03 1.82851532e-03 -9.66985803e-03 -5.57895517e-03
    -7.09287357e-03 -5.12737874e-03 -5.70610212e-03 -1.12219108e-02
    1.30712586e-02 9.10225045e-03 -7.78999820e-04 2.77104438e-03
    -3.07617593e-03 -2.02282984e-03 -4.33683582e-03 -8.15132912e-03
    -4.36055649e-04 -1.82169999e-04 -4.83228872e-03 -1.17304074e-02
    -1.34983286e-02 -9.42363963e-03 2.04639137e-03 5.43745281e-03
    -2.91678356e-03 -2.26992648e-03 -1.41847864e-04 -3.76364263e-03
    -1.04246214e-02 -1.01496372e-02 3.77370813e-03 1.18041970e-02
    7.17718620e-03 -3.14637250e-03 -8.49579275e-03 6.33883383e-03
    1.86391897e-03 -4.49495111e-03 -6.65210374e-03 -9.97632276e-03
    -2.47945357e-03 1.51087774e-03 -2.35991948e-03 -1.73354137e-03
    6.92440523e-03 -4.64925170e-03 -4.53917077e-03 6.92817557e-05
    3.67310131e-03 4.89321025e-03 7.09287776e-03 4.84277820e-03
    -6.82828622e-03 -3.51619767e-03 -7.23911263e-03 -5.14888437e-03
    -2.19815387e-03 9.36319586e-03 2.07569748e-02 1.15759103e-02
    -3.67685244e-03 -4.86483425e-03 -6.36975979e-03 -1.48066599e-02
    -1.08011421e-02 -5.69256349e-03 -3.78763839e-03 6.38725702e-03
    -1.70500483e-03 -9.64019354e-03 -3.10189032e-04 1.61135162e-03
    -8.94873869e-03 -6.55400520e-03 -8.13322887e-03 1.93978322e-03
    3.88588686e-03 4.60681226e-03 3.99525481e-04 1.79109373e-03
    8.43241345e-04 -1.35506317e-02 -1.11672841e-02 -1.22369565e-02
    -1.05763515e-02 -2.01125653e-03 -2.10637902e-03 -3.50909424e-03
    1.64611638e-03 -4.37503448e-03 -5.99840609e-03 -2.65370379e-03
    -1.91598304e-03 -4.97818971e-03 -2.53327168e-03 -5.36895916e-03
    -8.45713075e-03 -2.72636418e-03 2.73945485e-03 -5.06709702e-03
    -1.17074745e-02 -1.02136238e-02 -1.59623716e-02 -7.75139034e-03
    -6.27224473e-03 -6.82482775e-03 5.11052553e-03 1.16475197e-02
    2.06220406e-03 1.62291480e-03 4.90352092e-03 -1.05327992e-02
    -1.00014899e-02 -9.26479138e-03 -6.68157777e-03 4.65953769e-03
    1.21708214e-02 7.95023143e-03 -2.41338974e-03 -2.14446802e-03
    -1.01565896e-02 -1.37741258e-02 -6.92652259e-03 -5.83963934e-04
    -2.21510464e-03 6.28805207e-03 3.05000576e-03 -8.95323697e-03
    -1.05743576e-02 -8.82736500e-03 1.83497730e-03 3.55043262e-03
    -2.27834610e-03 -6.01533474e-03 -1.17266004e-03 -5.36231138e-03
    -1.18931541e-02 -1.27020413e-02 -4.49268473e-03 -2.64358777e-03
    -1.89666520e-03 -8.33038241e-03 8.52533989e-03 1.19116167e-02
    1.02280490e-02 3.29984905e-04 2.92137032e-03 -1.79207826e-03
    6.30210561e-04 5.27453842e-03 5.76828094e-03 -2.67992844e-03
    -1.53561053e-03 -1.85909832e-03 -9.69709642e-03 -6.57439651e-03
    -3.89059191e-03 5.65166771e-03 5.51422359e-03 1.36268639e-03
    1.09818997e-03 8.46165989e-04 -6.26847334e-03 -8.88437964e-03
    -3.30732693e-03 -1.11453980e-03 5.62693132e-03 5.93099976e-03
    3.48387024e-04 -7.36108376e-03 -7.98553228e-03 -9.14020091e-03
    -1.44488001e-02 7.36973342e-03 -2.78728409e-03 3.01645068e-03
    -1.60549767e-03 -1.82184076e-03 -4.53460217e-03 9.05082910e-04
    5.07568417e-04 -6.69065723e-03 -1.68158615e-04 6.87333615e-03
    1.98787786e-02 1.37879448e-02 2.66967551e-03 -5.60776843e-03
    3.41479550e-03 5.28337201e-03 -1.07505601e-02 -3.98360105e-04
    -2.64332048e-03 3.18854675e-03 1.99992280e-03 -6.42663706e-03
    -3.06208106e-03 -2.12518452e-03 8.26510077e-04 -7.93618092e-04
    8.17098096e-03 7.27301522e-04 3.82233062e-03 -1.73637609e-03
    -1.98025093e-03 1.03829745e-02 6.09510997e-03 6.08976884e-03
    -1.21978104e-04 -6.88585639e-03 -1.05774198e-02 -6.69085141e-03
    -8.98073602e-04 3.13090067e-03 -2.34430400e-03 5.17124450e-03
    6.57845661e-03 5.55928447e-04 6.13543729e-04 -1.33317127e-03
    4.03469661e-03 -1.86954229e-03 -3.56167275e-03 1.06612751e-02
    6.76154904e-03 3.32123763e-03 -7.42821395e-03 -1.50968824e-02
    -1.54315261e-02 -2.58402433e-03 4.86649136e-04 1.15503101e-02
    8.43087398e-03 8.84179864e-03 1.02335410e-02 4.10859101e-03
    -5.30397939e-03 -1.08174775e-02 -7.32830865e-03 3.85448826e-03
    3.53980763e-03 -1.62756443e-03 3.14334407e-03 3.61459842e-03
    -5.07327821e-03 3.68610513e-03 -9.93955322e-03 -2.41986755e-03
    4.35499195e-03 -2.16635223e-03 1.05559137e-02 9.58530512e-03
    8.11624154e-03 -5.98343962e-04 -7.19326129e-03 -1.06473193e-02
    -1.38570718e-03 5.25974203e-03 1.42634893e-02 1.13325682e-03
    6.79254485e-03 5.65677835e-03 -3.46045732e-03 7.21111055e-03
    -5.90422237e-03 1.56902079e-03 3.99643928e-03 2.38724472e-03
    -7.01206969e-03 1.82670797e-03 -8.99355684e-04 -7.25065032e-03
    6.02753786e-03 -6.25696592e-03 4.16676886e-03 5.57152461e-03
    -4.59797867e-03 -9.48055938e-04 9.67877451e-03 7.06456508e-03
    -1.02003952e-02 7.83806900e-04 -1.11630848e-02 3.74470116e-03
    2.79995543e-03 -2.46098079e-03 2.30099401e-03 9.15343035e-03
    1.40039949e-03 -7.18310103e-03 8.26811884e-03 -4.52286191e-03
    4.43358254e-03 8.16155132e-03 -8.43994319e-04 4.81143733e-03
    1.51830576e-02 6.94196159e-03 -9.09558870e-03 9.79334395e-03
    -6.46253349e-03 6.32564537e-03 7.23628327e-03 8.07661284e-03
    -1.79631985e-03 5.60298795e-03 6.34983135e-03 -6.72625378e-03
    -2.22952710e-03 -1.03095761e-02 1.14780315e-03 2.43822439e-03
    -4.20280686e-03 -7.04901468e-04 -4.19204449e-03 -4.42162855e-03
    2.68769916e-03 1.63780916e-02 -2.05860496e-03 5.18917991e-03
    8.08433071e-03 -1.37020985e-03 -4.27300809e-03 7.37081515e-03
    2.89904582e-03 -3.75327631e-03 6.84357341e-03 -5.92971966e-03
    1.81815249e-03 6.17000449e-04 -1.63553515e-03 -4.53715911e-03
    1.57207204e-03 -5.91545540e-04 1.59077928e-03 1.30371973e-02
    -5.96477371e-03 1.03075370e-04 3.34703317e-03 -4.78027994e-03
    -3.22604144e-04 1.28515472e-03 4.99213394e-03 1.43199426e-03
    1.26648592e-04 8.56958982e-03 1.35236057e-02 4.48533986e-03
    -1.46852969e-03 5.12956362e-03 2.50924868e-03 -1.11362711e-03
    -1.42033212e-03 -1.60411198e-03 7.23836292e-03 1.28685553e-02
    5.44736860e-03 5.16431348e-04 -2.42308760e-03 -3.33513075e-04
    -2.67742248e-03 1.10262854e-03 1.17119437e-03 -6.05973240e-04
    6.43531699e-03 9.35289019e-04 -1.56312494e-03 3.84580274e-03
    4.76290751e-03 -1.91639329e-03 5.17185312e-03 3.04307672e-03
    -1.34951074e-03 6.67369878e-03 5.88702597e-03 7.98689260e-04
    8.51179997e-04 2.06139893e-03 -1.50197407e-03 -4.23409743e-03
    -1.97482225e-03 6.63993880e-03 7.07675284e-03 8.85157380e-03
    3.33378441e-03 -5.62118087e-03 2.72696582e-03 -3.90395173e-03
    -4.93435003e-03 -8.30266159e-03 4.75444552e-03 8.88971798e-03
    9.67051275e-03 3.23094428e-03 2.02399067e-04 4.97094868e-03
    3.21056228e-03 1.03824297e-02 5.95074473e-03 1.13752997e-03
    6.30899379e-03 1.78456411e-03 5.55565697e-04 -8.53867549e-03
    -1.62713754e-04 -8.16906046e-04 5.48081379e-03 -1.52634585e-03
    5.84537443e-03 1.29960030e-02 2.32669921e-03 -9.13056720e-04
    -1.60796696e-03 5.78005891e-03 -1.86304224e-03 1.81357237e-03
    -5.68121206e-03 1.69687707e-03 4.19507362e-03 3.70036461e-03
    -1.91061292e-03 -1.26583490e-03 1.23976637e-03 6.33791881e-03
    1.79745462e-02 2.84027332e-03 -8.88169743e-05 -3.02018994e-03
    -4.34377493e-04 -2.58219172e-03 -2.29053618e-03 7.40644708e-03
    4.98947641e-03 7.71548785e-03 -2.32126578e-04 3.96644929e-03
    5.86961489e-03 -1.39205635e-03 -2.59111822e-03 -3.45484773e-03
    9.12713166e-03 1.59790777e-02 1.48497801e-02 2.42687133e-03
    -4.03914973e-03 -5.48663922e-03 -6.97544590e-03 -7.15025095e-03
    -5.23603009e-03 -4.96002985e-03 4.67194896e-03 1.35288136e-02
    2.31028278e-03 -1.24881289e-03 -2.00084969e-03 -2.11822451e-03
    -7.69310212e-03 1.61775923e-03 3.24608129e-03 2.75222701e-03
    2.58569559e-03 -1.84810266e-03 -1.16111524e-03 1.44732112e-05
    -1.39547687e-03 -1.51701528e-03 -1.11191263e-02 -4.54674615e-03
    7.28116184e-03 1.12837655e-02 1.79775641e-03 -2.83377804e-03
    5.46724070e-04 -4.18307260e-03 -1.02791023e-02 -7.82620627e-03
    -4.31315880e-03 6.79916376e-03 1.17204720e-02 4.12117457e-03
    5.02106966e-03 6.10105647e-03 7.53307622e-03 -6.17572526e-03
    6.31798524e-04 8.63120003e-05 -3.41593940e-03 -4.98555927e-03
    -1.06723914e-02 -9.35020670e-03 -6.85536396e-03 -4.62844735e-03
    -1.92072504e-04 3.72683094e-03 2.07515131e-03 9.29780025e-03
    7.75354216e-03 -4.78936406e-03 -1.51608884e-02 -1.09385215e-02
    -5.40143531e-03 -3.82568804e-03 -8.61842092e-03 -8.15385953e-03
    -2.76998919e-03 3.83486925e-03 -3.62716476e-03 -2.48490134e-04
    1.64626038e-03 6.30797166e-03 -7.28661940e-03 3.68203997e-04
    -1.74973044e-03 -1.54112768e-03 1.36149842e-02 -2.31294520e-03
    1.13448617e-03 -4.02424578e-03 -4.73833818e-04 -9.56016500e-03
    6.46632025e-03 3.27818538e-03 9.44354665e-03 5.82350604e-03
    -5.58209652e-03 -1.01645608e-02 -6.21938473e-03 2.09618174e-03
    3.33608780e-03 3.47433961e-03 -4.33012331e-03 -5.18114306e-03
    -7.90619198e-03 -9.20045283e-03 -8.61614756e-03 -5.52226411e-05
    4.87463642e-03 1.42600406e-02 2.23242608e-03 2.63063004e-03
    -1.01301412e-03 8.53574928e-03 -3.36528104e-03 1.08137407e-04
    1.22591807e-03 2.29076762e-03 -5.15651749e-03 2.84977810e-04
    -1.97268673e-03 -8.12425092e-03 -3.61736747e-03 -2.66877911e-03
    -3.26021481e-03 7.95166660e-03 6.02809526e-03 2.07139249e-03
    7.03797536e-03 -3.40988068e-03 -7.69092096e-03 -8.64106696e-03
    -1.18434560e-02 -5.44078741e-03 -2.26719436e-04 4.63429460e-04
    1.32488329e-02 8.88336543e-03 -5.39470057e-04 -8.24261829e-03
    -6.67001121e-03 -2.86723580e-03 1.02642803e-02 6.69307588e-03
    5.87221235e-03 9.67572536e-03 2.63301237e-03 -2.86454405e-03
    -6.24306919e-03 -1.00645777e-02 -1.40968002e-02 -9.95480642e-03
    3.52176419e-03 5.43517666e-03 3.86322499e-03 -1.42957302e-04
    -6.72586029e-03 -5.88734681e-03 -9.72478185e-03 -1.40255746e-02
    -3.56095959e-03 1.51665485e-03 1.45196049e-02 -2.37986026e-03
    7.66315497e-03 -8.84135487e-04 -5.73568698e-03 -8.45439173e-03
    -1.04759717e-02 -1.60929735e-03 2.14976352e-03 4.51229513e-03
    4.98943590e-03 9.29006899e-04 -2.12431932e-03 4.87455307e-03
    5.77559741e-03 -2.45816750e-03 5.26488945e-03 2.35268846e-03
    6.04805443e-03 3.62332491e-03 -7.11816689e-03 -1.15420418e-02
    -8.03524349e-03 -1.10210665e-02 -1.71560925e-02 -2.72387103e-03
    -8.99488805e-05 1.12057654e-02 -4.56716307e-03 -1.14168245e-02
    -4.67246585e-03 -9.78669734e-04 -9.43961367e-03 -1.13975769e-02
    1.54231116e-03 4.90128808e-03 8.93592276e-03 4.69812978e-04
    -6.84164464e-03 -4.96420590e-03 2.10554362e-03 -3.07040638e-03
    -9.60229151e-03 -2.64553120e-03 -8.27231444e-03 7.51497922e-04
    5.75412577e-03 4.21990966e-03 1.29488716e-03 5.81553672e-03
    -8.76679725e-04 -1.25523144e-02 -9.40561201e-03 -1.42822014e-02
    -4.83230874e-03 8.18577316e-03 8.12936050e-04 -2.78769410e-03
    2.42061983e-03 -9.04493593e-03 -1.18110264e-02 -7.99324550e-03
    -4.82253311e-03 7.63780379e-04 8.45538266e-03 1.73548963e-02
    7.02023646e-03 1.05780065e-02 3.31041694e-04 -1.00867217e-02
    -1.11869480e-02 -1.04376841e-02 -3.91580863e-03 1.49412276e-02
    -1.47667795e-03 1.95027736e-04 4.41750651e-03 -5.44863520e-03
    -1.19849984e-02 -1.05907805e-02 -1.32384403e-02 -1.07340449e-02
    -2.46623158e-03 -9.67673119e-03 5.45743108e-03 4.72047552e-03
    2.24698233e-04 -4.16794000e-03 -8.18999112e-03 -1.21125458e-02
    -1.17824832e-02 -9.59458388e-03 1.55789210e-02 8.35895445e-03
    1.05957352e-02 -1.12824072e-03 -1.08669866e-02 -1.19764442e-02
    -9.43153258e-03 -3.58945318e-03 5.66557702e-03 5.97935123e-03
    1.12127475e-02 1.63704511e-02 1.16515392e-02 -7.16376162e-05
    -1.78142672e-03 -5.88004757e-03 -3.61027266e-03 -1.07992394e-03
    -4.45485162e-03 1.04420874e-02 7.23422598e-03 -2.22023973e-05
    -1.54051383e-03 -5.16026281e-03 -5.78114670e-03 -4.78075119e-03
    -2.74095498e-03 -1.92340545e-03 5.64015703e-03 -6.31702552e-03
    -4.82658576e-03 -4.62619762e-04 -5.37942629e-04 -4.94046137e-03
    -1.16022571e-03 4.87871759e-04 5.46958437e-03 9.59139969e-03
    6.94696326e-03 7.01230485e-03 3.46359494e-03 3.83968721e-03
    -3.59003339e-03 -9.48360376e-03 -2.19043065e-03 -4.29994008e-03
    -3.08981678e-03 -4.71382821e-03 -3.06054414e-03 4.14154958e-03
    6.34704344e-03 -3.00261867e-03 -8.60605575e-03 -5.94912143e-03
    2.15210975e-03 6.24363404e-03 -2.92661646e-03 -5.51455538e-04
    -2.03920435e-03 2.80278968e-03 -1.54665357e-03 4.33957248e-05
    -1.41708087e-03 -2.89000245e-03 2.23678094e-03 1.09866727e-03
    -5.70366043e-04 -7.40519445e-03 -7.43273832e-03 -3.32986726e-03
    -1.81020889e-03 -5.55213680e-03 -1.01432912e-02 -8.97778105e-03
    -5.74304955e-03 -2.15796591e-03 3.90490401e-03 4.62105358e-03
    -5.63659472e-04 -5.38362842e-03 -5.70596848e-03 -7.76348589e-03
    -2.13738251e-03 7.96726812e-03 7.29980087e-03 2.90021463e-03
    -3.57873342e-03 -7.90533144e-03 -1.68968481e-03 -5.37072076e-03
    -1.24940202e-02 6.21489808e-03 1.08291423e-02 2.89810030e-03
    1.79355009e-03 -8.38104542e-03 -7.93473795e-03 -9.26797464e-03
    -1.33734485e-02 -7.61193875e-03 6.25627581e-03 9.57333017e-03
    1.77583110e-03 2.51894281e-03 -7.43098464e-03 -9.80283786e-03
    -5.71343815e-03 -9.60882287e-03 -1.14920745e-02 2.17486802e-03
    1.23826386e-02 7.62378704e-03 -3.40718124e-03 -7.51612941e-03
    -9.18965507e-03 -2.60491623e-03 -1.67918596e-02 -3.46815260e-03
    4.32091905e-03 7.91942235e-03 2.76511395e-03 -1.69292337e-03
    -7.25081563e-03 -5.61938714e-03 3.03697027e-03 -8.94237496e-03
    1.95387681e-03 6.91936724e-03 2.63449736e-03 -5.76236006e-03
    -6.50230322e-06 -4.50207712e-03 -2.91811815e-03 3.38753080e-03
    3.95489158e-04 -7.17900461e-03 -2.22004182e-03 -6.90227491e-04
    -1.41275544e-02 -1.16013540e-02 -9.30561777e-03 -5.66614792e-04
    1.00681605e-03 -5.87062025e-03 8.38195998e-03 5.54341078e-03
    -2.12010476e-04 -6.45193085e-03 5.85953996e-04 1.73215580e-03
    6.62572170e-03 1.63850468e-02 9.06448066e-03 3.78697994e-04
    -5.22525096e-03 -7.08441576e-03 -1.64935570e-02 -1.11804074e-02
    -1.05757443e-02 1.14609441e-03 3.04078893e-03 1.12843979e-03
    -2.71599693e-03 2.02376978e-03 2.73695891e-03 -9.04353429e-03
    -5.37270028e-03 -8.89416959e-04 1.01867728e-02 7.20383972e-03
    8.26906355e-04 -4.99847019e-03 2.75923114e-04 -3.55853990e-04
    -9.68446769e-03 -4.00044164e-03 -6.00412535e-03 7.52121967e-04
    6.07897877e-04 -3.38784466e-03 -4.44323756e-04 2.03869469e-03
    2.60158005e-04 -1.14946011e-02 -4.52684890e-03 -1.25262165e-03
    5.21142827e-03 1.01015298e-02 7.27418624e-03 -7.45109748e-03
    -6.04959996e-03 -1.21193808e-02 -8.70390609e-03 4.62180702e-03
    -5.96587127e-03 1.58757891e-03 -5.80622628e-03 -4.62029409e-03
    3.36646545e-03 9.08450969e-03 8.57139099e-03 -3.16066248e-03
    -1.30434602e-03 4.23762140e-06 9.16698761e-03 4.81216982e-03
    -5.78219478e-04 1.31344912e-03 4.01863968e-03 -2.32588663e-03
    -1.07129756e-02 -1.29423644e-02 -8.81892722e-03 2.96714436e-03
    4.43830388e-03 2.37445021e-03 -3.84051981e-03 -3.52714816e-03
    -9.40681994e-03 -5.70216216e-03 7.48956157e-03 5.59115363e-03
    1.72520168e-02 2.13478785e-03 -4.08153608e-03 -2.91157607e-03
    -1.18726830e-03 -4.82274266e-03 -1.35975042e-02 -3.77276773e-03
    -3.78896715e-03 8.57900362e-03 3.32593662e-03 -6.75785914e-03
    4.71008522e-03 7.39895878e-03 3.43770883e-03 -5.34085231e-03
    -2.56656762e-03 -5.48363151e-03 2.49519409e-03 5.89038897e-03
    7.28987064e-03 8.59378930e-03 1.32471565e-02 7.69315148e-03
    -6.56992372e-04 2.04854645e-03 -5.37975691e-03 1.42205111e-03
    3.01369256e-03 1.26617192e-03 1.15921814e-03 6.06981572e-03
    7.48821115e-03 -4.34087822e-03 2.48160074e-03 -6.54866733e-03
    1.69666589e-03 1.56163168e-03 -1.38804631e-03 4.31146426e-03
    6.91473857e-03 5.97408088e-03 1.19266015e-05 2.63596955e-03
    -9.09607857e-03 1.76842045e-03 5.14723081e-03 7.63258431e-04
    4.19146894e-03 1.08257476e-02 4.40601353e-03 -2.08890880e-03
    3.57276527e-03 -5.52042201e-03 5.33839315e-03 6.37336168e-03
    -4.46763029e-03 3.40622058e-03 8.31975974e-03 7.63322646e-03
    -6.34935731e-03 3.10703809e-03 -7.26639759e-03 3.89718264e-03
    6.75037224e-03 5.36626671e-03 6.92831527e-04 4.20718640e-03
    2.32638745e-03 -4.63342899e-03 -1.36110885e-03 -1.13093778e-02
    8.93152226e-03 9.65915993e-03 -3.39028798e-03 4.58888430e-03
    6.84293127e-03 7.03462306e-03 -9.19236522e-03 -5.18149231e-03
    -1.09970439e-02 2.47339648e-03 8.12573731e-03 1.20760524e-03
    -5.11409109e-03 2.44386611e-03 1.12708565e-03 -4.44354443e-03
    1.53658504e-03 -2.52471678e-03 8.72209202e-04 3.75075103e-03
    1.12512533e-03 -3.26548750e-03 3.25580616e-03 1.95355387e-03
    -2.59350846e-03 -3.18441493e-03 -5.65738301e-04 2.70849536e-03
    1.01167411e-02 3.71862925e-03 7.43688433e-04 1.83795026e-04
    9.22740612e-04 -5.22863911e-03 -3.15639097e-03 -2.16751057e-03
    -3.49729531e-03 1.52672082e-03 3.48329055e-03 3.57061857e-03
    4.33910545e-03 4.02880600e-03 -1.89807382e-03 3.37469368e-03
    2.68389191e-03 6.85582357e-03 1.54549219e-02 1.43313194e-02
    -1.81485608e-03 3.11636575e-03 1.03616703e-03 8.53253994e-04
    -1.41682662e-03 -3.90498573e-03 -2.67585037e-05 -1.10390224e-03
    -3.17183253e-03 -3.20176594e-04 7.16413977e-03 2.61337543e-03
    7.08837877e-04 1.96390529e-03 -3.14174895e-03 -7.11734931e-04
    2.01336996e-04 -1.85055065e-03 -4.23911057e-04 3.74192279e-03
    8.22442956e-03 1.48943567e-03 3.74721526e-03 7.31299864e-03
    8.69690906e-03 6.93887658e-03 -2.18476658e-03 -2.41207657e-03
    6.71261968e-03 4.14210232e-03 3.32438573e-03 4.06486401e-03
    3.58001073e-03 6.16616523e-03 5.78378187e-03 -3.92616261e-03
    -9.11222363e-04 7.11944979e-03 6.87128957e-03 5.57527877e-03
    9.36707109e-03 8.20545247e-04 2.22769147e-03 1.09664828e-03
    -7.04807695e-04 -2.85958895e-03 4.88081202e-03 2.23037880e-03
    -1.79212409e-04 -1.35164615e-03 3.25376773e-03 5.05467225e-03
    -2.57888762e-03 -4.79438016e-03 1.40792108e-03 1.03605874e-02
    5.88339660e-03 4.51160735e-03 5.50529826e-03 -2.28958484e-03
    2.09164061e-03 7.19975156e-04 1.70534849e-03 2.08789832e-03
    4.41552792e-03 1.25197950e-03 -6.50701346e-04 -7.36725575e-04
    -1.73765991e-03 2.05147135e-05 -6.33958355e-03 2.33905303e-04
    1.36144948e-03 7.62741920e-03 7.66725047e-03 4.61521558e-03
    2.41172477e-03 3.94334085e-03 1.33992336e-03 -1.94835034e-03
    -7.75609980e-04 -2.91505246e-03 7.82783236e-03 1.05940355e-02
    7.27103092e-03 4.92751366e-03 -2.83701555e-03 -3.41205532e-03
    -1.14850397e-03 -1.65787875e-03 2.60530459e-03 1.94728770e-03
    4.79437504e-03 1.55323127e-03 2.79869884e-03 2.78790412e-03
    -2.71226536e-03 -3.78226000e-03 2.20282353e-03 5.60493208e-04
    4.36325185e-03 5.72329620e-03 -1.92988489e-03 9.81910853e-04
    -2.11192272e-03 -6.07317686e-03 5.26027754e-03 4.21399949e-03
    -1.11487461e-02 -4.52309428e-03 4.18493932e-04 4.97959414e-03
    4.27342718e-03 -2.84356740e-03 2.60915933e-03 1.49039202e-04
    -4.34896909e-03 -8.73159058e-03 -7.00879144e-03 3.33902007e-03
    1.40074119e-02 2.13155407e-03 2.11075763e-03 8.23944435e-03
    7.85659812e-03 -2.64075352e-03 -8.78468156e-03 -9.52080663e-05
    -2.64430675e-03 2.47019995e-03 -8.04775918e-04 -1.81767438e-03
    -4.32024105e-03 1.95659138e-03 -3.55987158e-03 -1.15222542e-03
    3.46089061e-03 -2.42849332e-04 1.24600511e-02 1.74909935e-03
    -4.84534446e-03 -1.96002889e-03 2.39666179e-03 -7.01330556e-03
    -1.22535173e-02 -1.04025165e-02 -2.00706464e-03 7.95788597e-03
    -2.47279485e-03 -5.92823420e-03 2.63632252e-03 5.50515810e-03
    -1.01062171e-02 -7.78463995e-03 -8.90580472e-03 -7.88177457e-03
    9.86439176e-03 3.96168977e-03 3.97272361e-03 1.50512136e-03
    1.81751128e-03 -8.50028638e-03 -5.11899451e-03 -3.53097543e-03
    -9.70261917e-03 -1.62647478e-03 -2.72241095e-03 -9.12848208e-03
    -2.08794707e-04 2.98854010e-03 -1.13784391e-02 -2.06950656e-03
    -6.22840179e-03 -1.66971646e-02 -9.71288793e-03 2.13589263e-03
    7.14726746e-03 1.04912762e-02 6.99569890e-03 -2.20361655e-03
    -1.06629450e-02 -8.80348496e-03 -1.11587588e-02 4.21535410e-03
    -4.17829771e-03 3.05604102e-04 -1.86483143e-03 -2.18405947e-03
    -1.11268042e-02 -5.97124081e-03 -5.22738462e-03 -1.26903411e-02
    -9.41658393e-03 -8.95384047e-03 -5.62406564e-03 4.84654185e-04
    -1.60947791e-03 -5.16289659e-03 6.26372918e-03 -6.99598109e-04
    -9.53659415e-03 -7.19371159e-03 -5.49665245e-04 1.38077559e-03
    4.33119480e-03 1.24509772e-03 1.98875670e-03 1.35502666e-02
    1.29230665e-02 -4.36924340e-04 -4.93989000e-03 -6.68754941e-03
    -7.42201740e-03 4.66322119e-04 -1.06426724e-03 2.79291184e-03
    1.53676106e-03 -2.19534617e-03 -9.41625424e-03 -1.18656997e-02
    -1.63683929e-02 -1.10068927e-02 -1.59382646e-03 2.15353374e-03
    4.28381376e-03 -2.08007614e-03 -8.44586734e-03 -1.45686101e-02
    -1.65305287e-02 -1.75667070e-02 -1.36791505e-02 -3.73337488e-03
    5.78460516e-03 3.34297889e-03 2.16969885e-02 1.02068642e-02
    8.12436512e-04 -6.31418033e-03 -1.21346610e-02 -1.10459803e-02
    -1.23930059e-03 1.19591858e-02 1.93210561e-02 1.18915532e-02
    2.07758858e-04 -1.00821387e-02 -1.20529821e-02 -1.27357794e-02
    -1.00161340e-02 -1.48093258e-03 1.51695590e-02 1.81521811e-02
    -1.12954713e-02 -1.26847802e-02 -1.21465800e-02 -1.46942642e-02
    -1.54674966e-02 -7.27445586e-03 2.37035169e-03 6.16890704e-03
    -3.69106350e-03 -4.45995107e-03 5.01442177e-04 5.52206839e-05
    -1.03755537e-02 -1.05710449e-02 -4.62744199e-03 4.96048294e-03
    1.08343661e-02 1.94197812e-03 -1.97222573e-03 -5.27002523e-03
    -7.32921809e-03 -8.80357902e-03 -9.70639940e-03 -7.41054490e-03
    2.34426884e-03 1.03595406e-02 3.42562306e-03 1.04910426e-03
    5.32427663e-03 9.28695407e-03 -5.82331186e-03 -1.11555550e-02
    -7.03714648e-03 5.68923354e-03 1.00752097e-02 4.74711601e-03
    2.57987849e-04 1.28999539e-03 1.05101103e-03 -7.01574143e-03
    -1.63610447e-02 -9.66267753e-03 -4.54607932e-03 -7.10862339e-04
    -8.15402018e-05 3.07072187e-03 1.43051823e-03 7.88742024e-03
    6.34217868e-03 -4.09657322e-03 -9.01789870e-03 -1.17898192e-02
    -4.63143038e-03 1.94562308e-03 1.10905932e-03 1.02594113e-02
    1.51885794e-02 9.39734280e-04 -1.28763840e-02 -8.66259262e-03
    -7.09227659e-03 -3.16871190e-03 -8.71965010e-03 -6.03049994e-03
    1.85735605e-03 9.44743492e-03 2.97557283e-03 -5.65427728e-03
    -7.96368998e-03 -1.40332449e-02 -1.00328103e-02 -1.07437568e-02
    8.37478321e-03 3.49643128e-03 8.60369205e-03 7.34484848e-03
    -4.28095507e-03 -6.59788121e-03 -6.62124064e-03 6.98912831e-04
    1.01107405e-03 4.26667929e-03 6.15918916e-03 1.12946136e-02
    8.37521814e-03 3.94974696e-03 -1.97458561e-04 -2.67431466e-03
    -9.20079648e-04 -5.68830175e-03 -5.74484002e-03 -2.89418874e-03
    1.52228505e-03 -2.35429077e-04 -5.98007673e-03 -8.52001458e-03
    -1.25857163e-02 -9.12900735e-03 -5.65575762e-03 -6.28173072e-03
    -3.10549280e-03 6.48899004e-03 4.78392001e-03 5.18943125e-04
    -7.64798606e-04 8.70682416e-04 -2.48034950e-03 -6.05927221e-03
    -1.42037973e-03 2.55167834e-03 3.70835536e-03 8.60532466e-03
    2.13779905e-03 6.45592250e-03 4.21132054e-03 -3.67846130e-03
    -8.49260390e-03 -9.35592409e-03 -7.51821510e-03 -7.15199450e-04
    -1.61977310e-03 7.27002625e-04 8.73211026e-03 2.09177728e-03
    -9.91256721e-03 -8.93567037e-03 -1.04293106e-02 -7.10513536e-03
    7.55799760e-04 6.87404536e-03 3.78727866e-03 7.51229841e-03
    1.11605264e-02 5.61407721e-03 -4.30214452e-03 -1.23561285e-02
    -8.75949673e-03 -2.11972673e-03 -4.13171045e-04 -2.55666277e-03
    5.87401818e-03 3.65156564e-03 -2.62769731e-03 -1.07174236e-02
    -1.00152344e-02 -8.68204422e-03 -1.39194832e-03 -4.55613667e-03
    3.89059214e-03 1.11480178e-02 3.96116870e-03 -3.49659123e-03
    -4.04603500e-03 -2.63992348e-03 4.06526076e-03 1.07377190e-02
    4.26332885e-03 -1.35099195e-04 -3.26193264e-03 -3.58705991e-03
    9.42907296e-04 -3.10854963e-03 -1.03803920e-02 -2.11708737e-03
    2.31006439e-03 -3.84310284e-03 -4.58631665e-03 3.18235555e-03
    9.09306202e-03 5.73858898e-03 -8.83036572e-03 -3.77564435e-03
    9.75683704e-03 1.39274187e-02 -5.24274772e-04 -1.09723061e-02
    -1.05869072e-02 -3.05823772e-03 -1.79014564e-03 -7.33920699e-03
    -4.25071782e-03 9.96267516e-03 1.61522292e-02 1.23216202e-02
    -3.92353162e-03 -8.42481665e-03 -7.37323379e-03 7.94772059e-04
    -9.88135394e-03 8.33511178e-04 7.59387342e-03 1.32169398e-02
    7.86140002e-03 -4.55874065e-03 -5.28615247e-03 -8.61551519e-03
    -2.86385417e-03 -1.02678249e-02 -6.93061715e-03 6.10667793e-03
    1.22976331e-02 2.52588396e-03 -7.79236387e-03 -9.84506868e-03
    1.70402473e-03 1.90612674e-03 -7.71322241e-03 -6.05278369e-03
    1.13649864e-03 3.27774463e-03 -2.95323273e-03 -1.19303912e-02
    -6.91008102e-03 -9.17293038e-03 -9.48606525e-03 -1.27129676e-02
    7.86054414e-03 8.15002620e-03 6.89705042e-03 4.69937595e-03
    1.32018956e-03 6.50974037e-03 -1.34764309e-03 -1.43586891e-03
    -2.28423229e-03 2.14695162e-03 5.34101389e-04 -8.11538845e-03
    -9.84107051e-03 -7.18179066e-03 -4.42746142e-03 -4.71150642e-03
    -4.88794781e-03 -3.54370172e-03 -3.74114932e-03 1.31327601e-03
    2.21283222e-03 1.25288579e-03 -4.14588110e-04 1.12086895e-03
    -8.66678543e-03 -1.52140232e-02 -1.03946058e-02 -8.32566619e-03
    -9.32209566e-03 -8.49039853e-03 -7.88877776e-04 4.03539190e-04
    -2.55764904e-03 -6.32870197e-03 -1.11631863e-02 -9.17793252e-03
    5.37411124e-03 6.09909045e-03 1.22157100e-04 -5.91146061e-03
    3.03564186e-04 5.94938826e-03 5.52930217e-03 4.62095719e-03
    1.24541007e-03 -7.18412269e-03 -5.16603608e-03 -8.53482448e-03
    -9.44688357e-03 3.30900378e-03 -4.49679652e-03 2.04187981e-03
    -5.72901545e-03 -7.27179227e-03 -7.02988962e-03 -6.12747017e-03
    -4.89344308e-03 7.13875808e-04 8.54940526e-03 6.91573881e-03
    7.29428232e-03 2.02246220e-03 -6.95211394e-03 -9.68893804e-03
    -5.83564769e-03 -9.14536417e-03 -1.38682276e-02 3.16301524e-03
    -2.58614239e-03 2.30991398e-03 3.39336833e-03 -8.30184855e-03
    -7.58460548e-04 -2.42356025e-03 -2.80554872e-03 -4.67296084e-03
    7.63329118e-03 2.10804306e-03 6.32871175e-03 -1.73584512e-03
    -4.55357600e-03 2.92097987e-03 -2.29619429e-04 1.13629235e-03
    -1.02647226e-02 3.77179938e-03 -2.39551257e-04 4.14262991e-03
    1.33133971e-03 -3.70884477e-03 -7.17176357e-03 -3.22462321e-04
    4.33828589e-03 -2.42558005e-03 1.19745163e-02 -3.34212580e-03
    2.66824779e-03 1.43062195e-03 -7.09807221e-03 1.04158884e-03
    1.71749468e-03 4.61617857e-03 -4.34289267e-03 1.74414553e-02
    2.49701599e-03 4.71560255e-04 -1.83851866e-03 -6.69343630e-03
    -6.52046700e-04 3.14398063e-03 6.94463868e-03 -3.96981603e-03
    4.76008188e-03 -5.12957200e-03 1.59615395e-03 -2.83359713e-03
    -4.10249969e-03 -8.46725982e-03 3.38672573e-04 5.58247193e-05
    -6.77059451e-03 5.67779504e-03 -4.71619470e-03 2.78882915e-03
    8.37562315e-04 -7.51127861e-03 1.26265164e-03 8.27374030e-03
    1.02134952e-02 -2.90704193e-04 1.37463426e-02 -7.46308593e-04
    -1.38838647e-03 -4.24143206e-03 -8.82184599e-03 -7.25680590e-03
    8.92932247e-03 9.05891322e-03 -5.57604991e-03 1.08503038e-02
    4.08181601e-04 2.76642479e-03 -3.73484108e-05 -1.65875256e-02
    -4.85831732e-03 3.37887881e-03 -3.06248025e-04 -7.14079337e-03
    1.75448169e-03 -6.91493228e-03 5.71018970e-03 7.61851063e-03
    -3.92428273e-03 2.48884386e-03 9.13600530e-03 5.64603275e-03
    -9.85045359e-03 -4.03091731e-03 -6.49689278e-03 3.93228838e-03
    1.09058078e-02 1.73644489e-03 -5.30661456e-03 7.50018563e-03
    5.10262931e-03 -6.23831665e-03 1.21696517e-02 -8.66084010e-04
    3.11400346e-03 1.69394282e-03 -9.59366839e-03 -4.43649478e-04
    9.09387693e-03 4.32617730e-03 -6.75874017e-03 8.99496768e-03
    -8.21733731e-04 5.36098238e-03 3.05869849e-03 -3.00666806e-03
    -2.06278940e-03 1.88092177e-03 3.07547953e-03 -4.91002575e-03
    -2.48373440e-03 -4.66263480e-03 -1.54919527e-03 2.80366419e-03
    5.76392107e-04 1.10245170e-03 3.88002628e-03 6.68190839e-03
    -9.97467898e-04 6.90734200e-03 -2.31450656e-03 2.49027228e-03
    5.42799709e-03 6.23499835e-03 -7.15642562e-03 3.51519417e-03
    2.79571651e-03 -6.25979668e-03 7.90698628e-04 -1.91844138e-03
    3.21923057e-03 -2.69608445e-05 -4.38937126e-03 -1.58218574e-03
    8.76077078e-03 1.52113149e-02 3.36177927e-03 8.63857381e-03
    -9.25130385e-04 1.68574252e-03 5.30491816e-04 -1.60763669e-03
    -2.28460343e-03 -2.09767371e-03 2.68063392e-03 5.69228549e-04
    3.91479768e-03 9.22014471e-03 7.70131499e-03 8.03024415e-03
    -3.84948868e-03 -6.61918847e-03 6.60204852e-04 -1.97779271e-03
    2.98120268e-03 -5.40768320e-04 6.02629455e-03 6.38733339e-03
    5.44877769e-03 -1.04716113e-02 2.35795349e-04 7.52943568e-04
    2.26902100e-03 2.05039373e-03 6.58168923e-03 5.02392277e-03
    -1.64917461e-03 8.52980185e-03 1.31412281e-03 1.29846192e-03
    1.85975758e-03 1.75379228e-03 6.64122822e-03 -2.82691303e-03
    4.23902879e-03 -4.33088839e-03 4.08455683e-03 -5.25835552e-04
    -6.87429158e-04 5.68131544e-03 2.10073125e-03 6.07813103e-03
    3.59405857e-03 -1.93398271e-03 1.21212564e-03 -5.67870084e-05
    -1.24432961e-03 -2.62699230e-03 -1.84580567e-03 3.36005981e-03
    6.05068495e-03 2.55912798e-03 -7.66228605e-03 -8.28733854e-03
    -8.97534937e-03 -5.05691860e-04 8.38256720e-03 4.18504840e-03
    7.58329034e-03 1.37154106e-02 -1.63301139e-03 -1.86392793e-03
    -1.52800453e-03 2.99621699e-03 6.51243562e-03 5.14836330e-03
    -8.80612643e-05 5.00625698e-03 9.89814196e-03 -4.45921067e-03
    -9.50747635e-03 -2.08950508e-03 3.81988776e-03 9.08603892e-03
    -2.35832995e-03 -2.40477105e-03 2.45594955e-03 1.99951488e-03
    -2.91097269e-04 -1.97348255e-03 -5.47161466e-03 -2.68780347e-03
    -8.00261041e-04 4.59889090e-03 5.17398352e-03 1.81868754e-03
    -7.39715202e-03 -8.83112755e-03 -9.16812103e-04 -6.21339306e-03
    4.37815179e-04 1.85573171e-03 1.16057519e-03 4.75587463e-03
    3.15676560e-03 2.20143585e-03 -3.19453562e-03 -3.08572617e-03
    6.54270989e-04 6.49757870e-03 5.24390209e-03 3.96741368e-03
    8.45726766e-03 3.32787284e-03 7.94611685e-03 2.01021112e-03
    2.02450925e-03 5.96540282e-04 6.33259164e-03 -1.67911014e-04
    3.78042838e-04 6.69517182e-03 -8.31306854e-04 -4.67423117e-04
    -6.38341391e-03 -7.57923874e-04 -5.34284906e-03 -1.20959769e-03
    -3.29968566e-03 2.27006909e-04 8.88266973e-03 -1.57165388e-03
    4.72798478e-03 -6.36151177e-04 -3.31561104e-03 -1.17317203e-03
    1.38980441e-03 -7.75148487e-03 -1.78555190e-03 5.98427514e-03
    -1.80585741e-03 6.91514276e-03 -1.06577110e-03 -1.82705000e-03
    -8.01495975e-04 8.85574205e-04 -2.07746564e-03 -3.38622066e-03
    -1.61216781e-03 1.30262179e-03 2.37260060e-03 -5.12094004e-03
    -5.34293766e-04 6.66576624e-03 4.78065526e-03 -1.45656231e-03
    -1.19780132e-03 3.12696933e-03 -5.01793763e-03 -6.93507027e-03
    -5.02522336e-03 -3.95567063e-03 2.83023529e-03 3.51887220e-03
    -7.76470127e-03 9.19658039e-03 4.49765706e-03 -3.96558875e-03
    -1.32797277e-02 -1.91679073e-03 6.10687956e-03 1.16107389e-02
    1.25218583e-02 5.35535300e-03 -2.79693003e-03 -1.79303330e-04
    -2.05136789e-03 -9.94160771e-03 -1.32359359e-02 -8.95247422e-03
    3.16331699e-03 5.94954519e-03 -4.24847007e-03 3.78107885e-03
    8.11276492e-03 9.71876376e-04 -1.34192798e-02 -1.27965054e-02
    -1.03003802e-02 -7.93995988e-03 -1.44795442e-04 1.17660861e-03
    3.01488186e-03 -1.38040609e-03 -1.16356537e-02 -1.54272048e-02
    -5.82422456e-03 -1.96982129e-03 -2.02760147e-03 4.00679279e-03
    1.99691788e-03 6.20396342e-03 1.04838610e-03 -4.89586790e-04
    -8.17852560e-03 -1.96331250e-03 -6.43892772e-03 -3.08581092e-03
    1.36620214e-03 1.06801989e-03 -2.30758754e-03 -4.08704684e-04
    -8.22205190e-03 -1.75738353e-02 -1.41152497e-02 -8.90563801e-03
    -6.79141516e-03 -1.03142243e-02 -7.97065720e-03 -7.60741299e-04
    6.47738168e-04 1.28390398e-04 -8.65125936e-03 -7.12104375e-03
    -1.14276144e-03 1.21902546e-03 -8.46962444e-03 -7.54899171e-04
    1.04949381e-02 2.57079513e-03 4.17274470e-03 8.89368763e-04
    -6.35469938e-03 -1.02577833e-02 -5.15034329e-03 7.57436408e-03
    6.89545274e-03 -3.88791086e-04 -9.65332147e-03 -5.86475991e-03
    -6.84155617e-03 -8.95362068e-03 -8.56816024e-03 1.92562258e-03
    1.22326836e-02 9.84580442e-03 -2.38856138e-03 -7.02373777e-03
    -1.70529739e-03 -1.28392619e-03 -7.56166503e-03 -7.69883441e-03
    -2.07475503e-03 -4.30119736e-03 9.09962459e-04 -9.28219035e-03
    -1.49028292e-02 -7.59017514e-03 -1.02680344e-02 -1.68780778e-02
    -1.23920487e-02 -1.90529285e-03 6.83287071e-05 -5.26476419e-04
    -9.18249693e-03 -1.05918190e-02 -7.01198680e-03 -9.61566903e-03
    -1.46506596e-02 -1.10177556e-02 2.05512741e-03 1.56393815e-02
    2.76537891e-03 -4.78832703e-03 2.31593219e-03 7.53973564e-03
    -8.46040808e-03 -1.76550150e-02 -1.48797082e-02 -2.18717847e-03
    1.04331831e-02 -1.71650795e-03 -1.15276705e-02 -9.19368584e-03
    -4.16078744e-03 -9.55379941e-03 -2.31347326e-02 -1.01954946e-02
    5.11757331e-03 1.08744539e-02 -3.05033405e-03 -5.05675282e-03
    5.99383609e-03 9.65042133e-03 -7.19192671e-03 -1.92707442e-02
    -1.00282021e-02 1.20681850e-02 8.36132839e-03 -8.48217867e-03
    6.18931185e-03 1.88923683e-02 1.85557939e-02 4.05670749e-03
    -1.15418350e-02 -1.09792044e-02 -2.46769679e-03 1.60851004e-03
    1.07252004e-03 -1.77607790e-03 6.85140351e-03 8.12716410e-03
    -3.12968361e-04 -7.07940711e-03 -1.01893283e-02 -9.78671201e-03
    -7.76439859e-03 -8.06420390e-03 -3.54416994e-03 1.02878064e-02
    1.40799722e-02 -4.58863913e-04 -1.67709887e-02 1.32662011e-04
    9.58962552e-03 4.04857565e-03 -1.11513706e-02 -8.19445960e-03
    4.06590383e-03 8.24852753e-03 -5.23155509e-03 -1.71734560e-02
    -9.99896415e-03 -5.78570738e-03 -1.22455750e-02 -1.55239748e-02
    -6.43088715e-05 1.66620791e-03 6.19813707e-03 1.49199576e-03
    -2.27930443e-03 -8.05173069e-04 -3.04829981e-03 -3.51630896e-03
    -2.28041084e-03 -1.53006683e-03 -2.66454672e-03 3.40346270e-03
    5.30448835e-03 4.73661022e-03 8.03369377e-03 8.21118988e-03
    4.58848896e-03 -1.51099358e-03 -7.88443349e-03 2.07405654e-03
    7.40585197e-03 -2.88281613e-03 -7.55550154e-03 -8.61000828e-03
    -7.05923280e-03 -8.33731424e-03 -1.27957417e-02 -1.48407917e-03
    -3.57525563e-03 3.93290800e-04 1.20380707e-03 1.37372967e-03
    1.22126546e-02 5.74449683e-03 -4.30796249e-03 -8.62344541e-03
    -1.01923244e-02 -9.82573070e-03 -3.70835047e-03 1.91139197e-03
    -6.32915529e-04 4.68619959e-03 8.03210959e-03 -7.40578515e-04
    -6.94914255e-03 -9.46649443e-03 -3.13913124e-03 4.62991931e-03
    4.63810167e-04 -4.35149297e-03 2.23493273e-03 3.80472094e-03
    5.37186337e-04 -1.10653788e-02 -1.26068732e-02 -9.09093022e-03
    -7.06367381e-03 1.25747966e-03 -5.61037473e-03 4.60928539e-03
    1.33114890e-03 -5.26270922e-03 -1.33884689e-02 -1.34654129e-02
    2.01669498e-03 5.09576919e-03 7.95852114e-03 -3.10817268e-03
    3.51753132e-03 1.21357534e-02 -1.12043903e-03 -1.11015709e-02
    -9.74690821e-03 1.93147361e-03 3.41596198e-03 -2.47972994e-03
    -1.24900024e-02 -4.30871826e-03 6.55431021e-03 2.07101065e-03
    -1.14519857e-02 -6.72215410e-03 4.70147282e-03 7.44909281e-03
    -3.11135035e-03 -1.13814268e-02 -7.62288552e-03 1.32176827e-03
    1.06754806e-03 -7.99553283e-03 -1.21047571e-02 4.13955888e-03
    4.95564705e-03 5.12023829e-03 -1.12353051e-02 -3.12797166e-03
    9.79481917e-03 -2.42378272e-04 -7.40523031e-03 -1.44819375e-02
    -2.79384025e-04 -1.66509082e-04 2.67936895e-03 -1.10666975e-02
    -2.75392341e-03 4.51345090e-03 8.41391855e-04 -4.78723086e-03
    -3.41354962e-03 3.62241571e-03 1.18773524e-02 1.89396995e-03
    5.98241568e-05 -4.31039231e-03 3.17012519e-03 5.68055501e-03
    -2.52573448e-03 -1.35003228e-03 1.34579896e-03 4.99490695e-03
    7.49457831e-05 -5.81086008e-03 -4.94219176e-03 -3.15040210e-03
    -3.40235047e-03 -5.95816784e-03 -7.22914888e-03 -3.43223219e-03
    -3.77188390e-03 -1.11523550e-03 -5.51204523e-03 -1.85749878e-03
    1.16777308e-02 1.23613616e-02 2.74527445e-03 -6.93737343e-03
    -5.85488835e-03 -2.14489084e-03 -6.46003941e-03 -1.17243864e-02
    -9.24084336e-03 -8.91674601e-04 7.15987943e-03 -3.47817037e-03
    -1.61027117e-03 -1.64085897e-04 1.84818578e-03 4.16841498e-03
    4.60531935e-03 7.68542523e-04 -2.65757740e-03 -6.76606130e-03
    -7.78884348e-03 -6.82664616e-03 -9.34702251e-03 -6.53861836e-03
    2.79854052e-03 5.80526248e-04 -2.08114483e-03 -2.31383601e-03
    -8.69686157e-03 -9.26422980e-03 -4.68064938e-03 -5.31066814e-03
    3.04358918e-03 1.19698828e-03 -6.97399583e-03 -4.01235372e-03
    -9.61574493e-04 3.16884927e-03 1.27733406e-03 -1.11665055e-02
    -1.14358338e-02 4.29498759e-04 8.56137089e-03 -2.95499526e-03
    -6.31554285e-04 2.01518903e-03 2.16407655e-03 -9.37299430e-03
    -1.14869664e-03 -4.18742001e-03 -4.29974962e-03 -2.81311077e-04
    9.50285699e-03 3.61110736e-03 1.97703624e-03 1.88299315e-03
    -7.24589918e-03 -3.67520261e-03 7.07375992e-04 -4.05461295e-03
    -1.38441930e-02 -4.17671492e-03 -6.53694523e-03 -2.65788613e-03
    8.71854252e-04 -7.87451956e-03 -1.70076417e-03 -5.19377738e-03
    4.26179357e-03 9.52490512e-03 6.02565799e-03 -7.65475037e-04
    8.51937290e-03 7.19197327e-03 -6.64904620e-03 5.52138733e-03
    5.58509352e-03 3.33379302e-03 -9.06537473e-03 -3.99592938e-03
    -9.86897852e-03 -9.02353786e-03 -2.04459694e-03 -1.50839158e-03
    -8.00971314e-03 5.23686875e-03 9.15191136e-03 -3.60068545e-04
    4.26365715e-03 -4.70165210e-03 -2.78143375e-03 -1.48971425e-03
    -5.84341167e-03 -6.78256480e-03 1.19191688e-03 8.33715661e-04
    -5.48923947e-03 7.30411476e-03 2.41623702e-03 1.68381399e-03
    7.83346113e-05 -5.88383293e-03 5.11941127e-03 1.69168152e-02
    1.28809186e-02 -7.31491542e-04 -1.22484530e-03 -9.17739980e-03
    -8.05736333e-03 -2.02820869e-03 4.09707660e-03 -4.54317685e-03
    4.61327797e-03 3.25718953e-04 -9.05156881e-03 1.04872361e-02
    5.01646241e-03 3.94220790e-03 2.76877568e-03 2.08759797e-04
    -4.81668714e-04 3.71923205e-03 2.38404423e-03 -3.99325509e-03
    4.18884680e-03 -2.58501014e-03 -1.06763351e-03 -1.63827406e-03
    -7.45212566e-03 -4.68545157e-04 8.75928346e-03 2.61132070e-03
    -6.20766636e-03 -2.38091033e-03 -7.06340978e-03 -3.24708968e-03
    -2.19217967e-03 -9.97745246e-03 4.11451142e-03 -8.84795809e-05
    -1.97123946e-03 -8.37204419e-03 1.13450866e-02 3.48331034e-03
    1.01537706e-04 -5.06970217e-04 6.82425627e-04 6.36898633e-03
    7.94708636e-03 2.39821430e-03 -5.59242908e-03 8.35038070e-03
    -5.59129845e-03 2.26272969e-03 8.10076017e-03 3.67991696e-03
    -4.08838503e-03 9.25667677e-03 5.87828970e-03 -5.93976025e-03
    1.67886820e-03 -4.23247274e-03 -1.88859471e-04 -7.39743642e-04
    -9.46156122e-03 -3.93247698e-03 2.74456968e-03 1.39241898e-03
    -6.89183362e-03 2.13378808e-03 -3.96711752e-03 -1.53156265e-03
    -4.34654253e-03 -9.38224606e-03 2.86380621e-03 1.08943256e-02
    1.15624657e-02 -2.72445439e-04 5.30747883e-03 -5.35253529e-03
    9.62146185e-03 1.14385644e-02 5.57709020e-03 -4.66625032e-04
    3.08415573e-03 9.06042848e-03 -3.90591775e-03 4.00920818e-03
    -8.75271764e-03 8.07662867e-03 5.40504884e-03 1.52550434e-04
    -2.72301305e-03 2.69490713e-03 1.99372065e-03 -5.55005390e-03
    3.02028675e-05 2.73668906e-03 -6.93473325e-04 -2.98689469e-03
    -4.96283174e-03 1.50408945e-03 9.16579645e-03 1.47302309e-02
    4.63116495e-03 1.42343785e-03 4.05478152e-03 2.46206345e-03
    6.84853730e-05 -1.39393145e-03 -3.47288419e-03 8.43841815e-04
    5.47910249e-03 -2.78878375e-03 4.14127047e-04 -3.65188322e-03
    1.70464150e-03 -1.42297370e-03 -1.19333342e-03 4.66422876e-03
    1.15002841e-02 1.63602401e-02 1.25993055e-03 -9.10599018e-04
    1.90855190e-03 5.77593269e-03 1.36392855e-03 1.70793093e-03
    -4.34375863e-04 -1.45382190e-04 1.86240464e-03 2.75343121e-03
    6.61547808e-03 8.02727323e-03 7.87220197e-04 4.99924878e-03
    1.62293680e-03 4.83328523e-03 6.40205340e-04 4.84516425e-03
    4.78400849e-03 3.18954932e-03 4.47901292e-03 -3.90814105e-03
    5.62151708e-03 7.39261601e-03 -9.97127616e-04 -2.81570503e-03
    1.19706756e-03 1.98740559e-03 7.67798454e-04 4.88490285e-03
    9.27806832e-03 7.02461228e-03 1.74442690e-03 -2.54504546e-03
    9.38095691e-05 7.95146637e-03 -8.78419145e-04 -2.39107685e-04
    5.06431703e-03 4.94023412e-03 8.57066829e-03 2.93694972e-03
    8.82598106e-03 1.36117265e-03 7.31818099e-03 7.00443005e-03
    -6.09110684e-05 -2.43603092e-04 -7.94420659e-04 4.72754845e-03
    9.27088689e-03 6.22725813e-03 -1.13607512e-03 3.30694392e-03
    3.15738143e-03 -1.51495755e-04 -4.46631014e-03 -3.36021505e-04
    6.32549822e-03 1.08584976e-02 -2.06065667e-03 8.16236774e-04
    6.38987683e-03 7.39122392e-04 -1.50132517e-04 3.96916224e-03
    1.55948929e-03 1.01247092e-03 -3.59510281e-03 -2.56833097e-04
    -2.76299310e-03 1.38300820e-03 5.64126857e-03 -8.86858150e-04
    -2.94847693e-03 -3.24475998e-03 -6.21712999e-03 -3.96179035e-03
    6.36624871e-03 4.71201260e-03 9.45675885e-04 7.88022822e-04
    -7.72293250e-04 -2.18610126e-06 -6.21967556e-05 5.09506976e-03
    6.92400150e-03 2.15006131e-03 2.86388909e-03 -6.73178816e-04
    8.20621103e-03 3.83552373e-03 6.73291413e-03 -6.54248928e-04
    4.14908491e-03 -1.07654545e-03 3.49237048e-03 -3.73573531e-03
    -8.36187741e-04 5.26128896e-03 1.53130025e-03 -3.02219461e-03
    -5.60768321e-03 -2.07178527e-03 4.73157270e-03 1.33959996e-03
    -8.19584448e-03 -7.03029567e-03 1.44697085e-03 1.60190440e-03
    2.14673346e-03 -2.73988559e-03 1.17857172e-03 5.17317513e-03
    -2.74751615e-03 -1.07898831e-03 -2.97106011e-03 5.76397218e-03
    4.98539768e-03 2.36474047e-03 5.85517555e-04 2.84238067e-03
    1.23492803e-03 -4.82434034e-03 2.17194902e-03 4.21758881e-03
    -2.18017772e-03 -3.23416293e-03 3.26767215e-03 9.31266695e-03
    1.05447201e-02 4.71628597e-03 -4.91764490e-03 -6.64204033e-03
    -8.27607140e-03 -3.85395507e-03 -2.04250318e-04 -9.37021628e-04
    4.86268400e-05 5.61051493e-05 -1.27428153e-03 -5.62788360e-03
    -6.30886946e-03 -4.60050814e-03 -1.00563476e-02 -3.38143413e-03
    6.62413053e-03 5.00206603e-03 7.88919255e-03 9.88605618e-03
    -2.63291411e-03 3.48662841e-03 -2.83074885e-04 -7.47070415e-03
    -7.96538126e-03 -2.27615144e-03 3.53799178e-03 1.30698746e-02
    3.24983965e-03 4.00549360e-03 1.10097770e-02 3.69906588e-03
    -4.79226792e-03 -1.00498553e-02 -2.31583882e-03 -3.26816738e-03
    1.67238701e-03 4.98952856e-03 -4.83836979e-03 -5.46016032e-03
    -4.63741273e-03 -8.16107541e-03 -6.85546082e-04 3.74968187e-03
    -5.43664908e-04 1.05552655e-02 3.98670044e-03 -1.25381630e-03
    1.75086083e-04 1.60069705e-03 -1.59968491e-04 -3.43275396e-03
    -1.15165859e-03 -3.26242438e-03 2.14733044e-03 6.54928212e-04
    -6.17673760e-03 -1.12032343e-03 -8.40564840e-04 -8.11125617e-03
    -1.22077325e-02 -4.87978989e-03 -3.39996652e-03 -8.50327406e-03
    -4.07225499e-03 7.99502060e-03 9.80889611e-03 9.99299064e-03
    -4.63742559e-04 -8.01567640e-03 3.82036925e-03 1.04982452e-02
    7.12740220e-05 4.96855984e-03 -3.17614083e-03 -5.65253571e-03
    -2.73759477e-03 -3.77960573e-03 -1.60925109e-02 -1.03984382e-02
    -1.31529989e-02 -1.25231761e-02 -7.11292122e-03 -8.06029362e-04
    4.49023629e-03 9.06269718e-03 -3.61976377e-03 -1.17912106e-02
    -5.05424803e-04 -3.04416055e-03 -6.61331741e-03 -7.45721860e-03
    3.10379709e-03 1.19464577e-03 8.24121200e-03 7.45848694e-04
    -1.06893955e-02 -5.41546615e-03 2.02686945e-03 -2.55951076e-03
    1.95188657e-03 -7.15399068e-03 -6.74628606e-03 -2.34607072e-03
    -3.67937610e-03 -1.60493925e-02 -6.38392475e-03 5.34267537e-03
    6.08476403e-04 -4.11173562e-03 -2.73604062e-03 -5.45690651e-04
    4.93638450e-03 -6.31449698e-03 -8.73238780e-03 -6.25597779e-03
    -4.92155412e-03 -1.21576702e-02 -8.99417140e-03 1.71830331e-03
    2.03624112e-03 -6.65891159e-04 -6.91014156e-03 -1.22176670e-02
    -8.56189895e-03 -7.88133405e-03 -1.11652780e-02 -4.59845876e-03
    -7.95009080e-03 -2.25160294e-03 -2.06690188e-03 -3.25031555e-03
    -1.91345271e-02 -7.38284178e-03 3.38282436e-03 3.21197486e-03
    -6.38206489e-03 -2.02930579e-03 8.48441292e-03 6.79909764e-03
    -1.61518506e-03 -1.51623422e-02 7.16534816e-03 1.45533131e-02
    7.91597273e-03 -9.95604880e-03 -6.44899718e-03 3.91341001e-03
    2.53677950e-03 -7.43667083e-03 -1.75226685e-02 -7.96874426e-03
    -9.49469116e-03 -6.53441390e-03 -1.03754187e-02 -5.04524726e-03
    6.14524866e-03 1.37005385e-03 -1.00758551e-02 -1.45773878e-02
    6.13828655e-03 1.79773197e-03 -5.77894924e-03 -1.08589008e-02
    -3.57087376e-03 7.48457666e-03 3.76434322e-03 -4.56130365e-03
    -1.61245037e-02 7.48308096e-03 1.04051800e-02 -3.84787610e-03
    -1.23784719e-02 -4.64439532e-03 4.76821465e-03 5.89011121e-04
    -1.09945014e-02 -2.39556693e-02 -6.10642694e-03 -8.61747283e-03
    -1.54637322e-02 -1.42568145e-02 3.69591347e-04 8.32840335e-03
    -1.90568971e-03 -1.01449862e-02 -8.84149224e-03 2.54525873e-03
    1.26194500e-03 -8.94186646e-03 -7.98569713e-03 1.12215951e-02
    1.72432978e-02 4.26068809e-03 -5.04635042e-03 -8.49617645e-03
    -6.71694113e-04 -4.38305782e-03 -1.04348492e-02 -7.82107096e-03
    -3.55301914e-03 1.86207355e-03 -2.30268139e-04 -1.20492578e-02
    -1.96673740e-02 -1.31327007e-02 -9.64542385e-03 -1.08962674e-02
    -1.16207404e-02 -2.87791411e-03 -3.65803135e-03 -1.34502689e-03
    -1.25874700e-02 -1.41635351e-02 5.61092794e-03 2.80924723e-03
    -7.45565211e-03 -7.70206610e-03 1.10327825e-02 2.13018321e-02
    5.44994278e-03 2.57785362e-03 -5.27562015e-03 1.52859051e-04
    6.22404600e-03 -1.81635702e-03 -3.90217989e-04 7.45456852e-03
    4.51530004e-03 -2.52814358e-03 4.27668245e-04 -6.89072208e-03
    4.46132338e-03 8.41602776e-03 6.16230885e-04 5.81213925e-03
    -4.45171492e-03 -2.79189856e-03 2.03756485e-04 -1.79050979e-03
    -8.05593468e-03 8.10523704e-03 7.67453946e-03 1.53998728e-03
    -6.94730086e-03 -1.29663618e-02 -3.87768424e-03 8.21902882e-03
    1.19202901e-02 -4.58866544e-03 9.70594701e-04 1.23354755e-02
    3.96493217e-03 -5.91551512e-03 1.76983315e-03 -2.18146993e-03
    7.40297110e-05 1.34976220e-03 -7.45730242e-03 2.76819308e-04
    5.03745722e-03 1.97335503e-05 -5.27134282e-04 -1.58632677e-02
    -1.31410426e-02 -1.23331288e-03 4.56014555e-03 -5.81755117e-03
    -8.70576035e-03 -4.50801715e-04 1.95199500e-05 -6.03228714e-03
    -1.29450802e-02 -9.72804904e-04 7.11336965e-03 8.54715332e-03
    -1.12151271e-02 -1.14236102e-02 -2.08793717e-04 -1.06058980e-03
    -7.22870650e-03 -1.18949953e-02 -4.11812216e-03 2.44358066e-03
    9.26616788e-03 -9.95445717e-03 -9.97584872e-03 -1.14653679e-03
    -1.16874825e-03 -3.73900938e-03 -1.52246226e-02 -1.16267279e-02
    1.97228440e-03 9.61042847e-03 -2.70263688e-03 -1.21743651e-02
    -3.70269199e-03 6.83918770e-05 -5.45685505e-03 -1.15798712e-02
    -6.79356791e-03 -7.24882074e-03 -1.30416907e-03 -4.06707730e-03
    -4.90381569e-03 9.70460940e-03 9.79836565e-03 -6.88603905e-04
    -8.58332310e-03 -1.21961103e-03 1.46697217e-03 3.46304965e-03
    -4.24072286e-03 -2.79708789e-03 7.86896516e-03 8.97673797e-03
    -2.24263803e-03 -9.31025669e-03 -2.37078569e-03 -4.22124891e-03
    -9.49148741e-03 -1.75813716e-02 -1.03891985e-02 -1.51689956e-03
    4.03661840e-03 -9.78404004e-03 -6.96862536e-03 -7.94079329e-04
    -2.58125411e-03 -3.35429190e-03 5.74268075e-03 9.58761142e-04
    1.87949706e-02 1.83072630e-02 6.58405526e-03 -9.11432877e-03
    -1.07650254e-02 -1.27480738e-02 -1.09968735e-02 -1.00138588e-02
    -4.91927192e-03 8.53411295e-03 1.06283603e-02 -4.10582405e-03
    -1.13794943e-02 -2.05664942e-03 1.76362682e-03 8.35803163e-04
    -9.31963138e-03 -2.45044054e-03 5.78907551e-04 1.07197359e-03
    -7.95834977e-03 -1.81218963e-02 -1.07801612e-02 1.22475351e-04
    6.97253784e-03 -4.76773782e-03 3.34898545e-03 4.95299185e-03
    -4.75153839e-03 -1.69939119e-02 -8.54984019e-03 -5.72277978e-03
    -8.26390646e-03 -6.73820125e-03 1.44444185e-03 1.15542756e-02
    1.27751417e-02 6.17664028e-03 -4.27595951e-04 -1.76092349e-02
    -9.77229234e-03 -7.88554456e-03 3.97356518e-04 -5.87540912e-03
    1.29411127e-02 9.28691495e-03 -6.94123795e-03 -1.50536848e-02
    -7.43724313e-03 -9.53170657e-03 2.56640045e-03 1.05804466e-02
    4.44452697e-03 6.15316536e-03 1.27556706e-02 7.07553886e-03
    -4.06690221e-03 -5.55916864e-04 -3.28278914e-03 -1.56188640e-03
    -4.02203761e-03 -4.65554744e-03 -1.04825096e-02 -8.77475925e-03
    -5.99504309e-03 -9.76839219e-04 -9.20041371e-03 -4.15441953e-03
    -3.06601985e-03 5.57973422e-03 3.67675815e-03 1.99651495e-02
    1.60722155e-02 4.03698627e-03 -8.50554463e-03 -7.73221813e-03
    -5.60203614e-03 -5.12143783e-03 -1.13971978e-02 -6.72745705e-03
    -6.77557895e-03 -6.48393179e-04 -6.44099340e-03 -9.61949024e-03
    4.95329825e-03 1.11275828e-02 8.93100817e-03 -1.43776415e-03
    -1.88533345e-03 -6.73001399e-03 -4.17017797e-03 2.74612242e-03
    9.85500123e-03 -1.58437295e-03 3.98325315e-03 1.52205375e-05
    -9.37347300e-03 8.05561338e-03 3.89789115e-03 1.52426993e-03
    3.27197043e-03 4.46558185e-03 -2.36096443e-03 2.57790182e-03
    1.58409204e-03 -9.78782307e-03 -3.47796641e-03 -4.28755302e-03
    -9.35961201e-04 3.79799888e-03 2.47946754e-03 -1.91185356e-03
    1.42722414e-03 3.66140041e-04 -9.16819926e-03 3.61227361e-03
    5.58981253e-03 4.12130170e-03 6.30652299e-03 3.04616336e-03
    -1.86969806e-03 -1.20033126e-03 -1.11383246e-03 -5.99172805e-03
    9.67757311e-03 5.70989866e-03 1.46803632e-03 -2.15819711e-03
    -2.10439716e-03 -1.71531225e-03 3.61871626e-03 2.81968876e-03
    -8.37019412e-04 9.63599421e-03 -9.40382306e-04 6.51015714e-03
    7.74066662e-03 -7.23167090e-04 -6.62979623e-03 1.56304101e-03
    -1.28950880e-04 -4.53308411e-03 7.57648097e-03 1.04000699e-03
    5.74613456e-03 1.47913024e-03 -3.80831026e-03 -8.70995596e-03
    2.68311682e-03 3.96991707e-03 2.49525474e-04 8.50808527e-03
    -6.28210604e-04 4.94954549e-03 9.98516474e-03 -4.16122843e-03
    -1.42093562e-03 6.45102561e-03 9.01708659e-03 -9.21113024e-05
    2.16039526e-03 -4.70569776e-03 1.01875598e-02 1.22688198e-02
    7.19381636e-03 -4.20014327e-03 9.99148935e-04 5.76376682e-03
    -4.12714807e-03 4.95580549e-04 -8.26525968e-03 1.11359637e-02
    1.02489823e-02 5.99505007e-03 -7.46542960e-03 3.17800877e-04
    1.83393352e-03 -1.22184562e-03 2.63827504e-03 -5.29756490e-03
    3.74679407e-03 1.01745408e-02 4.42725513e-03 -4.31794673e-03
    -9.02817468e-04 -2.49606511e-03 -4.98351641e-03 2.07113591e-03
    -1.27634881e-02 2.27187877e-03 7.85645656e-03 5.24181128e-03
    -8.80389754e-03 -6.81435049e-04 4.11909074e-03 -1.33324333e-03
    1.85388897e-03 -8.80366191e-03 3.82058648e-03 -2.03837772e-04
    2.70653138e-04 2.46705627e-03 8.52318015e-03 1.25612561e-02
    2.47718138e-03 3.54866008e-03 -5.28265443e-03 4.09401441e-03
    3.70726593e-05 3.16929072e-03 -4.41362103e-03 1.08005013e-03
    6.73272240e-04 -3.90345114e-03 -7.85600452e-04 -1.07244588e-02
    1.90485385e-03 3.49838426e-03 2.48170504e-03 8.07761867e-03
    9.46186483e-03 1.10474126e-02 5.33569185e-03 5.48102381e-03
    -7.41939107e-03 2.63892056e-04 2.00263271e-03 9.38942470e-03
    3.34485853e-03 2.51475396e-03 5.55454567e-03 6.09226432e-03
    1.01944071e-03 8.06549971e-04 1.25386557e-02 6.65867096e-03
    5.07519580e-04 -1.38238061e-03 3.98706505e-03 7.03193061e-03
    -2.15939386e-03 -3.25323024e-04 9.91730485e-04 7.90704414e-03
    6.83967117e-03 1.36271236e-03 2.55186250e-03 8.01895373e-03
    6.41010841e-03 6.84879348e-03 -1.48954522e-03 1.01764605e-03
    4.21231007e-03 1.63273967e-03 -3.12393112e-03 4.93565295e-03
    5.00285253e-03 4.72171791e-03 -2.44745542e-03 -9.91219282e-03
    1.22843846e-03 7.47859618e-03 7.77495001e-03 5.54130599e-03
    -2.73589767e-03 1.93091074e-03 3.66517669e-03 -4.54470702e-03
    4.70461178e-04 1.59608526e-03 3.70952464e-03 5.29499399e-03
    3.32734373e-04 2.12051463e-03 -4.09980537e-04 -3.36370524e-03
    -8.99162114e-05 3.01042711e-03 -7.18478463e-04 -2.60215462e-03
    -3.69375246e-03 -3.00007313e-03 4.78528300e-03 1.98348938e-03
    2.72039394e-03 -7.21711293e-03 -4.84566111e-03 1.30338292e-03
    7.63337407e-03 1.27050290e-02 9.46971681e-03 1.29943984e-02
    5.58302645e-03 -4.93789557e-03 -9.74709075e-03 5.56935882e-03
    -2.40905001e-03 -3.65222711e-03 3.43642849e-03 6.25619944e-03
    4.99380752e-03 -5.04631957e-04 -2.80552940e-03 4.61120764e-03
    6.59273518e-03 -2.54105474e-03 -5.60368120e-04 3.73488409e-03
    5.45524200e-03 1.48152513e-03 -3.49524268e-03 -2.23011500e-03
    7.15413247e-04 3.07621807e-03 -2.05865223e-03 3.00032529e-03
    7.33607076e-03 5.53601235e-03 1.01710092e-02 5.62134758e-03
    -4.90915449e-03 -7.08412705e-03 1.02262786e-02 -8.50378827e-04
    6.20720457e-05 9.04100481e-03 7.59524573e-03 -2.22085137e-03
    1.77100953e-03 -1.07288630e-04 -8.87276139e-03 -1.63914543e-03
    -6.52863132e-03 6.23128237e-03 1.22912750e-02 2.48610228e-03
    1.13635394e-03 1.34949130e-03 -9.15670069e-04 -6.73122850e-05
    -3.23182414e-03 -4.59948933e-04 7.29950285e-03 5.71082532e-03
    1.84791384e-03 9.68413777e-04 2.57378467e-03 -3.37417028e-03
    -4.11311211e-03 -1.71396672e-03 3.94004863e-03 4.34745708e-03
    9.89368092e-03 8.28851853e-03 -3.13800131e-03 5.18838316e-03
    7.29665998e-03 -7.65998673e-04 -6.42840378e-03 -2.10704468e-03
    6.10632822e-03 3.05218017e-03 -2.03273818e-03 -3.07828141e-03
    3.00799916e-03 1.46833982e-03 2.41085165e-03 4.28216113e-03
    -5.22554852e-03 -2.21524760e-03 -3.68341315e-03 -2.26959842e-03
    8.73229175e-04 -2.69395113e-03 -4.96611884e-03 -4.42115124e-03
    4.70841350e-03 2.81659607e-03 -2.02485593e-03 8.64942651e-03
    5.05036954e-03 5.25871338e-03 9.11168521e-04 1.75127364e-03
    -1.61439145e-03 5.62329590e-03 -6.04607165e-04 -3.84330377e-03
    7.62122101e-04 7.78562215e-04 -5.78477141e-03 -6.14743354e-03
    -7.26579735e-03 -5.46508422e-03 7.17638386e-03 -5.99203864e-03
    -8.36011767e-03 -5.56754367e-03 -6.70892419e-03 1.21590239e-03
    3.01513053e-03 1.02732109e-03 -1.85903453e-04 5.30340290e-03
    -6.10919530e-03 -7.01755751e-03 -1.55334244e-03 -2.55513750e-03
    7.40596792e-03 7.05007464e-04 8.43736634e-04 -2.45012296e-03
    -9.33756586e-03 -6.84267795e-03 -8.72718450e-03 -6.67963503e-03
    -3.24759865e-04 3.01319035e-03 1.54148287e-03 9.70020331e-03
    1.25846500e-03 3.11493617e-03 4.18877089e-03 -4.81838174e-03
    -4.11537429e-03 -3.77644622e-03 -4.66027949e-03 -1.20280543e-03
    -1.03942072e-03 -3.78838275e-03 -3.65025410e-03 -1.13781197e-02
    -5.41111827e-03 -7.25557469e-03 -7.45750125e-03 -7.76234362e-03
    3.86813143e-03 4.18344093e-03 -3.58024077e-03 -2.48444453e-03
    -6.67191250e-03 2.84835463e-03 -6.16884418e-03 -1.21476315e-02
    -1.96003076e-03 -1.11877336e-03 2.45698518e-03 -7.12434994e-03
    -2.29083025e-03 -2.02555466e-03 -5.05532557e-03 -9.09395050e-03
    -9.44534969e-03 -2.20633089e-03 1.74007355e-03 5.24972193e-03
    -4.65469202e-03 -2.31306115e-03 7.55145738e-05 7.13436923e-04
    9.10559145e-04 -5.53550292e-03 -9.47937835e-03 -8.56968167e-04
    7.13108107e-04 -1.40159475e-02 -9.29386169e-03 -6.39409665e-03
    3.79643519e-03 -3.85826500e-03 -1.28882397e-02 -5.94917685e-03
    -2.17169919e-03 2.42192997e-03 8.86983413e-04 -1.38349971e-03
    7.79743586e-03 1.00011351e-02 6.44705817e-03 4.57993301e-04
    -1.32908709e-02 6.28179871e-04 -1.10633473e-03 -1.39453700e-02
    -2.00236551e-02 -6.25382690e-03 -1.01917773e-04 4.21137223e-03
    -6.50341762e-03 -1.10252397e-02 3.64241004e-03 1.86875067e-03
    -1.03271035e-02 -1.00298161e-02 3.07670725e-03 -1.69874751e-03
    -3.98555538e-03 -1.08635928e-02 -1.29179629e-02 -1.70238339e-03
    -4.29796986e-03 -6.98501943e-03 -2.02547740e-02 4.15616017e-03
    6.56394474e-03 6.37851050e-03 -3.19469604e-03 -8.40730872e-03
    4.06156899e-03 3.15514370e-03 -6.46751234e-03 -9.23270267e-03
    4.85755224e-03 7.14772521e-03 -2.70740455e-03 -6.62204437e-03
    -8.54323339e-03 4.31084633e-03 -3.02011590e-03 -1.03527168e-02
    -7.82314874e-03 2.63851741e-03 -6.71875803e-03 -1.23688048e-02
    -1.08279334e-02 -5.18063875e-03 7.58668501e-03 9.09372640e-04
    -4.40282235e-03 1.36520597e-03 3.09830299e-03 -9.57033876e-03
    -1.51708238e-02 -1.62640270e-02 -1.33935288e-02 1.05574720e-04
    2.55891227e-05 -6.40881108e-03 1.55137724e-03 1.90957368e-03
    -3.50867514e-03 -1.11354226e-02 -1.73551477e-02 -1.50760543e-02
    8.38702079e-04 -4.57660004e-04 -3.28333955e-03 1.68508530e-04
    5.90738282e-03 -1.37720387e-02 -1.76303983e-02 -2.21286006e-02
    7.80157279e-04 1.12608299e-02 9.95651586e-04 -3.57116951e-04
    4.65651229e-03 4.16906441e-05 1.13262668e-05 -7.23740412e-03
    -8.67667701e-03 1.37598277e-03 2.18513166e-03 -1.03773037e-02
    -7.97583908e-03 -3.21739423e-03 5.92056988e-03 6.85986946e-04
    -4.09340020e-03 -1.00589567e-03 -1.00660883e-02 7.24316400e-04
    -2.36349553e-03 -3.69047862e-03 1.17435423e-03 -1.12610927e-03
    -7.59285782e-03 -1.29421260e-02 -1.77503582e-02 -1.14543233e-02
    -7.22055696e-03 -1.99041069e-02 -1.84678659e-02 -1.23276254e-02
    3.29309696e-04 -5.69059467e-03 -1.03819156e-02 -1.67137999e-02
    3.35351890e-03 -4.08784300e-03 -6.96876785e-03 -3.96649633e-03
    -2.94353371e-03 5.90214832e-03 3.04120569e-03 3.25316476e-04
    7.09515763e-03 -1.39740910e-02 -1.21696088e-02 -6.48943102e-03
    4.67275176e-03 -1.91987166e-03 -1.26387551e-02 -8.59319605e-03
    -2.44025397e-03 -2.73301266e-03 -7.44793145e-03 -5.83640393e-03
    -1.90530457e-02 -6.64869277e-03 -9.49039124e-03 6.74467068e-03
    1.23958953e-03 -6.38011610e-03 -5.11722220e-03 -1.08812749e-02
    -1.31727699e-02 -1.20498594e-02 5.15894673e-04 -3.85423168e-03
    -1.17220711e-02 -7.38247624e-03 -1.31739886e-03 -7.14942301e-03
    -1.42731695e-02 -1.14412513e-02 -2.11472786e-03 7.28748320e-03
    2.90086889e-03 -7.09898490e-03 -5.18343598e-03 1.36104925e-03
    -3.16668837e-03 -5.38556185e-03 -6.04558503e-03 -1.21707106e-02
    -8.55088886e-03 -9.96690709e-04 2.25650598e-04 1.04133962e-02
    1.24755120e-02 4.28807689e-03 -1.47234341e-02 -1.47478646e-02
    -9.43606347e-03 9.22936961e-05 -1.79243181e-03 -9.68722440e-03
    -6.33299071e-03 1.95505866e-03 -6.14558579e-03 -1.17087970e-02
    -1.04091074e-02 -1.33554609e-02 -1.14513896e-02 -8.67338385e-03
    -3.65550746e-03 3.10113747e-03 7.01307505e-03 -7.84724543e-04
    -2.14413041e-03 3.15736688e-04 -5.88077353e-03 -7.78746605e-03
    2.10003881e-03 1.67052285e-03 1.03439009e-02 1.32415490e-02
    5.74478507e-03 -6.91965409e-03 -8.13950785e-03 -8.67380388e-03
    -5.88480476e-03 -5.70355076e-03 1.37641473e-04 2.77033518e-03
    7.39289867e-03 -3.33881995e-04 -7.48500600e-03 -2.77826865e-03
    -5.34264836e-03 -1.02385795e-02 1.15693430e-03 4.75133350e-03
    1.24529758e-02 1.08812321e-02 -5.30990015e-04 -1.14591261e-02
    -2.89464416e-03 -9.06701389e-05 -3.08773969e-03 -3.55607434e-03
    -3.60585772e-03 1.01412018e-03 2.11669691e-03 -7.79630663e-03
    -9.73937195e-03 -4.26737498e-03 -3.11177573e-03 6.37063803e-03
    8.24334472e-03 1.15396362e-02 6.32665213e-03 1.74252561e-03
    -4.84305760e-03 -1.49562387e-02 -7.88075477e-03 -8.81069433e-03
    8.28255957e-04 -9.61880374e-04 8.30642693e-03 5.68407029e-03
    -6.57938421e-03 -1.18199317e-02 -1.10757565e-02 5.02673583e-03
    7.33185327e-03 1.08685615e-02 4.70634550e-04 -4.35563177e-03
    -2.47137330e-04 -5.27861936e-04 -8.03537387e-03 -9.39609669e-03
    -2.21328088e-03 -4.70618578e-03 -2.30384897e-03 -5.33292722e-03
    -6.74792053e-03 2.76259705e-03 -5.99478604e-03 -9.44064744e-03
    -3.16492538e-03 3.45350918e-03 5.18544519e-04 6.68448722e-03
    4.65460913e-03 1.21563599e-02 8.67759343e-03 -2.29323370e-04
    -6.29977183e-03 -1.02070766e-02 -5.98854013e-03 -8.39688070e-03
    -1.45702632e-02 -7.21935229e-03 -1.27552007e-03 2.50678323e-03
    -2.72664096e-04 -1.39882341e-02 -3.66626168e-03 3.59994592e-03
    1.31889479e-03 2.45663617e-03 8.87486152e-03 7.65137095e-03
    9.35720187e-03 -3.08980118e-03 -5.93271758e-03 -1.45603344e-02
    -9.09323245e-03 -6.72446331e-03 -4.19883709e-03 -1.90237048e-03
    2.21700361e-03 2.49396753e-03 -2.08572065e-03 -1.48289250e-02
    -4.71945293e-03 2.47026607e-03 -2.56128539e-03 -9.55353864e-03
    1.41541567e-03 2.79312185e-03 6.45072805e-03 9.15478729e-03
    -3.59968026e-03 -1.38758533e-05 5.70055004e-03 2.70757149e-03
    -2.86503322e-03 3.69586912e-03 2.28747283e-03 9.42173228e-03
    7.24413898e-03 -2.37237848e-03 -5.46371052e-03 7.33845052e-04
    -8.11467238e-04 -4.58027702e-04 8.96659028e-03 8.13826639e-03
    6.48880238e-03 5.88666229e-03 -7.27455178e-03 3.42890411e-03
    5.41403005e-03 5.27768722e-03 -3.85086355e-03 2.08654185e-03
    -1.51010707e-03 1.15346871e-02 5.92425466e-03 -3.67552810e-03
    5.61182213e-04 8.89453106e-03 1.91199291e-03 -3.97037220e-04
    3.64777073e-03 -5.31225326e-03 7.99802411e-03 1.66681095e-03
    -2.83236196e-03 -1.17672316e-03 5.15701575e-03 5.20839822e-05
    -1.39500902e-04 1.19708991e-02 1.23786507e-03 7.63535965e-03
    2.94456584e-03 -3.43669928e-03 1.09621685e-03 4.49730828e-03
    4.11207322e-03 -4.31765430e-03 -4.41801129e-03 -1.90525583e-03
    9.23085772e-03 1.23453839e-03 -1.71238021e-03 -2.32713734e-04
    -1.21254136e-03 -3.03303357e-03 -5.32748317e-03 1.60833951e-02
    7.71169690e-03 8.77774786e-03 3.46188387e-03 2.12741361e-04
    -5.35352435e-03 -1.10255310e-03 -1.21311261e-03 2.22461903e-03
    1.33788912e-02 -2.43515940e-03 2.11047637e-03 5.38904133e-05
    -2.72787455e-03 -3.96356778e-03 -1.59963709e-03 -5.14340354e-03
    1.09749621e-04 2.95631750e-03 -1.08214663e-02 1.79674057e-03
    3.53991101e-03 1.23068236e-03 1.53484871e-06 2.12386221e-04
    -3.62478476e-03 -2.70551629e-03 1.47196008e-02 -3.15545266e-03
    9.72465333e-03 2.73860060e-03 -8.73361540e-04 -1.49623980e-03
    5.59062511e-03 1.17112848e-03 4.47740276e-05 5.48738427e-03
    -3.51418019e-03 1.13123860e-02 6.19382691e-03 2.54513556e-03
    -4.11073817e-03 2.58662575e-03 2.14155833e-03 -7.34280562e-04
    -3.18097253e-03 -7.66150560e-03 2.56944099e-04 3.45225027e-03
    -9.15851735e-04 4.57414426e-03 7.97142740e-03 9.52760503e-03
    1.11683842e-03 5.46879461e-03 -5.40333986e-03 -1.13098242e-03
    1.45889632e-03 5.61179244e-04 -4.85003507e-03 3.45370662e-03
    2.80804653e-03 -5.13802469e-03 1.96972885e-03 -3.39563424e-03
    9.25853848e-03 9.31182597e-03 1.20173849e-03 -1.58748962e-03
    5.90462796e-03 6.41465001e-03 -1.41956296e-03 9.57860146e-03
    -1.51799922e-03 1.11156134e-02 1.00669814e-02 -1.95983867e-03
    2.11559073e-03 2.16752989e-03 8.24362214e-04 2.87210429e-03
    -1.54723693e-03 6.02938142e-03 1.95422210e-03 -2.06727100e-06
    -1.62050105e-03 5.98071935e-03 2.72932672e-03 2.11382215e-03
    -9.54073505e-04 -6.21113414e-03 5.14356839e-03 5.95414219e-03
    4.40800609e-03 4.96673770e-03 -4.06746892e-03 -2.74481461e-03
    1.56412274e-03 1.21939776e-03 5.03623299e-03 6.25008345e-03
    6.79880939e-03 -5.15349966e-04 -4.58971830e-03 3.86229600e-03
    4.39752638e-03 1.02458056e-02 4.68951790e-03 4.84733749e-03
    1.19389640e-03 4.86135529e-03 -1.44986622e-03 -1.87128282e-03
    1.27571751e-03 1.11813622e-03 3.99559038e-03 -4.33946028e-03
    -4.65685641e-03 3.36656091e-03 6.44294033e-03 8.38619284e-03
    4.42200899e-03 4.47870325e-03 3.13944137e-03 1.64394238e-04
    -8.88663810e-03 3.35024949e-03 -1.62185368e-03 -3.77094420e-03
    3.74826556e-03 1.56768670e-04 2.52875872e-03 6.48254761e-03
    1.97301079e-02 3.92490719e-03 3.14113102e-03 -2.89410981e-03
    -2.78295972e-03 2.80172360e-04 -3.12166126e-03 -3.01552773e-03
    5.74173988e-04 1.06576998e-02 -2.40923231e-03 4.73899720e-03
    -1.68217544e-03 -4.59353067e-03 4.02258988e-03 -8.04704707e-03
    9.54590365e-03 9.26443841e-03 -1.38077373e-03 -6.15138048e-03
    7.25251995e-03 3.51894228e-03 -1.08590801e-04 6.48548501e-03
    6.25266135e-03 -7.37535709e-04 5.05900150e-03 2.23527499e-03
    -5.97348576e-03 -5.57539845e-03 -9.89143969e-04 2.66065937e-03
    6.54263468e-03 5.92969591e-04 -1.64629507e-03 6.80306461e-04
    1.38973817e-03 -5.30291768e-03 6.85770577e-03 6.11486845e-03
    6.28889166e-03 9.99603048e-03 4.47083548e-05 -3.34454607e-03
    -4.07698797e-04 6.43072883e-04 -4.48959600e-03 -9.63850121e-04
    2.40552472e-03 9.11845639e-03 3.68835335e-03 -2.21387856e-03
    -3.85579187e-03 5.71626425e-03 9.67034046e-03 -1.34581700e-03
    -4.92909783e-03 -4.50428837e-04 3.10586346e-03 3.43321939e-03
    -3.27576348e-03 -3.42546450e-03 3.92850069e-03 9.14011151e-03
    5.77637972e-03 7.65920011e-03 -4.53680474e-03 -6.22107531e-04
    -6.78326818e-04 -5.39891771e-04 8.61547422e-04 4.65337420e-03
    5.48924785e-03 -3.32095707e-03 2.27711018e-04 -3.12257791e-04
    6.57647196e-03 9.65176907e-04 -1.63713587e-03 5.98456059e-03
    7.99642224e-03 1.04112076e-02 3.47532891e-03 4.20917617e-03
    -1.33664522e-03 2.36728578e-03 -7.93113082e-04 1.88874546e-03
    -4.42603230e-03 2.44914758e-04 -7.94816879e-04 -1.79505639e-03
    7.30603701e-03 -6.53531123e-03 -2.97938730e-03 -3.97913251e-03
    -6.72044465e-03 -1.02054514e-03 1.41258864e-03 2.20575440e-03
    -4.64158482e-04 1.10257920e-02 -6.66906172e-03 -3.56017379e-03
    1.32648938e-03 -3.74423712e-03 2.02670088e-03 4.83294670e-03
    3.00818100e-03 6.56197954e-04 2.34738854e-03 -1.67600869e-03
    -3.13007017e-03 -9.58772027e-04 -4.33703931e-03 2.81394180e-03
    1.03315827e-03 2.84191943e-03 2.36419053e-03 1.39283696e-02
    4.01655358e-04 -1.74952473e-03 1.20796461e-03 -1.78475014e-03
    -6.54049870e-03 4.29272465e-03 3.77302291e-03 -6.86534122e-03
    6.44239539e-04 -6.95985788e-03 -2.24282252e-04 -1.14721002e-03
    -5.94875496e-03 -1.00436695e-02 1.04335202e-02 8.45128484e-03
    -1.57768559e-03 -5.75843733e-03 -4.62562731e-03 9.83058196e-03
    5.45947999e-03 -6.54659932e-03 -9.07482987e-04 5.39803365e-03
    9.18487925e-03 -3.83100496e-03 5.99915953e-03 -3.50490119e-03
    -1.82641088e-03 -2.52450141e-03 -1.94794126e-03 3.67665943e-03
    9.82797146e-03 9.63890366e-03 -2.17940612e-03 -6.27260376e-03
    -8.84043053e-03 4.36767889e-03 5.67763206e-03 7.38711609e-03
    -8.75667576e-03 2.99325562e-03 2.90931459e-03 -8.49218108e-03
    -1.06962221e-02 -3.58190457e-03 7.68347690e-03 2.58799316e-03
    -8.98808055e-03 -6.96391391e-04 4.88614105e-03 5.69518516e-03
    -1.59025798e-03 -6.28558220e-04 9.49022174e-03 1.57431867e-02
    1.17719676e-02 2.96087353e-03 3.23720952e-03 5.63423615e-03
    3.51830525e-03 -6.99025765e-03 -1.84618905e-02 -1.52944084e-02
    -8.55327304e-03 -1.44461787e-03 -2.53207562e-03 1.38827097e-02
    8.31955858e-03 7.23004283e-04 -8.70204996e-03 -1.06175914e-02
    -9.57620051e-03 -1.11949444e-03 3.30286170e-03 5.79090184e-03
    -4.84741665e-03 6.58915495e-04 -2.70060170e-03 -5.47243189e-03
    -1.66395623e-02 3.61527840e-04 4.90262359e-03 2.39866856e-03
    -3.14567192e-03 -3.67679121e-03 4.90882806e-03 2.77381204e-03
    -5.45963630e-05 -1.16392574e-03 1.09972572e-02 1.18089598e-02
    9.03757929e-04 -9.15379450e-03 6.70240552e-04 1.69626332e-03
    -4.06548101e-03 -9.05663334e-03 -2.08494756e-02 -8.43229610e-03
    -1.86477439e-03 -5.19294059e-03 -8.05971213e-03 3.01586115e-03
    5.96845709e-03 -1.46244175e-03 -4.48809285e-03 -8.97622667e-03
    4.97410353e-03 5.18139405e-03 1.58115348e-04 -1.10099511e-02
    -2.72574159e-03 6.26240345e-03 4.55495436e-03 -4.61584236e-03
    4.12663491e-03 6.65418757e-03 3.63395456e-03 -7.87348673e-03
    -1.07295727e-02 -9.47083067e-03 -1.52145140e-03 -1.75436225e-03
    -6.03585551e-03 -9.98402829e-04 4.96524526e-03 -7.54217757e-03
    -1.48278605e-02 -1.55229811e-02 -2.07179948e-03 3.96733591e-03
    -3.94329336e-03 -6.21717330e-03 -4.87630628e-03 -7.13032961e-04
    -1.40754739e-03 -7.39424955e-03 -9.75146797e-03 -1.43297110e-02
    -1.55589741e-03 -9.38005466e-03 -6.85897609e-03 -6.93362206e-03
    1.51312968e-03 3.89121065e-04 -1.22138457e-02 -1.69590414e-02
    -1.39077916e-03 5.12579456e-03 2.28538513e-04 1.06599461e-03
    7.04716705e-03 2.39051273e-03 -3.92672978e-03 -9.67428740e-03
    -1.26333404e-02 -5.77918580e-03 -4.26587369e-03 -1.16079412e-02
    -1.02922935e-02 -5.55175031e-03 4.65649785e-03 1.93995668e-03
    -9.91013087e-03 -1.36375818e-02 -4.50004777e-03 5.27069625e-03
    -4.12224606e-03 -7.48423021e-03 -8.97836871e-05 3.88831296e-03
    5.63170994e-03 -2.90591922e-03 -1.13897184e-02 -8.75064638e-03
    -3.86841223e-03 -4.49260976e-03 -1.86210568e-03 -9.30061855e-04
    3.88731225e-03 3.62910470e-03 -4.09398274e-03 -1.23981312e-02
    -5.69990277e-03 -5.46453195e-03 -1.32939210e-02 7.56325142e-04
    -4.31566732e-03 1.19458826e-03 3.42979422e-03 -4.20073653e-03
    -5.34380088e-03 -9.19270981e-03 -1.35645233e-02 -1.36709679e-02
    3.73567641e-03 8.88496521e-04 -7.21761631e-03 6.75799465e-03
    3.87805887e-03 -5.11099724e-03 -1.25164045e-02 -1.10387886e-02
    -3.63960443e-03 7.57801672e-03 2.22125347e-03 4.28034598e-03
    1.67879253e-03 -5.72175346e-03 -1.24062523e-02 -1.29967332e-02
    -1.16756232e-02 -6.13190746e-03 6.09908160e-03 1.70304673e-03
    1.15986157e-03 2.71556783e-03 -1.63868093e-03 -1.11639164e-02
    -1.13820843e-02 -9.84664448e-03 -9.47575457e-03 1.22562365e-03
    1.82177476e-03 -7.21748639e-03 -8.50057986e-04 4.80014971e-03
    -7.13254139e-03 -1.03911879e-02 -4.54471493e-03 -7.55403331e-03
    -7.18650548e-03 -5.49941137e-03 -1.69589417e-03 6.17418671e-03
    7.51531543e-03 -1.27803464e-03 -9.05627757e-03 -5.02717029e-03
    -1.51679560e-03 3.95258423e-03 -4.14476468e-04 -6.13790751e-03
    -3.60680278e-03 -3.82632646e-03 -9.96901374e-03 -3.30562703e-03
    3.15430178e-03 2.26839585e-03 -3.92104732e-03 -4.33516363e-03
    -6.07301295e-03 -1.45191897e-03 3.38620506e-03 1.06169784e-04
    -8.90177768e-03 3.00742988e-03 -4.27011662e-04 -4.39106114e-03
    -3.46517074e-03 -2.11834675e-03 1.00849336e-02 1.19342972e-02
    -1.24897331e-03 -6.01644581e-03 3.61915678e-03 9.00139508e-04
    -7.56757986e-03 -1.68243703e-02 -1.21160680e-02 1.29337201e-03
    6.44765142e-03 7.53525121e-04 -1.30682345e-03 1.32784229e-02
    8.77337344e-03 2.99581583e-03 -7.02306814e-03 -7.85448961e-03
    -5.54755656e-03 9.11448034e-04 3.56110511e-03 1.46821572e-03
    9.67029110e-03 -4.29248996e-03 -1.16540426e-02 -2.16643438e-02
    -2.14556102e-02 -1.08242696e-02 -2.09158892e-03 1.32215372e-03
    -3.03254812e-04 1.62671618e-02 8.08713399e-03 1.11152390e-02
    -6.68871775e-03 -1.08959340e-02 2.14707875e-03 4.18644026e-03
    1.36848772e-03 9.10336210e-04 6.86596660e-03 2.09159858e-04
    -2.55753309e-03 -1.43559556e-02 -1.19787874e-02 3.04618385e-04
    -3.69392079e-03 -3.17612616e-03 9.24553722e-03 1.61332302e-02
    1.91042945e-03 -3.42291460e-05 -1.72788259e-02 -1.30870333e-02
    -4.71998518e-03 1.92939420e-03 3.93130025e-03 8.36833753e-03
    1.00503620e-02 -4.53966111e-03 -4.94246325e-03 -2.10475139e-02
    -1.02279736e-02 -4.10201121e-03 -1.70817773e-03 -2.41624351e-04
    5.12420619e-03 1.43298106e-02 1.05758039e-02 2.86040944e-03
    5.08667901e-03 1.66680932e-03 4.80325520e-03 3.31689633e-04
    -1.37224700e-03 -1.11936964e-02 -1.23348215e-03 3.26493243e-03
    -2.10591150e-03 3.06281331e-03 -2.76732794e-03 -4.35309578e-03
    -7.49190245e-03 -1.32448496e-02 4.21781838e-03 9.60994139e-03
    4.61179763e-03 1.88485510e-03 -2.07085651e-03 -6.69263653e-04
    2.25428073e-03 1.47232460e-03 2.59336201e-03 -8.21141712e-03
    -3.28318123e-03 4.95123677e-05 -4.62513231e-03 3.33096972e-03
    -1.07061826e-02 -6.17681677e-03 -7.90992472e-03 -1.02453893e-02
    -1.22361595e-03 -8.18837318e-04 4.51939553e-03 4.84449742e-03
