<?xml version="1.0"?>
<opencv_storage>
<f162 type_id="opencv-object-detector-hog">
  <winSize>
    96 160</winSize>
  <blockSize>
    16 16</blockSize>
  <blockStride>
    8 8</blockStride>
  <cellSize>
    8 8</cellSize>
  <nbins>9</nbins>
  <derivAperture>1</derivAperture>
  <winSigma>4.</winSigma>
  <histogramNormType>0</histogramNormType>
  <L2HysThreshold>2.0000000000000001e-01</L2HysThreshold>
  <gammaCorrection>1</gammaCorrection>
  <nlevels>64</nlevels>
  <signedGradient>0</signedGradient>
  <SVMDetector>
    6.29269797e-03 3.48317996e-03 -9.48635337e-04 9.17583413e-04
    -2.01761097e-04 7.43568223e-03 5.19815926e-03 6.47149049e-03
    4.16546641e-03 3.21269152e-03 1.48982857e-03 2.36495209e-04
    5.26903057e-03 7.59892864e-04 5.61302435e-03 4.05164715e-03
    6.03085943e-03 -2.74536171e-04 6.97931042e-03 -3.19908373e-03
    -5.90165891e-03 -6.93930220e-03 -6.35573699e-04 -2.88692559e-03
    4.20856196e-03 1.01280464e-02 5.83860883e-03 7.71555258e-03
    -4.82224394e-03 -1.93315046e-03 -1.00454479e-03 -1.13747560e-03
    2.16403557e-03 -2.59210099e-03 4.98847524e-03 2.82238703e-03
    -2.47211824e-03 -2.69050128e-03 -2.65522922e-05 1.42040907e-03
    2.35415809e-03 5.01899328e-03 3.25524528e-03 3.28998198e-03
    -2.29091523e-03 -6.30620215e-03 1.73562742e-03 7.52649363e-03
    2.98656826e-03 -3.85297625e-03 3.42379254e-03 4.80556535e-03
    6.31506043e-03 6.69409055e-04 3.96891759e-04 -4.22769552e-03
    -1.22677512e-03 -8.70771008e-04 2.50785582e-04 2.68707843e-03
    -3.03866831e-03 4.83326940e-03 3.97433015e-03 -1.00870582e-03
    1.36089418e-03 6.12171739e-03 2.45167548e-03 5.51279215e-03
    6.14946522e-03 3.57978395e-03 9.30148549e-03 1.17009627e-02
    -5.51667996e-03 4.75395704e-03 7.44930701e-03 4.14190441e-03
    -5.33225201e-03 -2.92991358e-03 -1.66600745e-03 5.75375045e-03
    -1.73733197e-03 -3.63340368e-03 6.24766340e-03 2.60210806e-03
    4.16124752e-03 -2.46850145e-03 -6.79992372e-04 -1.14017702e-03
    6.99657807e-03 -3.20918974e-03 -1.16260303e-03 4.27174754e-03
    9.53230076e-03 5.59000857e-03 3.06282775e-03 -7.76326851e-06
    1.82234362e-04 5.78242820e-03 3.19835334e-03 -1.95733202e-03
    6.41745143e-03 3.17746704e-03 3.94542614e-04 4.16075299e-03
    -3.83729503e-06 -1.33570028e-03 6.46363245e-04 -5.08085266e-03
    -1.62262790e-04 8.76498874e-03 3.74463107e-03 3.56519292e-03
    -7.20151525e-04 -7.16835668e-04 5.17100189e-03 8.39717407e-03
    7.79124559e-04 -2.48664198e-03 6.51189545e-03 8.01226497e-03
    5.08876890e-03 -1.09521032e-03 8.65450769e-04 5.71495248e-03
    1.67748448e-03 -1.45362969e-03 -4.05121827e-03 4.54544555e-03
    8.98150320e-05 -5.98020339e-03 1.39314402e-03 1.55495352e-03
    2.43900879e-03 3.06117861e-03 -4.90404025e-04 -5.06665697e-03
    4.44218190e-03 6.99587923e-04 -3.84168513e-03 6.53557619e-03
    8.02193023e-03 1.36543363e-02 -4.90963517e-04 -5.91977639e-03
    -1.78509101e-03 8.31227843e-03 7.84037914e-03 9.21284128e-03
    1.01559600e-02 9.95446742e-03 5.90690225e-03 -1.46245176e-03
    -1.71929714e-03 -6.13227021e-03 6.70492603e-03 5.22752665e-03
    1.58204231e-03 5.15662832e-03 6.24495419e-03 6.38937869e-04
    -3.41797038e-03 -7.45288050e-03 -2.98422668e-03 5.40770544e-03
    1.21107313e-03 6.14850665e-04 1.12538245e-02 7.74428714e-03
    1.27790300e-02 -2.54283869e-03 -6.41532103e-03 -6.26461953e-03
    6.15418842e-03 2.77127302e-03 -3.65965744e-03 2.76758079e-03
    3.88394645e-03 5.56841027e-04 -4.27158456e-03 -7.97562581e-03
    -6.40174421e-03 1.90838345e-03 2.12184689e-03 -3.07901355e-04
    2.32481817e-03 2.76572327e-03 -1.09380332e-03 -2.31948006e-03
    -7.70757161e-03 1.61622267e-03 1.72543048e-03 6.70509459e-03
    -4.10360284e-03 -8.66221439e-04 -4.73405328e-03 1.05244690e-03
    -1.90223567e-03 -1.68761166e-04 -6.57372409e-03 4.64874040e-03
    8.21935665e-03 3.53033398e-03 2.14978098e-03 -4.39585710e-04
    -8.25724506e-04 -2.30866927e-03 -8.63350276e-03 7.39226630e-03
    8.97285435e-03 2.03081779e-02 1.26862982e-02 1.13732629e-02
    -4.67357365e-03 3.58814327e-03 -6.05015492e-04 2.41158647e-04
    -1.35979755e-03 -1.00632326e-03 1.74148532e-03 -4.48911684e-03
    -7.07825413e-03 -7.76150217e-03 -1.96728227e-03 -3.89116467e-03
    -6.30585290e-03 -2.56835623e-03 9.63286776e-03 1.06387641e-02
    -8.48862983e-04 -1.71958550e-03 -4.67984751e-03 -1.22684776e-03
    -5.71770919e-03 -1.27230715e-02 3.34372278e-03 5.25087351e-03
    1.03225214e-02 4.28081071e-03 1.27373484e-03 -6.56120107e-03
    -8.55322811e-04 7.34399218e-05 -3.07147508e-03 -3.79063492e-03
    8.56939331e-03 1.45201767e-02 6.77999388e-03 6.37298170e-03
    4.09447402e-03 3.34926695e-03 -1.72729720e-03 -1.01879006e-02
    -3.95198073e-03 7.96480849e-03 7.14807352e-03 -1.66275352e-03
    -2.93018809e-03 -2.12328252e-03 -8.16942891e-04 -2.94992002e-03
    -9.49655101e-03 -2.68796645e-03 2.96541117e-03 4.37421119e-03
    -4.74077463e-03 -7.47658731e-03 -3.11315968e-03 -8.98071099e-04
    -1.90696461e-04 -6.06219796e-03 -8.49247386e-04 6.74843509e-03
    9.37207136e-03 4.56926326e-04 3.65410862e-03 7.22361077e-03
    6.46881061e-03 5.68381220e-04 -8.56757630e-03 3.11562722e-03
    7.93209579e-03 5.62847545e-03 -2.11360166e-03 -4.99263545e-03
    -1.11947069e-03 2.71639461e-03 1.80519663e-03 -1.72807544e-03
    -6.30766805e-03 2.48309877e-03 -1.33695116e-03 -7.15425750e-03
    -1.06553491e-02 -6.01981115e-03 -3.39402887e-03 -7.23107764e-03
    -1.34624913e-02 -3.15937703e-03 7.39855645e-03 3.63813876e-03
    2.67514540e-03 -8.06498155e-03 -8.15428514e-03 -9.85103939e-03
    -1.11371875e-02 -8.19731317e-03 4.33330936e-03 1.25823151e-02
    1.91719353e-03 -4.66053234e-03 -4.45295777e-03 -9.04253405e-03
    -4.37311968e-03 -6.65970659e-03 -5.17808972e-03 6.90782862e-03
    1.70300696e-02 1.04995854e-02 7.98369013e-03 4.01004869e-03
    -7.91537389e-03 -4.06961609e-03 4.50587552e-03 8.70092493e-03
    -1.15752837e-03 3.78039200e-03 -7.52981694e-04 -5.50617650e-03
    -1.22700268e-02 -1.14310039e-02 -9.07488633e-03 -5.18718921e-03
    -4.34714323e-03 -4.77583060e-04 8.45349510e-04 -6.13280619e-03
    -1.07172951e-02 -1.21098971e-02 -1.25627052e-02 -8.11727904e-03
    -4.16243565e-04 -1.19917982e-04 6.48539793e-03 8.48414656e-03
    7.29682681e-04 -4.90496634e-03 -8.00183136e-03 -1.26922783e-02
    -1.76786125e-04 1.46303559e-02 1.95752122e-02 1.44920005e-02
    1.63624994e-02 4.23732633e-03 -7.34549249e-03 -1.76036973e-02
    -1.46286637e-02 -2.70959781e-03 1.08597912e-02 1.71766821e-02
    -5.35634020e-03 -6.21466758e-03 -8.96220841e-03 -1.02570718e-02
    -1.10872537e-02 -6.06139889e-03 -1.55427249e-03 1.08283004e-02
    -1.80255016e-03 -1.34918448e-02 -8.97511560e-03 -6.71280455e-03
    -1.22530963e-02 -1.94627214e-02 -6.04350632e-03 5.15071070e-03
    1.11673586e-02 -3.34739313e-03 1.01487506e-02 9.79271531e-03
    1.89474446e-03 -8.62407032e-03 -1.60656981e-02 -7.22063659e-03
    7.63075612e-03 1.67050157e-02 1.43666072e-02 -2.33356957e-03
    -1.99778541e-03 -6.32138457e-03 -1.35308634e-02 -1.96102653e-02
    -2.95520900e-03 2.01914869e-02 2.43972074e-02 1.53124221e-02
    -6.93038246e-03 -3.56085785e-03 -4.68920311e-03 -7.91490171e-03
    -6.80128718e-03 1.09206024e-03 1.48594007e-02 8.63853656e-03
    -6.58413908e-03 -1.13201141e-02 -3.31536122e-03 -3.45676811e-03
    -6.42521959e-03 -2.31127581e-03 -3.95334279e-03 7.35928956e-03
    -4.38607298e-03 -1.36986701e-02 -1.11564342e-03 -5.42926742e-03
    -7.33204745e-03 -9.57407057e-03 7.89229060e-04 6.61610067e-03
    2.71646064e-02 2.30789799e-02 5.27060963e-03 -8.88768118e-03
    -6.72254828e-04 -9.35578486e-04 -5.40573732e-04 1.57443073e-03
    -1.52690243e-03 1.25717577e-02 3.81297548e-03 -4.52469708e-03
    -1.53015123e-03 4.83253971e-03 9.02359001e-03 2.37283460e-03
    1.94621098e-04 -3.36215389e-03 3.83978989e-03 -1.46180671e-03
    -5.85787510e-03 6.09688787e-03 1.34013756e-03 1.98877975e-03
    -5.91435004e-03 -8.82797036e-03 -5.90892835e-03 1.46837905e-03
    7.74103042e-04 -1.39285007e-03 -2.44610035e-03 8.28027632e-03
    1.22292181e-02 9.85789392e-03 6.28195843e-03 2.89986166e-03
    3.29971663e-03 -2.40100548e-04 1.22329965e-03 5.45996474e-03
    1.22900950e-02 6.28569582e-03 -7.02923723e-03 -5.76812355e-03
    3.79771972e-03 3.20997834e-03 2.52730749e-03 -1.05663110e-03
    4.55058925e-03 3.52406222e-03 3.34597635e-03 -5.59776369e-03
    4.11210442e-03 -3.22215026e-03 2.06067809e-03 8.38049280e-04
    2.44075968e-03 1.84371718e-03 4.16664779e-03 8.01256951e-03
    -3.62966326e-03 3.40769929e-03 -6.17768662e-03 -1.94900786e-03
    -4.46414575e-03 -2.14725477e-03 7.80463638e-03 1.09552909e-02
    2.70396471e-03 -7.42836576e-03 2.32325518e-03 1.87114207e-03
    4.84913122e-03 9.52672213e-03 5.57570625e-03 2.23196694e-03
    6.83111465e-03 8.99697281e-03 -8.66211485e-03 -1.39950600e-03
    -7.25761242e-03 8.89891089e-05 6.59300899e-03 3.68196564e-03
    3.29823070e-03 3.27095529e-03 3.45065934e-03 -5.42633096e-03
    7.51878717e-04 -7.15930341e-03 -2.51984689e-03 -7.16945715e-03
    -3.30151664e-03 2.50503304e-03 4.52924380e-03 4.64928709e-03
    -6.82497583e-03 7.22898915e-03 -5.44373877e-03 -1.86041044e-03
    -9.08915326e-03 -5.39783575e-03 -4.16715746e-04 7.67149637e-03
    1.23655042e-02 -3.85796139e-03 1.70423707e-03 -5.61670866e-03
    -6.62608584e-03 -5.18671889e-03 -4.17341292e-03 3.72351217e-03
    8.17212835e-03 1.02220131e-02 -9.57396813e-04 1.28398100e-02
    -7.48706691e-04 -6.34346390e-03 -6.86098775e-03 -1.87854597e-03
    -1.42974852e-04 3.70022119e-03 3.72414710e-03 -5.86252008e-03
    1.00969095e-02 -3.55911115e-03 4.49419254e-04 -5.42230997e-03
    -4.25643241e-03 -2.56946636e-03 -9.41008737e-04 -1.11733470e-03
    -6.11835392e-03 -2.65766028e-03 -6.43966161e-03 5.12304669e-03
    9.73446120e-04 -1.57156016e-03 1.13094198e-02 3.25381779e-03
    1.37376587e-03 -3.43767297e-03 1.11003285e-02 -4.57600737e-03
    -1.00112338e-04 -1.31660234e-03 2.98131770e-03 9.96509753e-03
    1.66791421e-03 -4.63248836e-03 -6.44584792e-03 -2.92645185e-03
    -1.08948890e-02 5.30707091e-03 1.16399378e-02 1.19949132e-02
    -5.89829264e-03 -1.36447942e-03 -1.20613561e-03 -2.98572006e-03
    -9.45952779e-04 -2.65686424e-03 4.69228113e-03 2.62620952e-03
    -3.90820019e-03 -7.10574817e-03 7.00316858e-04 5.43941231e-03
    1.63860095e-03 4.00889106e-03 -1.00940769e-03 7.25405803e-03
    2.81067425e-03 -1.42064970e-03 1.09226943e-03 1.31358509e-03
    -1.59923104e-03 -3.18042864e-03 -2.76146526e-03 -3.66144534e-03
    6.56156614e-03 5.13221370e-03 4.46288241e-03 4.19430947e-03
    4.93482361e-03 9.97229479e-03 1.51177531e-03 4.77576768e-03
    -3.74301034e-03 3.82230966e-03 3.79769481e-03 4.35413700e-03
    -7.44025176e-03 2.17562006e-03 8.36332608e-03 1.06976798e-03
    -2.60611949e-03 -5.75913861e-03 2.31703627e-03 4.54787252e-04
    -5.89719554e-03 -1.13308267e-03 4.06871783e-03 7.69214844e-03
    -3.02536483e-03 4.58459137e-03 -9.22822207e-03 -9.63093713e-04
    -4.48671781e-04 -5.89145627e-03 7.55108520e-03 6.59547467e-03
    8.41354206e-03 -3.06041026e-03 -4.87834308e-03 -9.31287836e-03
    -6.43316831e-04 7.53148738e-03 1.04077626e-03 1.39541663e-02
    1.71016883e-02 1.62785910e-02 3.64749855e-03 7.89713813e-04
    -9.65945050e-03 -1.75366760e-03 5.73496986e-03 -3.16700805e-03
    -3.92949535e-03 1.85826910e-03 3.26730544e-03 -3.00524896e-03
    2.66422122e-03 -1.13127083e-02 -5.00398455e-04 -9.68945315e-05
    -8.61041993e-03 -7.12772878e-03 -6.86721905e-05 4.99231182e-03
    6.89021498e-03 1.82904284e-02 -1.81867008e-03 -1.72915729e-03
    -5.71028516e-03 -1.04450556e-02 -4.21127079e-05 7.31354626e-03
    9.77638736e-03 3.58862011e-03 2.40086298e-03 -7.60064553e-03
    -9.17087134e-04 -1.01459958e-03 -8.47550016e-03 -9.22887679e-03
    -3.28611303e-03 1.33820472e-03 6.55575003e-03 1.31711010e-02
    1.30113969e-02 4.24440438e-03 -1.67556026e-03 -7.87793659e-03
    3.39276553e-03 2.93813529e-03 -2.48125929e-04 -3.79110314e-03
    -4.72833315e-04 -3.99275590e-03 4.48862696e-03 6.01183437e-03
    3.47525417e-03 3.17173079e-03 -1.37812516e-03 3.57187446e-03
    1.05992996e-03 -2.80886400e-03 -5.79552026e-04 -2.87663867e-03
    8.12858343e-03 2.78116995e-03 3.92677449e-03 9.42726247e-03
    6.95218984e-03 -1.55149668e-03 -9.37233120e-03 -2.62069609e-03
    8.62477254e-03 9.84920654e-04 -1.08634005e-03 3.05275898e-03
    1.36055853e-02 1.62772406e-02 4.70549334e-03 -7.72648491e-03
    -3.73758934e-03 1.60956464e-03 2.44352105e-03 -3.74844624e-03
    -1.99196860e-03 -4.09260113e-03 3.49354814e-03 9.05064808e-04
    -3.21807852e-03 -2.10672501e-03 -4.16953349e-03 4.85856272e-03
    4.93661733e-03 1.46076619e-03 -1.32567761e-03 4.81472211e-03
    1.94198336e-03 -3.29104508e-03 -3.77160730e-03 5.08137094e-03
    8.51836614e-03 8.93586967e-03 -1.41541474e-04 1.05621861e-02
    1.37664312e-02 -1.46708090e-03 -1.17349010e-02 -5.51555585e-03
    -3.57133773e-04 6.58499310e-03 3.13177821e-03 1.06546690e-03
    4.56644455e-03 3.75492359e-03 -3.37854144e-03 -8.70487746e-03
    -4.63379174e-03 1.17078908e-02 9.38084535e-03 6.72557019e-03
    3.11756344e-03 5.29000582e-03 1.27675124e-02 7.57299503e-03
    4.56374692e-04 -4.49077832e-03 6.63778605e-03 6.32612314e-03
    3.96924047e-03 -2.54035112e-03 6.56810636e-03 4.99621499e-03
    -2.04935507e-03 -3.09782685e-04 -1.50193379e-03 2.96309171e-03
    2.97201285e-03 -1.45916373e-03 -3.95839009e-03 4.20290651e-03
    5.19119157e-03 3.23736807e-03 -3.59182642e-03 -2.82107969e-03
    6.99989265e-03 4.47510649e-03 1.85776269e-03 -9.38766450e-03
    6.48726523e-03 8.20781384e-03 1.99516755e-04 -8.19769781e-03
    -3.49628855e-03 5.60993142e-03 4.86181257e-03 -2.79069133e-03
    -1.42890785e-03 4.15496714e-03 -5.66959672e-04 -3.19977780e-03
    2.02196813e-03 9.67462838e-04 4.97218594e-03 5.20866690e-03
    1.25573156e-03 -4.42641880e-03 5.42093348e-03 4.13969345e-03
    3.23260296e-03 1.42926434e-02 6.72761723e-03 6.75311824e-03
    9.65042622e-04 -3.35129537e-03 -5.60848182e-03 2.35815207e-03
    5.55014564e-03 3.25050810e-03 -6.30524068e-04 1.68513099e-03
    5.20119350e-03 3.25531466e-03 -6.87895902e-03 -4.49175108e-03
    -2.92027631e-04 9.31910612e-03 7.10527087e-03 9.50769242e-03
    -2.63946713e-04 1.16406346e-03 3.07703414e-03 -3.54869710e-03
    -7.60258455e-03 2.76915450e-03 2.62358808e-03 -9.86190047e-04
    1.40001308e-02 4.16298583e-03 5.54900151e-03 -4.31209384e-03
    -7.26133958e-03 -6.06656773e-03 2.13125278e-03 4.39057406e-03
    -8.81023798e-03 -3.36924195e-03 -4.60965419e-03 -2.17039142e-05
    -5.08750370e-03 -5.10246679e-03 -8.00076500e-03 -1.35289156e-03
    4.69010277e-03 5.30437916e-04 9.93955694e-03 6.63683889e-03
    3.21038673e-03 2.97459750e-03 -1.73922407e-03 -2.81431247e-03
    2.95188138e-03 1.23440810e-02 4.74506337e-03 2.59608671e-04
    1.31782517e-02 7.07291253e-03 2.40650697e-04 -1.13058905e-03
    -7.56435888e-03 4.62832249e-04 1.04150036e-02 -4.59815725e-04
    -5.62665565e-03 -2.42119399e-03 -1.52893888e-03 -5.76141896e-03
    -8.85721017e-03 -3.46943410e-03 2.81143561e-03 1.66599210e-02
    5.35819167e-03 6.53439062e-03 -2.68020900e-03 -2.20893626e-03
    -5.79840876e-03 -9.24705248e-03 -2.27135769e-03 3.47642647e-03
    1.55237308e-02 4.85712755e-03 -2.65561766e-03 9.47171822e-03
    4.68770321e-03 -3.15571600e-03 -5.28478250e-03 -2.03866768e-03
    5.46979485e-03 1.27306879e-02 1.95207749e-03 -5.85195725e-04
    3.99518432e-03 6.33821636e-03 -3.85684171e-03 -5.25660347e-03
    -2.13432242e-03 2.68294592e-03 8.83090962e-03 1.34492072e-03
    2.92060082e-04 -6.39180886e-03 -2.96283071e-03 -3.42590059e-03
    -8.03728402e-03 -1.27802435e-02 -5.67934942e-04 9.04103927e-03
    5.87649317e-03 6.00393536e-03 1.07061462e-02 8.13231524e-03
    -1.89268962e-03 -1.60058700e-02 -4.52158367e-03 8.51592747e-04
    8.02896637e-03 -1.66191382e-03 -9.11297370e-03 -4.10478516e-03
    1.67571835e-03 -4.75968234e-03 -1.05958385e-02 -7.45233335e-03
    2.62341509e-03 9.37174354e-03 4.35110560e-04 -2.54951720e-03
    8.11844692e-03 9.46754310e-03 6.88680867e-03 -1.21925836e-02
    -1.02790492e-02 -2.69657793e-03 2.10705935e-03 -1.08947582e-03
    -2.38202093e-03 1.04553541e-02 7.61695392e-03 -2.35366658e-03
    -1.50568094e-02 -3.24618584e-03 9.49373841e-03 1.06992503e-03
    -7.42863398e-03 -1.08333202e-02 -5.51378122e-03 -5.21329371e-03
    -1.08862631e-02 -1.40794925e-02 -1.12124952e-02 -5.02943840e-05
    4.31816606e-03 -1.32082356e-03 -5.14867774e-04 9.40780062e-03
    1.23121776e-02 7.11057056e-03 -1.22363279e-02 -3.16492398e-03
    6.73799543e-03 1.44706629e-02 3.37276515e-03 1.15147486e-04
    -2.27937358e-03 -7.49685860e-04 -6.13135984e-03 -1.56072173e-02
    3.16021964e-03 1.15393363e-02 2.24419171e-03 -6.97912741e-03
    -1.02141164e-02 -1.13369804e-02 -1.08332774e-02 -1.28867188e-02
    -1.18436404e-02 -3.06525239e-04 9.38156527e-03 6.82667922e-03
    4.34795115e-03 -1.01072330e-03 -9.65143088e-03 -6.98849885e-03
    -6.34300848e-03 -3.07595660e-03 -4.89089033e-03 1.40856998e-02
    1.50624830e-02 3.63531476e-03 -4.37762868e-03 -9.60444938e-03
    -1.16644725e-02 -1.34670893e-02 -1.32777411e-02 1.07975304e-03
    2.02472042e-02 2.20190845e-02 9.78184678e-03 -2.98835686e-03
    -1.37458798e-02 -1.13772089e-02 -1.17165400e-02 -1.52727179e-02
    -7.56306807e-04 1.06598332e-03 -1.07112492e-03 -6.10335497e-03
    -6.93573849e-03 -8.53113551e-03 -2.94237491e-03 4.58980957e-03
    5.19837672e-03 5.39769512e-03 5.87560656e-03 -3.89379729e-03
    -1.33146094e-02 -1.58046726e-02 -1.07598631e-02 -5.11150900e-03
    1.76459271e-03 6.32066932e-03 -2.92353542e-03 1.10736042e-02
    7.60073308e-03 -2.87803356e-04 -7.47830840e-03 -5.54816704e-03
    -5.23528596e-03 -5.55110769e-03 -7.85763748e-03 1.82128162e-03
    1.35675939e-02 -1.82855350e-03 -1.22698415e-02 -8.59038252e-03
    -6.18978497e-03 -3.62102431e-03 -3.41243390e-03 -1.62274495e-03
    8.02272465e-04 2.85747438e-03 -5.15928958e-03 -1.32450107e-02
    -1.50362272e-02 -8.61976575e-03 3.55363730e-03 1.03330407e-02
    8.23842082e-03 -5.03992243e-03 -3.80171719e-03 -5.11160353e-03
    -1.37307560e-02 -1.55583173e-02 -6.37573143e-03 5.82850026e-03
    1.03084268e-02 5.79311233e-03 2.65839510e-03 6.79284567e-03
    -5.40262880e-03 -1.27291055e-02 -1.25024570e-02 -6.00804528e-03
    9.62625199e-04 6.24329969e-03 -1.05294757e-05 6.30068011e-04
    2.83788121e-03 -2.96628987e-03 -7.52091082e-03 -5.25488053e-03
    7.49718491e-03 1.22173093e-02 1.70589685e-02 -2.85113603e-03
    -1.08282128e-02 -8.55606794e-03 -5.82580967e-03 -5.84424892e-03
    -2.29205866e-03 -1.07279269e-03 9.90268774e-03 8.25898163e-03
    -5.90645196e-03 -1.71117242e-02 -1.01265041e-02 -6.92554237e-03
    -2.94378586e-03 -5.45139797e-03 -9.96087771e-03 6.09720999e-04
    -3.46629019e-03 -1.36785014e-02 -9.46067460e-03 -7.42380228e-03
    -2.77552684e-03 2.34463405e-05 4.19647759e-03 1.50108756e-02
    2.23097168e-02 1.74797978e-02 -3.61060229e-04 -9.81730781e-03
    -9.94067732e-03 -7.36059435e-03 3.92655935e-03 8.23988667e-05
    -2.23659896e-04 1.08679421e-02 4.04142076e-03 -5.54146664e-03
    -1.27158118e-02 -1.66458765e-03 8.28939781e-04 5.78657677e-03
    2.37131398e-03 -2.43736524e-03 -1.32493034e-03 -6.02730317e-03
    -8.19605775e-03 -6.33509783e-03 6.19623438e-03 -1.98038365e-03
    -1.22341225e-02 -1.45793678e-02 -3.82900448e-03 -7.56444549e-03
    -8.74358788e-03 -1.03850123e-02 4.10828943e-04 2.57608970e-03
    3.69281555e-03 8.67621042e-03 8.62061232e-03 4.88685677e-03
    6.99708844e-03 2.62126746e-03 -2.55408842e-04 1.17688589e-02
    2.11573541e-02 5.34063904e-03 -5.54376654e-03 -8.78633652e-03
    -3.27019114e-03 -2.54995283e-03 2.60784663e-03 -3.23751738e-04
    -1.35018234e-03 1.03229024e-02 -2.48424549e-05 -1.17720338e-02
    -1.10286083e-02 -5.43436408e-03 -3.16328695e-03 3.03153181e-03
    -5.02340868e-03 -3.49197257e-03 4.85548796e-03 2.07110410e-04
    -1.67022664e-02 -1.31135276e-02 -1.40830297e-02 -4.55235364e-03
    1.15350424e-03 -4.96229343e-03 1.02648232e-02 2.10165475e-02
    4.93968092e-03 -6.89415867e-03 -6.96488190e-03 -5.88757917e-04
    7.81771541e-03 1.69548262e-02 3.02487845e-03 7.78189977e-04
    6.67087967e-03 -2.76365853e-03 -1.17759472e-02 -1.17366090e-02
    -6.47811918e-03 7.92309269e-03 6.12794003e-03 -6.11853274e-03
    1.65462014e-04 2.12526764e-03 3.96278966e-03 -1.19492682e-02
    -5.74699929e-03 -5.28987451e-03 4.82380392e-06 1.37685239e-03
    -3.50359874e-03 5.56903193e-04 -1.66573431e-04 -1.26412767e-03
    -9.13907029e-03 -2.08581961e-03 5.62211440e-04 2.82328430e-04
    -3.72455223e-03 -2.34021037e-03 1.63351966e-03 -8.71661468e-04
    -6.66320231e-03 -1.25323962e-02 -2.44353985e-04 -5.27963089e-03
    1.07848784e-02 8.46218131e-03 2.17118138e-03 -1.30003307e-03
    -3.61991138e-03 -7.75939412e-03 -1.25631597e-02 6.44475082e-03
    6.14635646e-04 1.23378038e-02 6.73733372e-03 2.42369808e-03
    2.87601398e-03 -2.52664112e-03 -6.09815074e-03 -7.36194104e-03
    -2.65504862e-03 -4.11124807e-03 8.48286902e-04 -8.13179358e-04
    -2.55900202e-03 4.25651390e-03 -3.41301318e-03 -7.02512311e-03
    -7.79198110e-03 1.54436668e-04 -7.04505434e-03 1.43454480e-03
    4.58749989e-03 9.50882444e-04 -3.23000277e-04 -4.53436747e-03
    -7.36206165e-03 -6.69476995e-03 4.28693183e-03 1.57864450e-03
    1.27557293e-02 6.00125873e-03 6.03083870e-04 4.71981242e-03
    -1.22849853e-03 -2.80555617e-03 -1.65096414e-03 7.76217179e-03
    2.85381358e-03 7.76067795e-03 1.25034759e-02 1.53089908e-03
    2.11559454e-04 1.39802264e-03 -9.55599302e-04 -3.68284876e-03
    3.95293953e-03 -2.71276780e-03 3.69820255e-03 4.64972574e-03
    2.41965009e-03 2.89991684e-03 7.43800728e-03 7.36411987e-03
    -6.40563376e-04 -3.35833873e-04 -5.34050260e-03 -1.08434819e-03
    5.48808835e-04 -2.27955286e-04 9.92105925e-04 2.93991040e-03
    1.52177177e-03 1.99236581e-03 7.39327492e-03 -8.73527315e-04
    2.37532030e-03 8.14807601e-03 -3.81136400e-04 1.08380080e-03
    8.20330065e-03 4.53681219e-03 -1.64663920e-03 2.75966898e-03
    -5.35694463e-03 -4.26391745e-03 -1.31426763e-03 -4.23233490e-03
    9.04849917e-03 9.02794581e-03 6.63393363e-03 -5.06975176e-03
    -5.77036710e-03 -4.66137333e-03 8.34687438e-04 4.52896161e-03
    3.12507479e-03 1.43174045e-02 1.86671652e-02 1.37847327e-02
    2.42739363e-04 -1.37439114e-03 -6.73356652e-03 2.47809454e-04
    7.03339372e-03 3.82129522e-03 2.64162919e-03 5.98011911e-03
    5.69445267e-03 -4.36910335e-03 -3.56370443e-03 -9.04090703e-03
    -5.66557224e-04 -3.14010633e-03 -2.82480242e-03 9.07883327e-03
    1.05360821e-02 1.46855023e-02 -2.88944552e-03 -5.84122119e-03
    -1.46917142e-02 1.70003541e-03 5.47669549e-03 6.93287095e-03
    3.52592440e-03 8.84513650e-03 7.34908739e-03 -1.83203770e-03
    -3.35670833e-04 -8.35844502e-03 -2.80388934e-03 -6.66223234e-04
    -3.67585896e-03 -9.04909987e-03 -6.38719229e-03 -2.52014701e-03
    -5.03593311e-03 1.07102375e-02 7.02553568e-03 4.47182404e-03
    -2.20763939e-03 -7.74142984e-03 3.87809868e-03 4.92091710e-03
    8.65594018e-03 -3.99465719e-03 -3.17387842e-03 -1.21970708e-02
    6.83904218e-04 3.88811831e-03 1.86484109e-03 -2.84657720e-03
    -4.38321102e-03 -2.93458253e-03 1.85261335e-04 1.56081505e-02
    2.30800291e-03 1.25437314e-02 7.29077077e-03 -1.03089726e-03
    3.25533794e-03 4.86546103e-03 6.91726478e-03 5.27360127e-04
    -6.05367543e-03 2.50552502e-03 6.49246620e-03 2.17633741e-03
    -6.30634662e-04 5.87192085e-03 1.06267668e-02 1.39289321e-02
    4.11630434e-04 -6.21454045e-03 -1.41414697e-03 1.95832201e-03
    -4.44297533e-04 -1.85213273e-03 2.30022636e-03 3.19843949e-03
    1.11015476e-02 -1.99254486e-03 -8.89842119e-03 3.78799648e-03
    3.77605436e-03 8.18463624e-04 -1.43695367e-03 2.05553207e-03
    5.22033218e-03 1.02552762e-02 -4.59471904e-03 -5.63135883e-03
    6.44509820e-03 4.02556779e-03 -2.99704378e-03 -2.28247768e-03
    5.02723176e-03 1.22662783e-02 1.07421549e-02 -5.70857897e-03
    -7.15363678e-03 -1.38503476e-03 2.92638945e-03 4.97691054e-03
    1.73182704e-03 3.12391319e-03 8.22333992e-03 7.84756988e-03
    -2.20147456e-04 -4.86876443e-03 3.00359703e-03 8.61584488e-03
    8.14768393e-03 1.06798473e-03 6.04061825e-06 6.28285669e-03
    5.02594002e-03 -9.28835664e-03 -4.87744203e-03 4.05593030e-03
    2.09771167e-03 1.94148917e-03 -5.85212183e-05 -3.53880390e-03
    4.35487926e-03 1.34817150e-03 -9.57816467e-03 -8.75810627e-03
    4.20177449e-03 4.87484084e-03 7.20372051e-03 5.68817602e-04
    -3.41335079e-03 2.79206503e-03 2.48513115e-03 3.29542812e-03
    -3.61504895e-03 2.30108481e-03 7.29839737e-03 4.03198041e-03
    -9.35443852e-04 -6.35729544e-03 2.58279312e-03 4.41152509e-03
    7.26044737e-03 1.85093493e-03 -2.07186880e-04 1.18453633e-02
    5.09228790e-03 -2.93945963e-03 -1.83112826e-03 1.12731790e-03
    -3.83372139e-03 -3.60486726e-03 -1.12844957e-02 -2.82980473e-04
    6.45687710e-03 4.59778588e-03 -1.24325848e-03 -7.07159378e-03
    -3.98622779e-03 -1.46649976e-03 1.33547904e-02 9.21446085e-03
    5.07159065e-03 8.58255476e-03 7.37891314e-05 -6.34115702e-03
    -5.84649201e-03 7.80641974e-04 6.67212112e-03 6.28662668e-03
    3.57446587e-03 -1.10797607e-03 3.25449696e-03 -2.91258958e-03
    -1.08794756e-02 5.26915363e-04 -3.01099208e-04 1.02573885e-02
    2.70205783e-03 1.69123535e-03 -4.38584387e-03 1.54200697e-03
    -8.22952599e-04 -3.02173174e-03 -6.78057317e-03 -1.19125063e-03
    4.96711768e-03 1.39244478e-02 9.76164360e-03 1.13618246e-03
    1.50416000e-03 -4.99754073e-03 -1.07228598e-02 6.13508280e-03
    7.72883836e-03 1.38492966e-02 7.87647348e-03 2.72122468e-03
    -5.56766847e-03 -2.78166309e-03 -6.24402752e-03 1.83969620e-04
    -4.94045671e-03 -1.10466492e-04 4.88657644e-03 -2.24643806e-03
    -3.70351761e-03 -4.48037684e-03 -1.47941126e-03 2.00564461e-03
    -5.21930214e-03 -8.41118209e-03 3.26132379e-03 1.19841909e-02
    4.72766580e-03 -2.59001995e-03 6.81863865e-04 -1.63674669e-03
    -4.37074545e-04 -9.95767862e-03 -9.22474603e-04 2.48669623e-03
    1.00659104e-02 1.82025880e-03 -5.88709069e-03 -8.47853348e-03
    -6.81000948e-03 -5.41812321e-03 -4.19330224e-03 -4.45867097e-03
    3.85049009e-03 2.06795372e-02 7.76118925e-03 -1.93184905e-03
    -1.30529515e-02 -7.97532033e-03 -4.47069469e-04 -8.12691264e-03
    -6.48327824e-03 1.81368017e-03 9.52304434e-03 5.08392835e-03
    -5.15008206e-03 3.21215810e-03 -9.01583931e-04 -3.48302023e-03
    -1.02428021e-02 -1.97776686e-03 1.41953432e-03 7.39264721e-03
    -1.57595123e-03 -8.33864044e-03 -4.57177917e-03 -2.98050058e-04
    -3.19372700e-03 -7.40316138e-03 2.78333807e-03 3.77107784e-03
    1.17871957e-02 -2.74224876e-04 -9.72961355e-03 -9.67062823e-03
    -8.39993078e-03 3.15466151e-03 -2.31762999e-03 5.47866616e-03
    5.35017753e-05 -2.14117439e-03 -8.05529207e-03 -4.55682306e-03
    -1.24355406e-02 -9.13888402e-03 4.75613493e-03 1.57337245e-02
    -4.68458980e-03 -5.06986957e-03 1.68072619e-03 -5.40191913e-03
    -1.17186056e-02 -8.23039655e-03 -1.78464118e-03 -3.02491477e-03
    -7.03669386e-03 -7.02295732e-03 -6.13166625e-03 -3.69293359e-03
    -6.16259361e-03 -6.66549429e-03 2.47970806e-03 3.83790210e-03
    4.56940243e-03 -7.31549365e-03 6.14714576e-03 -5.87398605e-03
    -4.71397210e-03 -7.12821959e-03 -5.44577464e-03 -8.45364947e-03
    -8.62161443e-03 -3.14642163e-03 9.17018205e-03 5.78152854e-03
    3.49558052e-03 -4.07359237e-03 -1.03266514e-03 1.57555041e-03
    9.83455870e-03 4.91645467e-03 1.75436755e-04 6.10585418e-03
    -9.64748766e-03 -4.62533627e-03 -2.61791726e-03 -6.95749559e-03
    -7.44458102e-03 2.50908243e-03 2.40252493e-03 7.02044985e-04
    -1.51308728e-02 -1.08438758e-02 -2.37104530e-03 5.71695529e-03
    6.79366756e-03 3.60519160e-03 -1.31906429e-03 -1.08991470e-03
    -4.78410767e-03 -2.15985775e-02 4.83423145e-03 2.10076314e-03
    -5.05284267e-03 -5.05083799e-03 -9.51047521e-03 2.93174968e-03
    -8.81931410e-05 -3.77898896e-03 -5.15774870e-03 -8.11924879e-03
    -1.67832838e-03 6.94640772e-03 1.26443254e-02 6.63578883e-03
    9.93865915e-03 1.63024873e-03 -1.18495768e-03 -1.27389245e-02
    -8.24753754e-03 9.63419769e-03 1.66486055e-02 1.43321948e-02
    1.75647892e-03 -6.47665188e-03 -8.92494898e-03 -7.74951931e-03
    -1.44423656e-02 -8.02990329e-03 1.25872428e-02 1.62925310e-02
    1.31970821e-02 -4.40798840e-03 -1.10132778e-02 -1.08839506e-02
    -1.08127510e-02 -1.27219111e-02 -1.10325348e-02 5.09055331e-03
    1.88082177e-02 1.64960474e-02 5.39636379e-03 3.67557397e-03
    -4.11283970e-03 8.54605809e-04 -6.01250911e-03 -4.58349055e-03
    1.00850705e-02 1.14944056e-02 5.62243909e-03 -4.14819689e-03
    -5.58946840e-03 -7.94873387e-03 -6.63366169e-03 -6.12650160e-03
    -4.79630288e-03 1.09615903e-02 9.57751367e-03 2.46357871e-03
    -1.06381765e-02 -8.33671540e-03 -4.43149032e-03 -4.63184714e-03
    -1.07711870e-02 -7.87273864e-04 1.13665350e-02 3.59939900e-03
    -8.98864679e-03 -5.63367363e-03 -7.21990038e-03 3.30704660e-03
    2.70002615e-03 -3.55692441e-03 -6.37170346e-03 9.27947089e-03
    9.42145381e-03 1.06715702e-03 -8.23048595e-03 -5.80144953e-03
    -5.34548704e-03 -4.26825834e-03 -2.68249540e-03 -8.30383226e-03
    1.25997132e-02 1.33194560e-02 4.35499148e-03 7.23661680e-04
    -3.07925208e-03 6.57270313e-04 -3.26262624e-03 -2.56039598e-03
    -2.95324833e-03 4.42033430e-04 -4.95567545e-03 -9.74406302e-03
    -1.16056623e-02 -8.74602981e-03 2.10546050e-03 6.89910538e-03
    -5.61249582e-03 -4.55995183e-03 -4.57712682e-03 -4.72770305e-03
    -6.44143019e-03 -2.34711566e-03 7.75651680e-03 9.75246355e-03
    1.12624243e-02 -3.18887224e-03 -4.36476897e-03 2.56687845e-03
    1.12176861e-03 -2.38778885e-03 -6.22638920e-03 -9.82913654e-03
    -1.39377627e-03 2.13161367e-03 2.88648950e-03 2.14834232e-03
    4.86794952e-03 -1.60364050e-03 -5.61568129e-04 1.03368226e-03
    7.03449501e-03 3.03209038e-03 1.02624148e-02 1.05939368e-02
    -9.28673614e-03 -8.92155897e-03 -1.04240188e-02 -4.20904625e-03
    4.33579204e-04 1.06923562e-02 1.74846109e-02 1.26609579e-02
    -1.72390183e-03 -5.20397164e-03 -7.38905044e-03 -1.58583689e-02
    -9.15028248e-03 -7.42242252e-03 -4.05555824e-03 3.17970081e-03
    2.02434952e-03 -5.95583813e-03 1.44035229e-03 1.95847606e-04
    -9.79344640e-03 -4.51334519e-03 -5.17802313e-03 5.44069521e-03
    1.84107618e-03 5.89702651e-03 4.45765071e-03 6.59281434e-03
    -4.28171223e-03 -1.18042212e-02 -8.17079749e-03 -1.15254521e-02
    -7.09536206e-03 -2.31792824e-03 1.31285877e-03 2.72115949e-03
    2.25487608e-03 -2.24390579e-03 -5.56463934e-03 -1.08224165e-03
    -1.95454829e-03 -5.06784860e-03 -4.77863243e-03 -4.42656828e-03
    -6.05942681e-03 1.09822024e-03 7.46657886e-03 -4.63990076e-03
    -9.94422846e-03 -8.07161164e-03 -1.19305402e-02 -1.04081994e-02
    -6.63279090e-03 -7.37304147e-03 6.57372968e-03 6.50796667e-03
    4.14670771e-03 3.18522286e-03 8.09322670e-03 -4.39929450e-03
    -8.31561163e-03 -6.66337274e-03 -2.09191116e-03 4.90349857e-03
    1.00759612e-02 7.56490231e-03 -7.36311995e-05 -2.79034744e-03
    -4.36913315e-03 -1.10166771e-02 -7.21891224e-03 -1.94024527e-03
    2.80481623e-03 1.00681745e-02 1.11125584e-03 -3.80449323e-03
    -4.25458560e-03 -1.85658468e-03 3.77039029e-03 5.66884689e-03
    -1.80603238e-04 -4.56485339e-03 -2.51106382e-03 -1.02545861e-02
    -8.37673061e-03 -1.61483251e-02 -5.76995593e-03 1.86992425e-03
    2.66195578e-03 -7.10241077e-03 8.37161671e-03 1.08190794e-02
    1.01228263e-02 4.36128909e-03 4.73990617e-03 4.29775473e-03
    3.42140719e-03 6.90212008e-03 4.36323276e-03 -8.71722028e-03
    -7.08356407e-03 -7.75406417e-03 -1.17085092e-02 -1.35703878e-02
    -5.14349667e-03 7.68841198e-03 3.65752121e-03 -6.73862174e-03
    -3.51910385e-05 -1.40888442e-03 -8.50124657e-03 -7.59688858e-03
    -4.33965819e-04 -3.28462035e-03 9.93287656e-03 1.00451186e-02
    -1.06845691e-03 -9.12976079e-03 -6.48019649e-03 -5.91637241e-03
    -1.14531806e-02 1.00417500e-02 -5.12009938e-05 7.88680743e-03
    3.06238607e-03 -5.59823122e-03 -9.92895383e-03 -2.98086763e-03
    -3.15801171e-03 -8.57147761e-03 -2.56421464e-03 3.38275800e-03
    1.93318706e-02 1.08808447e-02 -4.68827551e-03 -1.07683074e-02
    1.44468655e-03 8.41850974e-03 -8.01413413e-03 4.83658281e-04
    -4.09472232e-05 7.14195147e-03 1.28551724e-03 -1.12187359e-02
    -6.67140121e-03 -1.37778476e-03 2.94907577e-03 -1.23471871e-03
    9.00645833e-03 2.92166555e-03 6.06880290e-03 3.44687072e-03
    -7.88558088e-03 4.19852044e-03 2.69520562e-03 4.87281755e-03
    -1.22088043e-03 -1.19027903e-03 -3.70424241e-03 -1.67514337e-03
    2.37710332e-03 -9.78147611e-04 -8.54278821e-03 2.39452883e-03
    8.76568351e-03 -2.68266565e-04 1.24059932e-03 8.44695780e-04
    8.02020822e-03 4.45562648e-04 -9.65785421e-03 1.95886916e-03
    -1.41495268e-03 4.61020088e-03 -5.44923544e-03 -1.00499270e-02
    -6.94141770e-03 2.54255673e-03 5.62830013e-04 3.23067559e-03
    4.80286730e-03 5.66750579e-03 8.26235581e-03 4.53911582e-03
    9.93778696e-04 -2.14436324e-03 -2.04228098e-03 5.93431992e-03
    2.30847928e-03 9.79713048e-04 4.36975062e-03 3.35278595e-03
    -3.72363511e-03 2.63814442e-03 -5.13145002e-03 -4.28687502e-03
    1.72375829e-03 -5.73598081e-04 2.54760962e-03 6.47520297e-04
    7.65989395e-03 6.23324071e-04 -3.51990853e-03 -3.33625777e-03
    4.39123623e-03 4.31530317e-03 8.18052329e-03 -2.90900306e-03
    1.84631592e-03 5.74292289e-03 -4.42659995e-03 4.71444475e-03
    -4.34423005e-03 2.37916666e-03 -1.36534247e-04 -2.71084777e-04
    2.42018048e-03 4.82846657e-03 -3.76148528e-04 -6.29116315e-03
    3.45200358e-04 -7.06893858e-03 1.63027504e-03 1.85402494e-03
    7.88123289e-05 8.87474604e-03 1.18383756e-02 8.71441513e-03
    -7.51971081e-03 9.88276675e-04 -1.02561824e-02 4.76456713e-03
    7.32892146e-03 6.67095557e-03 3.95925809e-03 8.76096729e-03
    5.30663237e-04 -1.06444256e-02 -8.89832387e-04 -6.45323656e-03
    4.26890142e-03 1.06142908e-02 3.25548393e-03 9.04544536e-03
    1.82240307e-02 1.18224211e-02 -8.72281753e-03 4.28199489e-03
    -6.43517449e-03 6.38783723e-03 1.29924119e-02 1.25119016e-02
    2.31871381e-03 4.76085627e-03 6.51985174e-03 -4.67217388e-03
    1.80357392e-03 -1.14052426e-02 -6.72614900e-04 3.13402480e-03
    -5.63390844e-04 -2.84851203e-03 -1.67757354e-03 2.56348030e-05
    6.70600496e-03 2.42317282e-02 2.16691033e-03 5.79241337e-03
    5.06839436e-03 -4.49151220e-03 -3.82344308e-03 9.47185047e-03
    7.58608291e-03 -4.88270447e-03 4.63395985e-03 -6.67533884e-03
    -3.75604781e-04 -1.59672159e-03 -5.81900682e-03 -8.05498753e-03
    -4.70604806e-04 5.35000442e-03 4.72258590e-03 1.47561170e-02
    -3.00669996e-03 6.91578374e-04 -5.74509089e-04 -1.21434722e-02
    4.57326137e-03 3.40078399e-03 4.74327942e-03 -1.90682942e-03
    -2.36880290e-03 6.91208430e-03 1.00562433e-02 6.47081900e-03
    2.69988785e-03 3.69067700e-03 1.25768629e-03 -1.51302095e-03
    -3.94847756e-03 -3.98609880e-03 8.99300165e-03 1.35145308e-02
    5.82285365e-03 -2.97187915e-04 -2.84651201e-03 -1.30812486e-03
    -5.11035975e-03 -4.15763585e-03 2.39973119e-03 -3.55813326e-03
    4.49668756e-03 2.44646473e-03 2.19367561e-03 2.60090479e-03
    1.32044463e-03 -5.42387017e-04 1.04287488e-03 2.29289406e-03
    -6.97289710e-04 5.41495951e-03 6.42295228e-03 -1.60323060e-03
    -1.68447092e-04 1.52604072e-03 1.79516862e-03 -4.73437645e-03
    -6.63805380e-03 7.76953343e-03 9.26520769e-03 8.69575329e-03
    6.80922996e-04 -4.22360469e-03 2.39333068e-03 -1.99454743e-03
    -5.10270474e-03 -8.35403148e-03 4.54215147e-03 8.62353668e-03
    9.57165472e-03 -5.14930871e-05 -1.59567397e-04 2.43971800e-03
    6.16117381e-03 7.35672889e-03 1.11862051e-03 3.86137026e-03
    6.94393879e-03 1.40612165e-03 -3.66369262e-03 -9.37166344e-03
    -1.21625338e-03 2.22096196e-03 6.86665112e-03 1.30983710e-03
    7.62954028e-03 1.41400332e-02 4.09646472e-03 -5.69310924e-03
    -3.45125300e-04 3.56838899e-03 -3.54856974e-03 2.47342796e-05
    -5.05852560e-03 4.68700513e-04 3.91754974e-03 4.02930239e-03
    -2.85574072e-03 -2.97226431e-03 -2.40668567e-04 3.98980826e-03
    1.66033953e-02 1.10377707e-02 4.83478187e-03 -1.64421939e-03
    -1.75812701e-03 -6.04547746e-03 -6.14463631e-03 3.39036202e-03
    3.92462453e-03 6.87041925e-03 -2.00741389e-03 1.61430100e-03
    4.64056805e-03 1.31163548e-03 -6.06593210e-03 -6.32289937e-03
    3.53850494e-03 1.01804174e-02 1.29576884e-02 8.38629529e-03
    -1.36018882e-03 -3.80464341e-03 -5.81126893e-03 -1.15110632e-02
    -6.92537380e-03 -2.31817225e-03 2.83268816e-03 1.15963193e-02
    1.09070828e-02 1.84238702e-03 -2.44422490e-03 -4.12134873e-03
    -9.92729515e-03 -1.83307647e-03 1.17342116e-03 4.28383332e-03
    3.96366650e-03 6.29702816e-03 -3.98541940e-03 -1.79528678e-03
    -3.83426994e-03 -5.36116958e-03 -1.34746097e-02 -6.48464914e-03
    2.42956285e-03 6.78408984e-03 9.92765464e-03 -1.29470462e-03
    -5.70305914e-04 -6.73432276e-03 -1.17457947e-02 -7.87501410e-03
    -5.04696323e-03 5.53970970e-03 6.80371979e-03 1.31215807e-02
    -2.32996681e-04 3.96961626e-03 2.52383319e-03 -5.35881706e-03
    -4.00574552e-03 -5.48655121e-03 -2.82017258e-03 -4.09047958e-03
    -6.15792023e-03 -8.06108955e-03 -7.88960978e-03 -7.08503788e-03
    -3.97288660e-03 -1.89750828e-03 -2.66947388e-03 6.97207358e-03
    4.31166030e-03 -2.65376363e-03 -1.03068510e-02 -9.86575522e-03
    -4.06696601e-03 -6.82519237e-03 -6.49864413e-03 -9.00687557e-03
    -4.07884875e-03 7.53235421e-04 -2.01071124e-03 -3.73990438e-03
    1.88483717e-03 5.39905485e-03 -3.33990646e-03 1.62643337e-04
    -2.41809362e-03 -1.32220355e-03 8.26444570e-03 4.61739750e-04
    4.24501719e-03 -9.79192439e-04 3.01792566e-03 -4.47182637e-03
    2.13577296e-03 9.31851799e-04 7.48068001e-03 9.69720713e-04
    -8.06391519e-03 -8.91382620e-03 -7.02378387e-03 2.06758990e-03
    -3.88144486e-04 5.16737113e-03 -1.90701813e-03 -1.65188569e-03
    -7.04899803e-03 -3.85478861e-03 -6.26074616e-03 -7.97854853e-04
    2.88857822e-03 9.37466323e-03 -6.47378736e-04 6.04740635e-04
    -2.47452594e-03 3.32106487e-03 -5.99970948e-03 3.18292365e-03
    -7.00500168e-05 1.42982265e-03 -3.88300861e-03 1.75112707e-03
    2.46838550e-03 -3.54998326e-03 -4.56040166e-03 -5.44719922e-04
    -3.31880088e-04 7.55553553e-03 4.98748710e-03 -9.12449206e-04
    4.08285158e-03 -1.84372696e-03 -4.73500788e-03 -7.10053137e-03
    -9.22439806e-03 -6.02821913e-03 -2.00667069e-03 -3.09024379e-03
    7.39229610e-03 2.51448620e-03 3.03048082e-03 -2.15057586e-03
    -1.33778015e-03 -4.90183337e-03 1.13877496e-02 6.14972040e-03
    2.36658193e-03 3.07167345e-03 3.27582518e-03 1.28785556e-03
    -2.44714739e-03 -1.05283912e-02 -1.45601751e-02 -9.37227905e-03
    2.56085675e-03 3.65594821e-03 9.73860617e-04 -1.04216230e-03
    -2.79057585e-03 -8.68870557e-05 -4.45036311e-03 -1.52881937e-02
    1.21021480e-03 2.22419412e-03 1.12787969e-02 -3.95029644e-03
    5.21588605e-03 3.06947366e-03 -1.22496812e-03 -3.09331995e-03
    -9.76709649e-03 1.10077893e-03 2.78825010e-03 1.88765279e-03
    6.82692567e-04 1.15708401e-03 -2.41798093e-03 6.01935294e-03
    8.28527659e-03 1.37631898e-03 6.90772431e-03 2.75803241e-03
    5.69398515e-04 -1.40668370e-03 -6.35985890e-03 -6.82014693e-03
    -3.66713107e-03 -7.83379935e-03 -1.60441808e-02 2.88904674e-04
    -1.25099323e-03 7.13666435e-03 -6.74231863e-03 -9.76774469e-03
    -2.89149606e-03 -1.95816369e-03 -1.00560347e-02 -8.09465628e-03
    2.80792289e-03 2.84082466e-03 5.64505486e-03 -1.69118133e-03
    -6.45864056e-03 -2.39110016e-03 2.71788076e-03 -1.05199625e-03
    -3.26069607e-03 -1.36773189e-04 -3.53606185e-03 2.15407507e-03
    6.01433357e-03 5.63739915e-04 1.56090315e-03 6.92315865e-03
    -3.40672373e-03 -9.64350160e-03 -7.40648387e-03 -7.35167181e-03
    -4.46673576e-03 5.36250044e-03 -5.05541277e-04 -2.42604990e-03
    1.77257438e-03 -6.37773657e-03 -5.41956956e-03 -2.65490357e-03
    -3.86749423e-04 4.97294404e-03 7.28120189e-03 1.14764422e-02
    7.21139414e-03 1.07453773e-02 2.11112341e-03 -5.27915359e-03
    -3.85798584e-03 -1.17909629e-03 -7.77551832e-05 1.20394668e-02
    -3.67951882e-03 9.81456833e-04 7.51011400e-03 -6.60030358e-03
    -1.15190577e-02 -1.11773675e-02 -7.99442455e-03 -7.83377793e-03
    -2.10396457e-03 -7.02408375e-03 5.17004030e-03 6.68653287e-03
    1.30543613e-03 -8.21438245e-03 -9.83445998e-03 -9.88221727e-03
    -6.59151934e-03 -3.47993942e-03 1.11043928e-02 9.14175529e-03
    1.21666202e-02 4.68988437e-04 -8.49251915e-03 -7.93097354e-03
    -1.67757401e-03 -9.99036129e-04 2.55324645e-03 2.00829445e-03
    9.68183205e-03 1.55460509e-02 1.25872996e-02 -8.21976937e-05
    -5.32923499e-03 -3.95691395e-03 -2.14061001e-03 -3.08332674e-04
    2.29422309e-04 5.97249018e-03 4.52823564e-03 -2.47716135e-03
    -5.05932188e-03 -6.11492619e-03 -7.41083501e-03 -1.13340013e-03
    4.03125724e-03 4.95708780e-03 4.96129273e-03 -7.53160845e-03
    -7.87322596e-03 -2.13198760e-03 1.84624654e-03 -6.38630847e-03
    -9.36805503e-04 9.64159798e-03 -3.67028057e-04 5.58133516e-03
    4.37857211e-03 6.86959457e-03 9.23097308e-04 2.09024223e-03
    -4.39414056e-03 -7.38578383e-03 -4.29064326e-04 -4.27285535e-03
    -1.69065653e-03 -8.51455610e-03 -1.93985715e-03 4.27399669e-03
    1.06739728e-02 -1.21126312e-03 -6.62021292e-03 -6.05025387e-04
    8.01486894e-03 6.21276768e-03 -5.64609235e-03 -1.73736899e-03
    9.34473137e-05 6.27768133e-03 -2.33128876e-03 -2.26367498e-03
    6.02453481e-03 6.97371876e-03 2.66138872e-04 1.88842893e-03
    -6.38493744e-04 -1.05013149e-02 -5.70145855e-03 -3.84781463e-03
    -3.72672244e-03 5.01239265e-04 -7.39549426e-03 -4.17535612e-03
    -6.77284459e-03 5.36998326e-04 5.57113253e-03 6.66269055e-03
    -1.18937896e-04 -7.87371211e-03 -4.32013720e-03 -3.07025830e-03
    -4.45101270e-03 6.43853191e-03 5.08280564e-03 -1.62898866e-03
    -1.90822687e-03 -3.89597379e-03 -3.59158404e-03 -3.31069413e-03
    -6.31771376e-03 6.38074242e-03 1.65965986e-02 7.13592581e-03
    3.07068112e-03 -4.73764027e-03 -5.73245436e-03 -7.69286510e-03
    -9.36295465e-03 -6.74733054e-03 5.75548038e-03 1.24627789e-02
    4.97309305e-03 -2.85374559e-03 -6.69324957e-03 -6.53962046e-03
    -4.54225391e-03 -9.27543547e-03 -9.22753848e-03 -8.74989142e-04
    1.36230290e-02 8.19910038e-03 -3.76334181e-03 -3.47722089e-03
    -3.15430085e-03 -6.80507161e-04 -1.25334524e-02 -4.26801387e-03
    3.16374470e-03 8.13519023e-03 1.97146228e-03 -7.76708499e-03
    -1.02881081e-02 -2.59883679e-03 2.51929741e-03 -8.31985381e-03
    -1.25020905e-03 5.83338877e-03 5.04001183e-03 -3.26403044e-03
    1.26311088e-05 1.38462579e-03 1.87497505e-03 7.66570866e-03
    -2.57994817e-03 -1.34547381e-02 -4.85970732e-03 -1.74019381e-03
    -1.44990124e-02 -1.21682743e-02 -8.95812735e-03 1.32505456e-03
    1.11988315e-03 -1.23996837e-02 5.61926607e-03 8.35782383e-03
    3.92511021e-03 -6.81656133e-03 3.25783319e-03 4.65350831e-03
    8.50710273e-03 2.12443452e-02 7.99628999e-03 -5.54362079e-03
    -1.98152172e-03 -6.27164682e-03 -1.82288084e-02 -9.69271734e-03
    -1.02158245e-02 1.13956258e-03 6.51714206e-03 -2.60472717e-03
    -5.77045465e-03 1.38386223e-03 3.45412336e-05 -1.11238500e-02
    -6.10856293e-03 -9.81371966e-04 1.18312957e-02 2.73294398e-03
    -4.86721797e-03 -7.22439075e-03 8.74206191e-04 2.42302543e-03
    -8.02256539e-03 -5.42101869e-03 -4.32227273e-03 6.45261444e-03
    -4.66980564e-04 -6.71404973e-03 -2.22308305e-03 3.84868705e-03
    -5.95106801e-04 -1.15742581e-02 -3.18974094e-03 -9.65530053e-04
    7.98590574e-03 1.24228792e-02 3.60353081e-03 -6.13800576e-03
    -1.66824658e-03 -8.68616626e-03 -6.47493266e-03 3.02019506e-03
    -3.63821373e-03 6.24154881e-03 -2.46381154e-03 -5.71652548e-03
    -2.20155576e-03 5.40103205e-03 1.00707347e-02 -2.07432732e-03
    -1.34865148e-03 -6.01260515e-04 1.21750785e-02 5.40370774e-03
    -4.15313849e-03 -3.92680429e-03 -2.49755266e-03 -1.05116004e-03
    -7.75641529e-03 -8.45913589e-03 -4.02687071e-03 8.78871791e-03
    4.34465194e-03 -6.26183290e-04 -4.41762712e-03 -3.39315156e-03
    -7.47177936e-03 -3.23940325e-03 6.04694197e-03 2.80326535e-03
    1.66788828e-02 4.26752347e-04 -5.70183014e-03 -3.93525371e-03
    -4.51670540e-03 -6.32835459e-03 -1.37399975e-02 -5.03126765e-03
    -6.75750244e-03 1.08764088e-02 2.64467509e-03 -8.94097425e-03
    4.86011937e-04 2.48573185e-03 3.07298242e-03 -5.09102875e-03
    -5.48747485e-04 -2.55477964e-03 7.00843753e-03 5.41199790e-03
    5.56660816e-03 5.38868317e-03 6.31042058e-03 4.80364356e-03
    -5.05190715e-03 -4.23321209e-04 -6.56712055e-03 3.85997840e-03
    1.76416826e-03 5.05859312e-03 3.18552973e-03 7.04889605e-03
    7.23196007e-03 -4.73774364e-03 -4.67194077e-05 -7.89022911e-03
    2.97468691e-03 1.32520043e-03 -9.67087108e-04 6.32400438e-03
    4.01368877e-03 3.28609999e-03 -5.83365420e-03 6.43566425e-04
    -1.21754156e-02 -6.24431923e-05 2.96116271e-03 4.86374600e-03
    5.53593365e-03 6.21663220e-03 2.42199487e-04 -7.88987335e-03
    -6.57174410e-03 -9.15690605e-03 6.47296058e-03 1.00842873e-02
    3.50905396e-03 8.42140801e-03 1.23936543e-02 1.09260986e-02
    -6.38650870e-03 -4.44897357e-03 -8.06644000e-03 4.79150563e-03
    1.21029010e-02 1.03521850e-02 3.16616916e-03 -1.87830196e-03
    -1.37068483e-03 -9.07743722e-03 -5.45279635e-03 -1.37357963e-02
    7.60012819e-03 1.22957295e-02 4.79103159e-03 9.07510985e-03
    8.78601056e-03 7.81312864e-03 -8.16254411e-03 -9.39157791e-03
    -1.07877152e-02 3.97416670e-03 1.32854348e-02 9.21761058e-03
    -3.78535455e-03 7.73638859e-03 7.74301169e-03 -5.01657370e-03
    -3.46713467e-03 -4.90070647e-03 1.81538134e-03 2.81221257e-03
    1.38606166e-03 -6.40983973e-03 2.32931576e-03 7.27517251e-03
    -3.38429178e-04 -1.26044732e-03 1.56646047e-03 5.38192037e-03
    7.42263487e-03 -1.18959625e-03 2.45819869e-03 4.75434819e-03
    6.20356901e-03 -6.75169239e-03 -8.46064836e-03 -5.44775696e-03
    -2.83922558e-03 2.37410981e-03 3.47230188e-03 2.58545246e-04
    5.11253299e-03 9.55848023e-03 -2.62328214e-03 3.70770041e-03
    5.61210606e-03 6.60129124e-03 1.09174354e-02 9.59725119e-03
    -2.87498650e-03 -1.03693991e-03 7.48222083e-05 -2.74365302e-03
    1.90292849e-04 -4.39354125e-03 -1.21250667e-03 -2.08694255e-03
    -1.27205031e-03 -5.43496478e-03 1.38893840e-03 1.39326230e-03
    2.36861221e-03 1.50914164e-03 -1.74336752e-03 -7.75260094e-04
    -1.83823181e-03 -6.81805005e-03 -4.90176678e-03 -2.48891488e-03
    8.99494160e-03 3.04628327e-03 2.34200549e-03 8.35093297e-03
    7.82862119e-03 2.72750575e-03 -4.50672442e-03 -6.51624752e-03
    4.18087846e-04 5.44097228e-03 7.65521638e-03 7.85466935e-03
    6.28377544e-03 5.42945927e-03 1.46849186e-03 -3.18488525e-03
    -5.55719761e-03 1.86846138e-03 6.04358548e-03 7.88429566e-03
    7.13778241e-03 3.51509126e-03 3.60093242e-03 -2.01118574e-03
    -5.27197728e-03 -8.12661368e-03 -5.30714518e-04 2.03285692e-03
    4.32027737e-03 3.05374130e-03 6.89102709e-03 8.41812603e-03
    -2.83077196e-03 -7.78960902e-03 -4.76164976e-03 2.21654307e-03
    3.52782453e-03 5.57606434e-03 3.51394434e-03 1.47139712e-03
    8.18270259e-04 -1.09600043e-03 -1.92688580e-03 -5.94174307e-05
    1.17601408e-03 3.71999945e-03 -1.06493779e-03 6.19186880e-03
    5.35163470e-03 -1.30298163e-03 -8.50790925e-03 -4.38504806e-03
    -5.95128629e-03 1.19396579e-03 3.46187432e-03 4.32770606e-03
    9.59227677e-04 4.02818294e-03 4.48340690e-03 -4.19466000e-04
    -4.44112532e-03 -1.04534365e-02 1.01249781e-03 3.24946200e-03
    5.31961070e-03 9.10025463e-03 3.20325536e-03 3.49336187e-03
    1.18161528e-03 -6.64707180e-03 -9.30386828e-04 -2.69701210e-04
    5.36710490e-03 1.79105427e-03 2.98270071e-03 5.73515659e-03
    -2.40099165e-04 -4.61652642e-03 -2.36716308e-03 -2.02649948e-03
    1.20684609e-03 2.15816847e-03 1.57800480e-03 4.70612990e-03
    4.19768086e-03 1.21475558e-03 9.30833723e-03 2.71607656e-03
    -1.48213487e-02 -7.27257505e-03 -1.32116675e-03 2.96034268e-03
    8.31659883e-03 1.03115279e-03 4.19103587e-03 -1.22966326e-03
    -7.42752431e-03 -9.00136773e-03 -7.16488343e-03 4.85152379e-03
    1.15221841e-02 3.94224981e-03 -1.54940155e-03 5.91566134e-03
    4.77036508e-03 -3.84720182e-03 -9.20646731e-03 -1.98922819e-03
    -5.06173633e-03 9.67938628e-04 5.32575976e-03 1.87275570e-03
    -1.96025521e-03 2.49057566e-03 -4.14968515e-03 -2.09563761e-04
    2.79241428e-03 2.18656100e-03 1.04416376e-02 1.96919078e-03
    -8.15296953e-04 -7.56130321e-04 5.51254023e-03 -4.96059749e-03
    -1.08814351e-02 -1.02664027e-02 -5.22566435e-04 4.72238194e-03
    -6.20726729e-03 -8.40155222e-03 5.48789860e-04 4.21772106e-03
    -6.21355558e-03 -9.59868636e-03 -8.63683410e-03 -6.68233680e-03
    6.61557494e-03 1.88496395e-03 6.00803131e-03 1.14473049e-03
    3.36363027e-03 -5.63343801e-03 -7.77036475e-04 -2.93097203e-03
    -3.82459396e-03 -2.44627078e-03 -6.04638271e-03 -7.55130593e-03
    -2.55072350e-03 2.31807563e-03 -7.21302861e-03 7.79379741e-04
    -5.13199251e-04 -9.52744856e-03 -3.67902382e-03 -3.87140492e-04
    5.05013578e-03 5.11120073e-03 5.80302067e-03 -1.82563788e-03
    -1.28667178e-02 -6.84813969e-03 -9.08642076e-03 2.74930778e-03
    -4.95264586e-03 2.56257434e-03 -3.80209484e-03 -1.66510243e-03
    -9.47989617e-03 -3.14989965e-03 -8.45517323e-04 -7.11719459e-03
    -9.61485598e-03 -1.09194042e-02 -4.85460833e-03 8.31915415e-04
    -2.21140202e-04 -5.72580192e-03 2.58298148e-03 2.93862284e-03
    -4.53230692e-03 -1.30431226e-03 -4.99890326e-03 -1.12366944e-03
    -3.11205070e-03 -2.54827505e-03 -2.26842542e-03 1.68921724e-02
    1.67037491e-02 3.00032529e-03 -1.28962717e-03 -1.08767934e-02
    -8.33570585e-03 -3.20613780e-03 -4.04655375e-03 1.65445241e-03
    1.13629329e-03 -8.18469503e-04 -5.98748168e-03 -1.25742005e-02
    -1.99804511e-02 -1.03801508e-02 -2.44485866e-03 1.25149090e-03
    -6.68340072e-04 -1.01571248e-04 -5.28739346e-03 -1.18798576e-02
    -1.32109821e-02 -1.59181487e-02 -7.53835775e-03 -3.94157832e-03
    4.93529765e-03 2.98741070e-04 1.85847767e-02 9.98991355e-03
    4.31589875e-03 -2.73666368e-03 -1.71676818e-02 -9.35038831e-03
    -5.61907655e-03 7.98818748e-03 1.43761197e-02 1.05425008e-02
    1.29090552e-03 -7.46260490e-03 -8.60853959e-03 -7.75101036e-03
    -9.26691014e-03 -6.21081842e-03 1.59993395e-02 1.51653485e-02
    -7.15659605e-03 -9.57548805e-03 -1.11266989e-02 -1.34882778e-02
    -1.29042557e-02 -3.31576937e-03 2.39984820e-05 3.62975406e-03
    -4.37378231e-03 -1.31001079e-03 8.97308695e-04 1.19028446e-04
    -8.12577829e-03 -4.76944819e-03 1.25533086e-03 4.21271613e-03
    1.03036910e-02 3.32388375e-03 1.20677182e-03 -4.27282229e-03
    -8.72166734e-03 -1.28081646e-02 -8.90677888e-03 -8.12859088e-03
    -1.78424094e-03 1.15092713e-02 4.34798561e-03 1.41457084e-03
    -9.29248112e-04 3.57448612e-03 -1.04636475e-02 -9.49229021e-03
    -6.06712140e-03 9.39165335e-03 1.45205548e-02 6.16842974e-03
    -4.74338245e-04 -1.59324543e-03 1.92710013e-05 -4.23930492e-03
    -9.90902726e-03 -3.52643803e-03 3.94354429e-04 3.21835163e-03
    1.47276290e-03 5.90649899e-04 -1.07836106e-03 4.90337471e-03
    7.00689061e-03 -3.00582079e-03 -6.06860127e-03 -6.10748725e-03
    -2.03220034e-03 1.37944543e-03 3.51220649e-03 6.23758743e-03
    1.15580112e-02 -1.61753653e-03 -1.15141626e-02 -7.46821612e-03
    -1.49183662e-03 2.88126362e-03 -3.43883596e-03 1.45442714e-03
    4.04284662e-03 7.39148399e-03 2.31394731e-03 -6.10531867e-03
    -8.05575680e-03 -1.33713577e-02 -6.54395437e-03 -5.35318209e-03
    3.08058271e-03 3.31611547e-04 3.36228032e-03 4.88831475e-03
    -4.28202283e-03 -7.02360459e-03 -5.25170052e-03 -8.62532353e-04
    -1.52203732e-03 -3.74045642e-03 1.22354366e-03 6.66867010e-03
    8.69963039e-03 6.40052743e-03 -1.26695423e-03 -2.94267829e-03
    -3.25612118e-03 -6.58328831e-03 5.65172377e-05 -1.33284437e-03
    2.78041960e-04 3.69656412e-03 -4.14732611e-03 -7.64758419e-03
    -1.20871970e-02 -6.38596946e-03 -3.42460140e-03 -6.71138754e-03
    -2.96353153e-03 7.35482015e-03 1.31611330e-02 4.69869329e-03
    4.29128530e-03 4.28321492e-03 1.25468103e-03 -4.08326881e-03
    -7.54671218e-03 -1.02511817e-03 -1.55771174e-03 9.58525389e-03
    5.26612625e-03 1.14039788e-02 5.49510913e-03 -1.65558781e-03
    -7.17837038e-03 -1.38262510e-02 -1.02926707e-02 -8.35259911e-03
    1.79301365e-04 4.14081849e-03 1.60066877e-02 5.81767596e-03
    -6.58296794e-03 -7.70061603e-03 -1.10987183e-02 -8.64405558e-03
    -3.81441065e-03 9.76185221e-03 9.43539478e-03 1.67328306e-02
    1.48982452e-02 1.00920023e-02 -2.23930762e-03 -1.69812888e-02
    -1.61874853e-02 -1.14452858e-02 -2.65111076e-03 -1.51409791e-03
    1.47095332e-02 8.78925808e-03 5.23051247e-04 -1.08198086e-02
    -9.31703765e-03 -4.55956208e-03 -4.49815858e-03 -1.04253762e-03
    9.07901768e-03 1.66022032e-02 7.98033364e-03 -2.45904922e-03
    -3.08530894e-03 -3.05722188e-03 2.17205402e-03 6.69828989e-03
    8.81605840e-04 -6.25565066e-04 -2.15828462e-04 4.73266671e-04
    1.61621312e-03 -3.19141196e-03 -1.07264128e-02 -8.06070026e-03
    -5.60646737e-03 -4.73271171e-03 -3.17096571e-03 8.80282186e-03
    1.61806699e-02 9.07282531e-03 -5.23840357e-03 -2.24229530e-03
    4.44396306e-03 1.11190444e-02 -1.37938000e-03 -8.04583263e-03
    -4.40503890e-03 5.44151617e-03 5.77405747e-03 -2.23731482e-03
    -3.63885262e-03 6.71539735e-03 1.33334268e-02 6.78543374e-03
    -9.71268862e-03 -5.15465299e-03 -3.17226746e-03 2.71429378e-03
    -6.60614483e-03 5.23148337e-04 3.87893268e-03 1.30254580e-02
    1.87702524e-03 -1.00030303e-02 -6.76770648e-03 -5.17979963e-03
    -8.06457712e-04 -6.84004044e-03 -1.83934660e-03 6.56240387e-03
    1.45649090e-02 8.89268937e-04 -8.71629082e-03 -6.32067630e-03
    4.32776008e-03 7.39145931e-03 -1.59203308e-03 -1.38648646e-03
    4.16968862e-04 7.19122821e-03 -3.39606008e-03 -1.02873640e-02
    -6.35048468e-03 -6.88009476e-03 -4.63219639e-03 -5.27982600e-03
    5.71365422e-03 6.29673712e-03 6.93625072e-03 -1.99570390e-03
    3.08110146e-03 5.45827625e-03 2.81769026e-05 3.28720897e-03
    -2.00677291e-03 -3.51614464e-04 4.69861989e-04 -7.69416662e-03
    -1.62112899e-02 -8.56101885e-03 -8.74443818e-03 -6.35358365e-03
    -3.36432294e-03 -7.70276645e-03 -2.84662400e-03 7.00935780e-04
    7.58081488e-03 1.15247443e-03 3.87659972e-03 2.84919678e-03
    -6.03194768e-03 -7.45590031e-03 -6.67634420e-03 -7.47023989e-03
    -8.05235561e-03 -5.86371915e-03 -6.37161871e-03 -8.12752405e-04
    -3.85187729e-03 -6.69100974e-03 -5.91554260e-03 -9.47906356e-03
    3.92136816e-03 3.75283067e-03 -1.61222427e-03 -1.07997637e-02
    -9.01699823e-04 5.03464695e-03 5.78840496e-03 5.30497590e-03
    -5.44732320e-04 -8.26948602e-03 -8.20279866e-03 -1.24054532e-02
    -9.78706125e-03 4.14995430e-03 -4.27775458e-03 4.59253648e-03
    -6.81056641e-04 -3.88012151e-03 -4.69163526e-03 -6.33013854e-03
    -4.99585271e-03 -1.76285510e-03 9.37215425e-03 9.81618930e-03
    8.71353969e-03 4.56272252e-03 -3.79282748e-03 -9.13790986e-03
    -9.99005698e-03 -9.19828843e-03 -1.21425949e-02 1.49747985e-03
    -1.88072561e-03 2.92747351e-03 7.74571905e-03 -3.95959290e-03
    -4.56865970e-03 -5.23109455e-03 -3.23451101e-03 -8.02402967e-04
    8.78597610e-03 7.34059140e-04 8.87292717e-03 -2.33322193e-04
    -2.42589042e-03 1.95549661e-03 -1.62274373e-04 4.47030296e-04
    -1.02306791e-02 6.24544991e-05 -5.36752224e-04 8.77785217e-03
    1.00361637e-03 -4.72055422e-03 -8.18732195e-03 -6.19353633e-03
    1.58318505e-03 -8.78493593e-04 1.00879492e-02 -2.18217348e-04
    6.64458983e-03 4.01548576e-03 -2.32854928e-03 -2.90234038e-03
    -1.84026561e-04 2.04255688e-03 -4.78695985e-03 1.49674146e-02
    6.47291029e-03 4.67922492e-03 -3.99224646e-03 -6.07894594e-03
    3.30161350e-03 4.36282670e-03 7.19469925e-03 -3.51052242e-03
    2.29709991e-03 -7.20473379e-03 3.35715641e-03 -7.43592507e-04
    -2.63626524e-03 -1.00542011e-03 2.97540729e-03 3.83630162e-03
    -8.49076081e-03 5.52605279e-03 -1.11991875e-02 1.79737178e-03
    -6.76762138e-05 -5.08719683e-03 3.39029660e-03 6.30231714e-03
    1.03740161e-02 -4.34433296e-03 1.24237547e-02 -2.35919491e-03
    2.15967395e-03 -5.05687250e-03 -9.22426768e-03 -1.90347794e-03
    8.57530627e-03 1.01561258e-02 -9.31396522e-03 1.17828604e-02
    -3.75527982e-03 3.62957618e-03 -1.56739482e-03 -1.10885696e-02
    -9.84210754e-04 3.27320583e-03 1.80242886e-03 -8.20830837e-03
    9.23044339e-04 -9.67873354e-03 3.85154923e-03 8.13602656e-03
    -2.55324296e-03 5.48744434e-03 1.14797177e-02 5.71139855e-03
    -9.85252857e-03 -4.88522369e-03 -6.70528691e-03 4.83160326e-03
    1.40811848e-02 4.19264846e-03 -4.82931966e-03 1.07865212e-02
    1.01297861e-02 -4.69285296e-03 1.33535899e-02 -1.44765270e-03
    2.30296049e-03 6.31105868e-05 -7.04627344e-03 2.21714354e-03
    1.31353550e-02 3.71057237e-03 -9.33576282e-03 9.76138469e-03
    -1.79486361e-03 5.93737513e-03 5.71693247e-03 -1.35022902e-03
    -8.22386646e-04 3.60134523e-03 3.93730123e-03 -6.86080987e-03
    -6.54100999e-03 -5.73930843e-03 6.73672825e-04 3.76716512e-03
    -4.68918326e-04 -2.53952481e-03 4.85212030e-03 9.07779578e-03
    -1.43757483e-04 9.03261546e-03 3.47648491e-03 4.48661624e-03
    4.79651336e-03 5.45187970e-04 -1.77675078e-03 8.54017399e-03
    2.19960045e-03 -6.57524122e-03 -7.81743613e-04 -3.53275356e-03
    2.95943813e-03 -2.14195723e-04 -4.46367823e-03 2.41964983e-04
    1.21976985e-02 1.93645582e-02 6.78923912e-03 1.18864002e-02
    3.70918214e-03 3.06251412e-03 5.64196263e-04 -1.80106683e-04
    -7.62309507e-03 -6.48906082e-03 2.36462173e-03 4.85488120e-03
    3.90025764e-03 6.04027743e-03 5.76468930e-03 2.89947493e-03
    -6.81959372e-03 -9.21148341e-03 -3.21704801e-03 -2.81017506e-03
    5.02853282e-03 -7.17985768e-06 4.18814505e-03 1.07722066e-04
    -1.88433705e-03 -1.08002890e-02 -7.83365220e-04 9.39918973e-05
    -1.67933889e-04 5.22361137e-03 8.97921342e-03 5.92159992e-03
    2.14869995e-03 6.16745558e-03 8.92852084e-04 5.91346156e-03
    3.85854719e-03 -5.63027104e-04 3.46712070e-03 2.14087241e-03
    2.26761168e-03 -3.96647723e-03 -6.86311629e-04 1.59433973e-03
    -5.73794125e-03 2.49899761e-03 2.14337488e-04 5.74200973e-03
    3.58440145e-03 5.01812145e-04 -4.53077228e-04 -3.23675899e-03
    -7.05386559e-03 -2.93350918e-03 -2.27504061e-03 4.72834241e-03
    4.33710869e-03 4.95067425e-03 -1.74125622e-03 -7.21819513e-03
    -1.28308218e-02 -5.26615744e-03 8.29148944e-03 3.68527323e-03
    4.32258891e-03 9.82161239e-03 -7.86671008e-04 -1.90331368e-03
    -4.05866194e-05 5.91206344e-06 1.92201778e-03 2.32500257e-03
    -4.85064369e-03 2.29355088e-03 9.34931822e-03 1.67173170e-03
    -6.78362790e-04 2.50583258e-03 8.31359706e-04 5.25031704e-03
    -3.01199872e-03 -3.19680432e-03 3.74275120e-03 1.58140738e-03
    -1.09692500e-03 -1.72197237e-03 -6.51371153e-03 -5.58523787e-03
    -3.06726550e-03 3.07756057e-03 1.01540750e-03 -1.15600030e-03
    -5.25166653e-03 -5.18001011e-03 -4.35829454e-04 -4.49708430e-03
    1.85251469e-03 1.01941614e-03 -4.41229466e-04 2.24433679e-04
    -1.82901090e-03 2.19974574e-03 -2.07016733e-03 2.14031758e-03
    1.89968303e-03 1.67755305e-03 3.05979652e-03 3.79121047e-03
    4.46571037e-03 3.23070632e-03 1.09786661e-02 1.05559658e-02
    3.98257701e-03 -6.33254123e-04 1.82129780e-03 8.59538093e-04
    -3.93294124e-03 2.04155501e-03 -4.35886905e-03 -1.47193798e-03
    -2.30110087e-03 1.49142661e-03 -4.41764528e-03 -1.64193322e-03
    -4.03551105e-03 -6.01849286e-03 4.59872140e-03 -1.99543103e-03
    1.06551265e-03 -4.02986072e-03 3.71263083e-03 -6.07590249e-04
    -9.48335975e-04 -1.08657507e-02 -4.95574716e-03 3.22561944e-03
    1.18444860e-03 1.06697492e-02 3.05925845e-03 -1.38211017e-03
    -3.89269600e-03 -2.70956336e-03 -4.85947030e-03 -5.78723243e-03
    -1.08963904e-04 4.62157745e-03 3.27385776e-03 -1.29543012e-03
    4.58472222e-03 8.02692771e-03 5.78455068e-03 -3.00111994e-03
    -3.70537583e-03 2.13170168e-03 -2.16268329e-03 -7.59915123e-03
    -7.04357261e-03 -1.09147339e-03 3.74053582e-03 2.00306228e-03
    -7.31544150e-03 5.35621634e-03 3.88701819e-03 -1.82652462e-03
    -9.42902081e-03 -6.25176542e-03 2.56405096e-03 7.07431464e-03
    8.28428473e-03 1.00944145e-03 -2.11284449e-03 2.16746866e-03
    4.46246471e-04 -6.62290398e-03 -1.00658480e-02 -6.74520526e-03
    4.80519421e-03 8.12137965e-03 -2.04212079e-03 2.09073327e-03
    5.50356507e-03 2.24114372e-03 -8.97511747e-03 -1.09672798e-02
    -9.89439432e-03 -8.10799748e-03 -7.36999500e-04 3.39880149e-04
    -9.21798928e-05 -8.00317968e-04 -7.17322389e-03 -9.99113172e-03
    -5.90464938e-03 -1.82704523e-03 -4.87166224e-03 -3.38710001e-04
    -2.27208319e-03 2.53149495e-03 1.11794169e-03 2.49087089e-03
    -1.71058590e-03 -4.85337619e-03 -2.52938597e-03 -2.25797994e-03
    -2.64404854e-03 -6.11768803e-04 -1.61819014e-04 -3.44525179e-05
    -5.90708246e-03 -1.41438423e-02 -1.05607510e-02 -5.77140786e-03
    -4.48264973e-03 -8.01720377e-03 -6.30772999e-03 -3.71193187e-03
    1.74228032e-03 2.89471890e-03 -4.46933834e-03 -8.05822015e-03
    2.34804442e-03 4.81545832e-03 -5.51430648e-03 3.50132963e-04
    8.16526078e-03 9.71428643e-04 6.75788010e-03 7.12021394e-03
    -4.70425049e-03 -4.30307863e-03 -4.27292706e-03 6.50539109e-03
    5.02556469e-03 -1.46629801e-03 -9.31929518e-03 -3.10591795e-03
    -1.80801027e-03 -4.61296365e-03 -1.33778080e-02 -2.34404742e-03
    1.32729094e-02 6.44778414e-03 -6.04035286e-03 -5.80210751e-03
    1.64018560e-03 3.94730503e-03 -5.28749032e-03 -2.65631033e-03
    5.34182822e-04 -3.34051973e-03 -1.53366697e-03 -1.05886934e-02
    -1.60867199e-02 -8.66029784e-03 -7.53193675e-03 -1.38513260e-02
    -1.40684647e-02 -1.00425084e-03 1.86899002e-03 -3.83327459e-03
    -4.67781164e-03 -9.29961167e-03 -6.46320125e-03 -9.42579657e-03
    -1.05175842e-02 -1.27842957e-02 -1.00732688e-03 1.50423953e-02
    4.38781176e-03 -3.45212803e-03 -2.63908855e-03 1.27014727e-03
    -1.10005550e-02 -1.39875421e-02 -1.53861083e-02 1.40333001e-03
    1.40580451e-02 3.31707601e-03 -1.25458613e-02 -1.16645843e-02
    -5.05294697e-03 -7.88453594e-03 -1.50032854e-02 -9.31815058e-03
    3.90987191e-03 1.25904158e-02 -2.86118267e-03 -7.50897545e-03
    -2.71907263e-03 1.19442772e-03 -1.06817456e-02 -1.07415412e-02
    -4.99971630e-03 1.28169833e-02 1.45993307e-02 -3.87954758e-03
    7.30848173e-03 1.14949150e-02 1.20687773e-02 2.39717003e-04
    -1.29336240e-02 -1.22933835e-02 -5.91991302e-05 5.84100420e-03
    7.12268939e-03 5.90133155e-03 6.51660096e-03 6.91311993e-03
    3.81162536e-04 -6.79384265e-03 -6.32670848e-03 -9.63985734e-03
    -4.20348672e-03 1.98851456e-04 -3.32273962e-03 1.99087383e-03
    3.71077307e-03 -5.43141505e-03 -1.42328469e-02 -1.07919041e-03
    7.70893134e-03 8.94191675e-03 -4.58844285e-03 -3.14802164e-03
    1.86943146e-03 5.24124131e-03 -1.67477189e-03 -1.51112601e-02
    -6.09486410e-03 -8.05284269e-03 -1.07163386e-02 -8.92549008e-03
    6.89556706e-04 9.06519243e-04 6.56753965e-03 7.45724840e-03
    -4.39354498e-03 1.66088948e-03 -3.20468564e-03 -2.72163888e-03
    -2.34599202e-03 -1.91124203e-03 -1.00296037e-03 8.04455113e-03
    1.50285847e-02 1.67252438e-03 9.52021312e-03 8.61425698e-03
    7.19328690e-03 -1.12948217e-03 -1.01298150e-02 -1.99914002e-03
    5.81370713e-03 1.91746128e-03 -1.24910641e-02 -4.37840307e-03
    -7.58148916e-03 -1.07430154e-02 -1.31518329e-02 -2.83671566e-03
    -4.99175629e-03 2.42840988e-03 6.70880917e-03 -4.10498865e-03
    1.31071573e-02 6.61968673e-03 -1.54589629e-03 -5.81458211e-03
    -8.79962649e-03 -7.96195678e-03 -1.99926831e-03 6.61453418e-03
    3.20162182e-03 1.13201598e-02 1.08125126e-02 5.19289356e-03
    -4.35207365e-03 -1.51944989e-02 -9.05698724e-03 -3.72644700e-03
    -2.67475005e-03 -6.57164911e-03 4.74640355e-03 3.93670006e-03
    2.35344213e-03 -1.10032493e-02 -1.03811929e-02 -5.92606282e-03
    -2.79587740e-03 4.89652716e-03 -1.53950896e-04 9.17823426e-03
    1.38369447e-03 -1.01009128e-03 -8.94033723e-03 -1.49091324e-02
    -8.62523564e-04 -3.99613433e-04 2.93638441e-03 -2.70954263e-03
    9.14723333e-03 1.15147308e-02 -1.48514623e-03 -9.37278103e-03
    -1.05176782e-02 -4.53218585e-03 -4.24880395e-03 -1.82670669e-03
    -1.11075556e-02 -4.15806752e-03 7.19812373e-03 5.12108346e-03
    -8.00877530e-03 -6.13043038e-03 -6.25470479e-04 6.03408692e-03
    -2.37234213e-04 -1.03641609e-02 -3.68760829e-03 6.34969678e-03
    8.53236485e-03 -5.25154499e-03 -1.35646891e-02 7.24885555e-04
    2.16013475e-04 4.25084168e-03 -7.94294570e-03 6.48135901e-04
    1.09429881e-02 2.97820382e-03 -5.46176825e-03 -1.73431486e-02
    -6.95044687e-03 1.62202239e-04 4.56496608e-03 -1.18483584e-02
    1.02632667e-03 1.00871818e-02 8.17497075e-03 -7.99028110e-03
    -2.01950804e-03 1.94613787e-03 1.32915564e-02 2.10314547e-03
    2.68671341e-04 4.79885552e-04 8.01084377e-03 1.00417482e-02
    1.50183216e-03 -8.69626005e-04 7.71970954e-04 1.00181233e-02
    2.01438786e-03 -7.09741237e-03 -4.91750799e-03 -2.08520374e-04
    1.01525267e-03 1.45444807e-04 -1.21954950e-02 -1.00646801e-02
    -3.66017083e-03 -3.58381221e-04 -8.35640542e-03 1.99876935e-03
    1.72798671e-02 1.46946926e-02 6.77719770e-04 -8.16901401e-03
    -5.91367902e-03 1.58927566e-03 -5.75509015e-03 -1.52220856e-02
    -6.11823099e-03 7.33106351e-03 1.03792464e-02 -5.04644867e-03
    -2.49122665e-03 -3.99855693e-04 7.85029400e-03 5.46734873e-03
    3.76026495e-03 2.57711895e-06 -3.03387945e-03 -1.85723288e-03
    -4.46547428e-03 -4.26609023e-03 -6.80522295e-03 -3.93658690e-03
    -1.14722119e-03 -1.43856299e-03 -3.59943300e-03 -3.55347898e-03
    -4.35816264e-03 -6.41100341e-03 -6.94579352e-03 -2.80966517e-03
    6.58788346e-03 1.46827509e-03 -9.67570953e-03 -4.32400825e-03
    6.73525559e-04 4.49560676e-03 -2.68438901e-03 -1.37646217e-02
    -9.79214720e-03 -1.77619280e-04 5.87780494e-03 -3.00705549e-03
    1.21125113e-03 2.45494815e-03 3.85182491e-03 -7.90325832e-03
    2.50894274e-03 -2.75586289e-03 -1.03585742e-04 -5.41149930e-04
    8.14052671e-03 2.92297150e-03 2.08454207e-03 2.23638071e-03
    -2.14754575e-04 -3.58457631e-03 -4.06974275e-03 -2.48960918e-03
    -1.61519889e-02 -8.84122495e-03 -9.09844413e-03 -2.74553220e-03
    7.51382177e-05 -4.71563544e-03 -2.38862564e-03 -5.52801276e-03
    4.32741502e-03 9.79570765e-03 7.01997010e-03 1.78679801e-03
    1.11389104e-02 9.77479201e-03 1.04000350e-03 4.67253476e-03
    -3.53342584e-05 2.14565167e-04 -1.60759129e-02 -8.05232022e-03
    -1.08675743e-02 -2.76476122e-03 -2.13448587e-03 2.37379503e-03
    -5.10952156e-03 1.51783042e-03 6.34174980e-03 -4.64999164e-03
    -2.15645225e-04 -4.48882394e-03 3.09521332e-03 -1.11987046e-03
    -1.63952645e-03 -5.34140738e-03 -3.12055019e-03 -3.52961523e-03
    -7.30959326e-03 5.59410499e-03 3.55184474e-03 6.42467989e-03
    -2.32899538e-03 -4.06991737e-03 6.96171261e-03 1.25935776e-02
    6.45085191e-03 -8.78274068e-03 -4.40566614e-03 -6.96588540e-03
    2.70843599e-03 -1.41651742e-03 6.44943723e-03 -3.49776004e-03
    -8.04344134e-04 -5.23374695e-03 -1.27740456e-02 1.21141784e-02
    1.06424708e-02 1.36358198e-02 2.82475795e-03 2.97417981e-03
    3.05101252e-03 3.53145320e-03 2.16649519e-03 -7.68872211e-03
    3.25872726e-03 -4.07187443e-04 4.90925927e-03 -3.16582201e-03
    -5.04428567e-03 4.11492866e-03 9.77407955e-03 1.25065877e-03
    -1.10051874e-02 -2.96206470e-03 -1.04540065e-02 1.59825664e-03
    -2.28661043e-03 -5.53183956e-03 6.31578360e-03 -9.05816094e-04
    -1.82893733e-03 -9.38125607e-03 1.30338287e-02 8.49671010e-03
    8.33286624e-03 -1.12809277e-04 3.53134144e-03 1.09336618e-02
    8.56160652e-03 1.03441975e-03 -1.00834128e-02 2.10304628e-03
    -1.27090383e-02 4.02012421e-03 6.53239619e-03 6.05788548e-03
    -2.97433161e-03 1.16415164e-02 5.31408098e-03 -7.41973193e-03
    2.66124075e-03 -5.38340816e-03 2.54721893e-03 -8.00028618e-04
    -7.16909021e-03 -3.20551544e-03 6.58719055e-03 3.87669913e-03
    -7.41228880e-03 7.31003610e-03 -1.69408787e-03 6.06149342e-03
    4.25439910e-04 -7.69667700e-03 3.98434605e-03 1.12673156e-02
    8.10221303e-03 -9.23501514e-03 -1.31106551e-03 -1.07689863e-02
    7.34302541e-03 8.02919175e-03 3.91168613e-03 1.14711479e-03
    4.50758031e-03 1.08798156e-02 -9.13448259e-03 5.97316911e-03
    -4.24674433e-03 1.45998783e-02 6.85247546e-03 -1.44866062e-03
    -5.33007784e-03 2.15583318e-03 6.33666932e-04 -6.98380684e-03
    -2.72984523e-03 7.22349156e-04 2.27239216e-03 -1.39174087e-03
    -6.01271680e-03 3.13383876e-04 1.18943676e-02 1.95229556e-02
    6.97438372e-03 3.05153825e-03 5.62632876e-03 3.95222381e-03
    8.58437794e-04 -1.07266207e-03 -6.32151123e-03 -3.77777172e-03
    5.91070205e-03 -9.21010692e-03 -3.13396635e-03 -3.95745318e-03
    5.25100064e-03 1.11892167e-03 -2.02996563e-03 5.58363367e-03
    8.92355852e-03 1.64602622e-02 -4.91736573e-04 1.66467554e-03
    2.26281187e-03 8.99124146e-03 2.30580475e-03 1.90434617e-03
    -4.10692859e-03 -1.53074728e-03 -5.32713057e-05 1.55394210e-03
    5.93186775e-03 8.70900694e-03 1.81036291e-03 3.70020489e-03
    1.55204340e-04 4.05109068e-03 1.85799121e-03 3.42961191e-03
    -8.10514612e-04 -2.68414966e-04 5.40829438e-04 -3.24665196e-03
    3.43365595e-03 5.98863652e-03 -8.87648202e-03 -5.40767983e-03
    3.13613651e-04 2.49505206e-03 7.99389149e-04 6.17758976e-03
    7.41762482e-03 3.02614248e-03 -5.12431515e-03 -3.62510281e-03
    4.44951467e-03 1.04195895e-02 -7.77956797e-04 1.12661731e-03
    2.62777717e-03 4.15671431e-03 6.07859157e-03 9.46272921e-04
    7.45978765e-03 4.32485569e-04 4.46448103e-03 1.82287407e-03
    -1.39641794e-04 -5.01619745e-03 -2.38190615e-03 2.62880628e-03
    4.82750498e-03 5.78976294e-04 -6.67035813e-03 -4.81843192e-04
    3.55402310e-03 6.04667759e-04 -1.50823232e-03 8.32534686e-04
    1.28981820e-03 4.89969039e-03 2.85550312e-04 5.30027691e-03
    9.56233125e-03 1.04423882e-04 4.61292475e-05 -4.60156007e-04
    1.46186887e-03 1.98854553e-03 -1.55669753e-03 1.71087612e-03
    -1.55780953e-03 3.58467083e-03 5.17780473e-03 -1.05888036e-03
    -2.03613518e-03 1.73664745e-03 -3.27366311e-03 1.50104985e-04
    4.97644534e-04 1.07325881e-03 -1.17229461e-03 1.15823932e-03
    -4.88671416e-04 4.97013051e-03 4.23763134e-03 2.01736204e-03
    7.35198788e-04 -1.38641975e-04 2.17547501e-03 -6.87124208e-04
    1.33106969e-02 1.21708885e-02 8.60464480e-03 -8.77770595e-04
    -1.04513543e-03 -6.08428242e-03 -2.58111791e-03 -3.41544813e-03
    6.61793398e-04 3.65266576e-03 -4.45513614e-03 -2.44730990e-03
    -1.20757706e-03 -2.00001500e-03 -1.33139954e-03 -4.05481493e-04
    -1.49832282e-03 -3.98531411e-04 8.41703918e-03 4.79882257e-03
    5.09397499e-03 -3.62481875e-03 -7.52016902e-04 -4.26704559e-04
    -8.51329882e-03 -2.44932738e-03 -2.64977524e-03 1.24103073e-02
    8.15318059e-03 8.35466853e-05 -3.18323291e-04 -7.15959468e-04
    -6.34393143e-03 -7.54782045e-03 6.13748853e-04 5.53861540e-03
    1.96646433e-03 -3.15632997e-03 2.25309585e-03 1.12022329e-02
    1.32641243e-02 3.69850104e-03 -6.57102047e-03 -3.46326781e-03
    -5.64806769e-03 1.82963081e-03 -4.62887285e-04 5.17787994e-04
    1.77729304e-03 2.34413031e-03 -3.67517606e-03 -6.26681186e-03
    -2.59562186e-03 -3.10591329e-03 -8.09225999e-03 -7.43744941e-03
    8.90078861e-03 1.40022924e-02 1.62819065e-02 1.06637385e-02
    -2.06354936e-03 3.63166304e-03 3.08047922e-04 -4.83841542e-03
    -6.80633727e-03 -5.01364563e-03 3.93728446e-03 1.41820591e-02
    6.20244164e-03 3.06757819e-03 8.78359936e-03 2.16851872e-03
    -3.44994129e-03 -1.36012202e-02 -4.39302996e-03 -7.08427001e-03
    -2.54751951e-03 2.70987535e-03 -1.64494594e-03 -2.24640220e-03
    -4.66756057e-03 -6.38774969e-03 -3.47208162e-03 2.81309756e-03
    1.50199293e-03 1.43920248e-02 8.76989681e-03 1.49889186e-03
    1.13994326e-03 1.92394049e-03 3.47645764e-05 -7.62712304e-03
    -6.10006182e-03 -1.10508138e-02 -4.75857494e-04 7.51954562e-04
    -2.58209463e-03 1.30937377e-03 2.89601251e-03 -4.82381741e-03
    -1.13348383e-02 -4.12919698e-03 -3.34297249e-04 -7.38367718e-03
    -3.23841278e-03 5.61271515e-03 1.06795654e-02 1.10273371e-02
    1.85702741e-03 -8.35510157e-03 4.09256946e-03 1.46633042e-02
    1.05930632e-03 2.14714487e-03 3.30379722e-03 -1.67134474e-03
    3.58144729e-03 1.55309984e-03 -1.46270534e-02 -1.53702991e-02
    -1.42780114e-02 -1.02816848e-02 -9.90113127e-04 -7.00467848e-04
    7.64755905e-03 9.58880037e-03 -8.29654047e-04 -1.78865679e-02
    -8.52822978e-03 -4.07714676e-03 -8.08009133e-03 -7.40677165e-03
    1.05752470e-03 4.63720923e-03 1.04797371e-02 5.60724735e-03
    -8.38309526e-03 -1.68188394e-03 3.93008720e-03 -3.16814939e-03
    -2.05455581e-03 -7.05811428e-03 -6.30904641e-03 -2.36815400e-03
    -2.28878530e-03 -1.12547893e-02 -6.00103196e-03 5.84343448e-03
    8.94560711e-04 -6.68723881e-03 -4.48135985e-03 2.77595362e-03
    6.23367028e-03 -5.32841113e-05 -1.05968341e-02 -8.93758517e-03
    -6.81802025e-03 -1.16661740e-02 -9.34190024e-03 -9.00824496e-04
    1.10601995e-03 -1.96775165e-03 -3.39656905e-03 -8.68081953e-03
    -9.00486019e-03 -9.60125774e-03 -1.17293801e-02 -5.57417702e-03
    -9.97733511e-03 -5.99639956e-03 -6.35125814e-03 -4.72226366e-03
    -1.14152078e-02 -5.44482656e-03 4.32724506e-03 4.82406421e-03
    -7.24128960e-03 -3.63622280e-03 2.18784576e-03 -1.48189208e-03
    -6.10391935e-03 -7.18304142e-03 1.26572195e-02 1.72537472e-02
    1.51373195e-02 -5.59609663e-03 -8.08728486e-03 3.18876887e-03
    2.92132492e-04 -4.49715927e-03 -1.43986773e-02 -8.63752235e-03
    -9.67278425e-03 -9.27347597e-03 -1.25589324e-02 -5.34536643e-03
    5.32891229e-03 -9.67329019e-04 -1.12676164e-02 -1.20851332e-02
    9.49557871e-03 8.82352702e-04 -7.18617719e-03 -1.25698587e-02
    -4.27187840e-03 2.93737208e-03 -2.89882626e-03 -8.36929120e-03
    -1.10240849e-02 8.71621259e-03 1.00688320e-02 4.13504531e-05
    -8.64474848e-03 -2.55838758e-03 3.15343356e-03 -3.21460335e-04
    -7.27868499e-03 -1.64446309e-02 -3.85149033e-03 -1.00882584e-02
    -1.44051090e-02 -9.90722887e-03 -2.65505211e-03 5.77322906e-03
    -4.17235866e-03 -1.36543317e-02 -8.37044977e-03 5.90205472e-03
    1.22910261e-03 -1.02947187e-02 -7.71290855e-03 1.07829599e-02
    1.44199645e-02 6.31917454e-03 -3.96838645e-03 -2.02804990e-03
    2.56837229e-03 -5.18538756e-03 -8.98563303e-03 -3.14355409e-03
    -5.41656790e-03 -1.79788796e-03 -1.91795954e-03 -5.94984926e-03
    -1.37600284e-02 -8.71390384e-03 -8.17809626e-03 -9.99302883e-03
    -1.06036589e-02 -4.21267375e-03 -4.34153713e-03 -3.24528618e-03
    -6.98169926e-03 -8.22565518e-03 1.09418603e-02 5.91391698e-03
    -3.39328009e-03 -4.80363518e-03 8.12754128e-03 1.45874005e-02
    4.30202391e-03 4.95003210e-03 -1.45190093e-03 3.06563219e-03
    4.99791885e-03 -4.82168281e-03 1.49443280e-03 3.58143845e-03
    1.51711388e-03 -5.67968562e-03 1.77980505e-03 -5.55946724e-03
    5.02016954e-03 5.95380832e-03 -8.19253386e-04 4.15384304e-03
    -2.16101645e-03 1.48772215e-03 -2.98465366e-05 1.14167295e-03
    -7.96426029e-04 1.24959927e-02 7.16483826e-03 3.18201282e-03
    -3.41527793e-03 -1.10381609e-02 -1.69265899e-03 5.98709052e-03
    1.07249478e-02 -3.31857475e-03 5.82538219e-03 1.03780916e-02
    3.80275567e-04 -6.39712671e-03 7.66112003e-04 -2.71091214e-03
    -1.90374546e-03 4.55825403e-03 -4.50973818e-03 7.91828905e-04
    3.62130301e-03 -1.65767415e-04 -1.76396291e-03 -1.43410349e-02
    -1.01892669e-02 -6.97679003e-04 6.50469121e-03 -8.04189779e-03
    -1.09226052e-02 -5.04920306e-03 -2.16053007e-03 -9.18827485e-03
    -1.11409314e-02 1.98526261e-03 8.11227877e-03 7.77889462e-03
    -7.20407302e-03 -6.00410812e-03 1.53309642e-03 7.23989506e-04
    -6.61532348e-03 -6.65848004e-03 -4.73597646e-03 3.72588355e-03
    6.46554213e-03 -1.19364792e-02 -7.07110530e-03 2.61697220e-03
    6.35941688e-04 -3.86176119e-03 -8.13865103e-03 -4.86232527e-03
    7.59583432e-03 1.04158120e-02 -4.17463528e-03 -1.07505871e-02
    -6.17030961e-03 -1.01249292e-03 -3.15202074e-03 -5.47613297e-03
    -1.97605928e-03 -1.03423675e-03 -4.11526009e-04 -7.94860162e-03
    -4.86214273e-03 7.25034624e-03 3.54661234e-03 -7.10656052e-04
    -3.65152396e-03 -1.51950750e-03 2.71525607e-03 5.03743906e-03
    -7.28928111e-03 1.02951250e-03 1.22152492e-02 9.75369569e-03
    3.62229621e-04 -6.06841827e-03 -4.33663918e-05 4.32067347e-04
    -6.90352032e-03 -1.80216711e-02 -3.94504331e-03 5.59048867e-03
    7.09800143e-03 -7.71607598e-03 -3.58187454e-03 1.78618135e-03
    2.56687892e-03 -2.34248536e-03 -3.82342376e-04 -3.91908037e-03
    1.49119152e-02 1.20314099e-02 5.63698588e-03 -9.12939943e-03
    -8.00335221e-03 -8.89168400e-03 -8.67536664e-03 -1.14660161e-02
    -5.30748395e-03 9.95334983e-03 8.70743208e-03 -7.75568094e-03
    -9.99423675e-03 -1.72652784e-04 3.57515085e-03 6.52856717e-04
    -1.31290462e-02 -6.40742539e-04 5.71643794e-03 4.03237715e-03
    -8.11976381e-03 -1.86189394e-02 -8.15008767e-03 6.42229454e-04
    5.48887067e-03 -2.31212354e-03 8.45211744e-03 8.42401292e-03
    -3.20154249e-05 -1.42647270e-02 -8.49104114e-03 -5.00390073e-03
    -6.81173243e-03 -7.92566687e-03 -2.27520755e-03 1.38170868e-02
    1.47309899e-02 5.58966771e-03 -4.18455061e-03 -2.12856177e-02
    -8.44334718e-03 -7.87965115e-03 -5.75510273e-03 -3.81488446e-03
    1.53455241e-02 1.23881809e-02 -1.37913390e-03 -1.52450530e-02
    -9.19832569e-03 -7.72139477e-03 3.03085684e-03 6.99534034e-03
    4.84121591e-03 8.85551982e-03 1.43081732e-02 1.14918472e-02
    -9.31806862e-04 -1.56703452e-03 -5.81249222e-03 -5.17772464e-03
    -1.27217453e-02 -5.45346132e-03 -7.87799992e-03 -8.56231083e-04
    4.17328847e-04 3.62600246e-03 -1.12514524e-02 -3.28335282e-03
    -4.25021118e-03 -9.24058841e-04 3.12997354e-03 1.93711761e-02
    1.68498941e-02 1.08164810e-02 -5.08549809e-03 -7.09713018e-03
    -8.73365905e-03 -1.28095411e-02 -1.56716276e-02 -5.07623935e-03
    -5.77363465e-03 2.89182528e-03 2.96522194e-04 -3.95114161e-03
    4.65765269e-03 5.53748803e-03 2.78138602e-03 -9.44091100e-03
    -4.78237635e-03 -4.54678340e-03 3.06590111e-03 6.24132343e-03
    1.33571802e-02 -4.02484974e-03 -2.04355503e-03 -3.16092931e-03
    -1.24334032e-02 1.01641836e-02 9.20522120e-03 9.47514828e-03
    2.92651355e-03 6.61173975e-03 -3.23803769e-03 -1.56010746e-03
    -6.55421801e-03 -1.23215783e-02 1.30558584e-03 -1.94659748e-03
    4.83867154e-03 7.25590019e-03 6.38068374e-03 -4.94516687e-03
    -1.89957244e-03 -3.50205204e-03 -1.11359889e-02 4.76810848e-03
    4.99560032e-03 6.54738490e-03 1.86569674e-03 1.48526416e-03
    2.22820017e-04 -2.70090997e-03 2.03254764e-04 -7.32115982e-03
    1.23297879e-02 1.04842214e-02 8.69247317e-03 -1.20533956e-03
    1.31965289e-03 2.54223263e-03 2.72199581e-03 3.01196170e-03
    -7.01325340e-03 1.03499135e-03 -5.88290161e-03 4.74801194e-03
    5.76208159e-03 1.75447261e-03 -4.23996104e-03 -1.78873306e-03
    1.93929940e-03 -1.95813668e-03 9.57437232e-03 2.67371186e-03
    8.81056301e-03 8.46900337e-04 -3.26860300e-03 -5.33123594e-03
    1.04290340e-03 4.35140822e-03 -9.51632333e-04 6.62634242e-03
    -7.29359686e-03 1.82147289e-03 8.24218243e-03 -1.60486088e-03
    1.22406124e-03 5.31281112e-03 7.75690237e-03 -8.44557211e-03
    -5.23620611e-03 -8.81268457e-03 6.26162859e-03 8.59861821e-03
    7.21922936e-03 -4.31888038e-04 2.02784664e-03 4.83037066e-03
    -8.09539668e-03 1.65098056e-03 -5.20190271e-03 1.56646781e-02
    1.18944999e-02 8.16054177e-03 -6.60968106e-03 1.26107316e-03
    7.92284904e-04 -4.83235670e-03 1.22607010e-03 -7.85956345e-03
    1.32893538e-03 1.08822212e-02 3.18262307e-03 -1.48804544e-03
    1.32458238e-03 -3.76429805e-03 -4.04575188e-03 3.86565691e-03
    -8.66841618e-03 7.90678523e-03 1.06251976e-02 1.03254458e-02
    -7.96707161e-03 -4.70809639e-03 4.01355035e-04 -5.67759993e-03
    1.92860665e-04 -6.45146333e-03 7.89907947e-03 3.73844337e-03
    2.48861709e-03 1.74982462e-03 3.63412243e-03 1.18118785e-02
    2.84525915e-03 4.27647773e-03 -3.67629994e-03 5.63172111e-03
    -8.13025181e-05 1.22736674e-03 -6.29410148e-03 -3.06820474e-03
    -4.43754438e-03 -2.78730341e-03 -1.22070813e-03 -6.43844297e-03
    5.04529849e-03 5.61899040e-03 4.24744561e-03 4.76323860e-03
    3.23320925e-03 1.07240910e-02 9.53769032e-03 8.09922256e-03
    -1.59894780e-03 -9.13311786e-04 1.94879761e-03 6.79034414e-03
    -8.10903311e-03 -1.42584264e-04 1.71384786e-03 3.25624901e-03
    3.98535188e-03 8.85216054e-03 1.20782601e-02 5.66835748e-04
    -1.15483068e-02 -4.17286158e-03 5.93347847e-03 5.57181844e-03
    -1.80449872e-03 -1.34141755e-03 4.82849823e-03 1.12116672e-02
    5.01119206e-03 -5.35395415e-03 -1.62678503e-03 3.55101307e-03
    4.54565138e-03 7.57312542e-03 6.44169608e-03 7.86231458e-03
    6.72024954e-03 -3.68832471e-03 -8.91803298e-03 4.80342144e-03
    3.17553524e-03 5.20396931e-03 5.39705437e-03 -9.04699555e-04
    8.79270863e-03 8.85021873e-03 5.37499133e-03 -2.16537784e-03
    -3.93378752e-04 5.76459337e-03 4.87950351e-03 -4.70715947e-03
    -1.11770805e-03 2.46595312e-03 7.23759597e-03 4.71069105e-03
    5.13878476e-04 1.65134913e-03 4.03979240e-04 -2.45057489e-03
    -4.79090540e-03 2.85050971e-03 -1.73408305e-03 -9.30059119e-04
    -1.51931390e-03 -9.81818419e-04 7.46232830e-03 3.07777966e-03
    3.93672613e-03 -4.50891396e-03 -5.72809076e-04 5.60772372e-03
    9.48983803e-03 1.11099370e-02 6.89419731e-03 1.38742030e-02
    2.18072487e-03 -8.91303271e-03 -1.44948261e-02 3.00166407e-03
    -1.53097301e-03 -1.18601287e-03 3.68666928e-03 8.11958686e-03
    -1.46968500e-03 -1.21347851e-03 -2.71024555e-03 1.20042393e-03
    3.16783972e-03 -1.05509032e-04 1.76723988e-03 4.75765346e-03
    1.26493396e-03 1.11513748e-03 1.90690614e-03 6.56335207e-04
    3.88303865e-03 7.14601716e-03 5.11039887e-03 5.19294571e-03
    8.64541717e-03 4.64450242e-03 5.24603156e-03 7.73590116e-04
    -1.01943258e-02 -1.08667165e-02 4.58124094e-03 -6.50625734e-04
    1.89603993e-03 5.06854104e-03 7.03272596e-03 -4.42095986e-03
    1.63255399e-03 8.39959597e-04 -8.07387754e-03 -2.68827961e-03
    -2.07867031e-03 8.03364068e-03 1.06497072e-02 3.62786790e-03
    -3.49673355e-04 3.51128285e-03 7.36599730e-04 2.66924896e-03
    -3.67218303e-03 8.17163498e-04 4.45726700e-03 5.44645125e-03
    9.57112294e-04 7.48767634e-04 7.22498912e-03 9.24670137e-04
    -2.01549591e-03 -2.14009848e-03 6.07646536e-03 7.73635227e-03
    1.34831034e-02 1.18016228e-02 -5.05299261e-03 5.00336662e-03
    7.87184294e-03 1.13122724e-03 -7.49552855e-03 -2.48626946e-03
    2.71645235e-03 -1.42711482e-03 -4.40725964e-03 -3.58474860e-03
    7.63805117e-03 7.63690658e-03 6.18254952e-03 3.26958671e-03
    -5.70698129e-03 -5.24677010e-03 -7.44791329e-03 -7.70080416e-03
    6.68417313e-04 -5.53990889e-04 -2.96865776e-03 -3.28451628e-03
    -4.65839585e-05 1.70945865e-03 -2.24490257e-04 1.06266746e-02
    8.13449360e-03 4.30737576e-03 -1.02095818e-03 9.50457063e-04
    -2.21581990e-03 -2.98269978e-03 -6.18489087e-03 -9.29217320e-03
    -9.19957587e-04 2.49683810e-03 -6.12368667e-03 -1.86090625e-03
    -1.45300641e-03 -1.31274282e-03 5.17326128e-03 -8.11441243e-03
    -7.95197394e-03 -6.65617501e-03 -9.07618552e-03 -1.77018275e-03
    2.10345397e-03 9.87320091e-04 -3.14648217e-03 2.18249485e-03
    -1.19350506e-02 -5.81242284e-03 -1.60669617e-03 -2.70247390e-03
    1.02336798e-02 1.79838203e-03 3.99132399e-03 -3.19587009e-04
    -1.28569677e-02 -1.33454641e-02 -1.12973377e-02 -6.68909959e-03
    3.79268569e-03 4.59827064e-03 6.80818735e-03 1.15700057e-02
    2.80096475e-03 -2.77296524e-03 -3.44999810e-03 -5.31650055e-03
    -3.70092527e-03 -3.28620779e-03 -3.32868542e-03 9.49930225e-04
    1.55708636e-04 -6.38644793e-04 -2.83713220e-03 -1.65585764e-02
    -4.88644466e-03 -4.23092861e-03 -3.75051214e-03 -6.97583891e-03
    5.62186539e-03 4.49530361e-03 1.03136746e-03 -3.66984005e-03
    -1.10555785e-02 2.83034169e-04 -4.27419459e-03 -1.13133183e-02
    -4.08299500e-03 3.25733959e-03 5.00881858e-03 -2.95259029e-04
    1.38577726e-03 -5.14147058e-03 -6.45840121e-03 -3.00973863e-03
    -6.67976355e-03 -7.31433928e-03 2.26188637e-03 4.84430324e-03
    -3.82586528e-04 9.44207190e-04 -3.04101361e-03 -2.68682349e-03
    3.09045729e-03 -7.22046057e-03 -1.19762318e-02 -2.33072002e-04
    1.31018413e-03 -8.31948593e-03 -8.32488760e-03 -8.25128704e-03
    1.49928383e-03 4.27703140e-04 -1.38543993e-02 -9.13799554e-03
    -5.18204132e-03 -1.58923899e-03 1.19479129e-03 -3.87926889e-03
    1.50294451e-03 8.72382428e-03 1.14602819e-02 -1.86583924e-03
    -1.52972229e-02 2.68333196e-03 3.71685601e-03 -7.51363160e-03
    -1.47853727e-02 -1.07163144e-02 -2.41158181e-03 2.03903834e-03
    -9.16211307e-03 -1.17831156e-02 3.43906484e-03 4.07076767e-03
    -5.62416250e-03 -6.58984529e-03 2.19392567e-03 -3.22871376e-03
    -5.52803045e-03 -1.28814578e-02 -1.24127390e-02 -4.08382295e-03
    -6.24495465e-03 -5.74182766e-03 -1.67409908e-02 -1.85588666e-03
    6.61943294e-03 7.99245853e-03 -6.25149347e-03 -6.80628652e-03
    1.03296665e-03 3.58428014e-03 -2.84795067e-03 -7.08082458e-03
    -1.27270515e-03 3.43994424e-03 -4.63115424e-03 -8.10681190e-03
    -7.42853479e-03 3.24540003e-03 -1.76463358e-03 -7.85576738e-03
    -7.64322886e-03 6.44870009e-03 -7.18340231e-03 -1.33517236e-02
    -1.17901480e-02 -3.74175352e-03 6.04990218e-03 3.34734540e-03
    -2.01178831e-03 1.63158739e-03 5.24459034e-03 -9.03160311e-03
    -1.25301722e-02 -1.43568348e-02 -8.10809806e-03 -1.65894872e-03
    7.61937335e-05 -3.00026638e-03 -2.59108958e-03 -1.55240227e-03
    -8.47835001e-03 -1.30452625e-02 -1.39931524e-02 -1.12615535e-02
    -3.07349558e-03 -2.68372451e-03 -3.46965156e-03 -2.20643170e-03
    3.79974372e-03 -1.47160441e-02 -1.70308445e-02 -2.12350320e-02
    3.75905144e-03 7.88764469e-03 6.81503559e-04 1.35302648e-03
    3.60569172e-03 6.74551469e-04 -1.65392383e-04 -8.97191186e-03
    -6.78552454e-03 3.83146945e-03 5.59904205e-04 -8.80552176e-03
    -4.86811250e-03 -3.87820718e-03 8.34864937e-03 2.41408055e-03
    -4.35279449e-03 -1.52332662e-03 -6.55673072e-03 -1.46400521e-03
    -5.28734224e-03 -5.35078114e-03 -1.60596962e-03 -3.67777492e-03
    -6.83843670e-03 -1.13192452e-02 -1.54038733e-02 -5.53005747e-03
    -4.18215571e-03 -2.17915494e-02 -1.83876790e-02 -1.24953091e-02
    2.41954229e-03 -4.98571480e-03 -8.29777122e-03 -1.34943994e-02
    3.56535730e-03 -3.39882402e-03 -4.20401245e-03 -1.01720984e-03
    -1.44694943e-03 9.34129395e-03 4.90066316e-03 3.42650875e-03
    4.17721411e-03 -1.24447849e-02 -8.16523377e-03 -2.91293301e-03
    5.85319661e-03 -5.29060978e-03 -1.07202996e-02 -5.72410971e-03
    2.07959441e-03 -4.53003496e-03 -4.03285073e-03 -3.14712012e-03
    -1.63637120e-02 -5.57249133e-03 -8.08297191e-03 7.03032175e-03
    -7.18249183e-04 -5.16149309e-03 -4.81817126e-03 -1.31239751e-02
    -1.21141998e-02 -9.96352453e-03 3.82321159e-04 -7.79134035e-03
    -1.43139800e-02 -8.34495761e-03 -8.57773193e-05 -9.55740456e-03
    -1.09882345e-02 -6.60345191e-03 2.66471272e-03 8.20756052e-03
    -9.34818003e-04 -5.95687004e-03 -1.19594054e-03 5.14924992e-03
    -2.84107542e-03 -7.83886481e-03 -4.45566373e-03 -7.01867789e-03
    -4.95539000e-03 -1.64824957e-03 7.62543874e-04 1.12522803e-02
    9.53722280e-03 -1.54621247e-03 -1.60730537e-02 -1.02158422e-02
    -4.58127772e-03 2.90230731e-03 -4.40570572e-03 -7.68876774e-03
    -5.00874082e-03 3.67333903e-03 -6.84878556e-03 -1.29889213e-02
    -7.58242002e-03 -8.54799710e-03 -9.57710389e-03 -7.76599348e-03
    -1.31210312e-03 2.96402373e-03 6.03560172e-03 -2.99580535e-03
    -3.66571615e-03 3.74790677e-03 -4.59920557e-04 -2.87342770e-03
    2.62795738e-03 2.05535442e-04 1.09591698e-02 9.32450593e-03
    1.80400803e-03 -8.33968446e-03 -6.02525147e-03 -5.02100587e-03
    -1.76548632e-03 1.38683442e-03 5.57161518e-04 4.12070891e-03
    5.95065625e-03 -4.05459665e-03 -9.12233256e-03 2.21502094e-04
    -5.71783981e-04 -5.78360679e-03 5.51712094e-03 4.22280747e-03
    1.12069519e-02 7.01900758e-03 -5.45310136e-03 -1.51687684e-02
    -5.31120133e-03 4.70586761e-04 1.80237088e-03 5.66537119e-03
    -2.18083477e-03 7.92399806e-04 8.45502247e-04 -1.13803307e-02
    -9.27606039e-03 -4.29593725e-03 -1.23670732e-03 8.26398097e-03
    1.07206842e-02 1.38508910e-02 5.83489984e-03 -9.75706440e-04
    -8.62249080e-03 -1.42097306e-02 -6.70253718e-03 -6.09677518e-03
    1.44984433e-03 3.88714718e-03 1.15592247e-02 5.11409342e-03
    -6.39326870e-03 -1.18689518e-02 -1.53510934e-02 8.58484244e-04
    6.94685429e-03 1.03763966e-02 5.54125383e-03 -3.61286430e-03
    -3.47525184e-03 -4.44448739e-03 -1.21763907e-02 -1.17667997e-02
    -2.11351155e-03 -2.62221228e-03 2.96957348e-03 3.11346678e-03
    -1.19173958e-03 -7.51178479e-04 -1.23615246e-02 -1.45874396e-02
    -6.64236816e-03 1.96937448e-03 -4.91288316e-04 6.19026646e-03
    5.84837887e-03 1.32943764e-02 9.45092272e-03 1.45306857e-03
    -5.93722751e-03 -1.02951396e-02 -9.26639885e-03 -1.13504147e-02
    -1.43294176e-02 -3.93484673e-03 9.45401436e-04 6.27000770e-03
    2.88745086e-03 -7.17362296e-03 -8.30799807e-03 3.65947599e-05
    -6.05626905e-04 5.08016627e-03 1.44805266e-02 1.01186829e-02
    5.68264490e-03 -7.72405369e-03 -9.81782842e-03 -1.38949305e-02
    -1.05811702e-02 -8.85924697e-03 -2.30842619e-03 4.99912212e-03
    6.09378377e-03 2.17588432e-03 -1.57370802e-03 -1.15607874e-02
    -6.91152364e-03 -8.79670726e-04 -4.01552068e-03 -7.28012854e-03
    8.66632070e-03 5.12926700e-03 1.06060309e-02 8.95564817e-03
    -2.78394949e-03 -6.06025616e-03 -2.93232915e-05 3.44239234e-04
    -5.45141156e-05 7.41398660e-03 1.58711651e-03 1.02794049e-02
    4.73843841e-03 -5.71011100e-03 -6.81627169e-03 -1.22383193e-04
    -5.54458122e-04 3.20216315e-03 1.76559240e-02 1.06958821e-02
    8.11979640e-03 6.33390853e-03 -7.86343031e-03 -1.25273783e-03
    2.83766887e-04 3.38028558e-03 -1.19802915e-03 8.89454503e-03
    2.02506140e-04 1.20663559e-02 5.23777679e-03 -6.01938320e-03
    -1.51091616e-03 3.19204549e-03 2.64292862e-03 5.36252977e-03
    6.36723079e-03 -2.72751111e-03 1.06221875e-02 4.44477797e-03
    -1.07680529e-03 -2.93049659e-03 4.83785756e-03 9.97480587e-04
    3.63687822e-03 8.96120816e-03 -6.08597184e-03 4.96336166e-03
    3.02246143e-03 -3.57522606e-03 -6.15243276e-04 1.42547733e-03
    3.66910896e-03 6.56040036e-04 1.74153049e-03 1.09043159e-03
    1.17538664e-02 4.11124760e-03 -8.56935745e-04 -2.25654920e-03
    1.06781593e-03 -7.08226522e-04 -4.14990960e-03 1.15932915e-02
    1.30169280e-03 1.05835749e-02 3.96337220e-03 5.97290695e-04
    -9.33894888e-03 -1.32350528e-04 -1.67901686e-03 1.21258572e-03
    9.54125635e-03 -9.17769130e-03 -1.73949450e-03 -1.30836223e-03
    -7.57418340e-03 -4.06337669e-03 -2.55381339e-04 -3.85230477e-03
    3.11097130e-03 8.49718228e-03 -5.76026645e-03 6.12919312e-03
    4.33312170e-03 1.67279632e-03 -1.71697221e-03 2.60091294e-03
    -2.25861487e-03 -3.08206421e-03 1.13631878e-02 -9.44803376e-03
    6.32875832e-03 8.48723750e-04 -2.33642082e-03 -4.09535191e-04
    9.38141719e-03 9.26327799e-03 3.64555325e-03 1.15063377e-02
    2.20961543e-03 1.45396246e-02 6.52418751e-03 9.74688446e-04
    -3.78757436e-03 -1.25150057e-03 -2.54697143e-03 -1.03752210e-03
    -3.79117817e-04 -2.21986370e-03 4.38414374e-03 4.75321943e-03
    -3.55426222e-04 3.59861692e-03 2.52504647e-03 6.24540495e-03
    5.76139719e-04 7.14135123e-03 -4.69912263e-03 -1.72493036e-03
    3.29944002e-03 1.28188205e-03 -4.06845985e-03 3.73866525e-03
    7.41324155e-03 -4.25385218e-03 8.45805462e-03 2.55977293e-03
    1.35431448e-02 8.69932305e-03 -7.60198091e-05 -3.59933544e-03
    5.53881750e-03 6.21801428e-03 -3.72474687e-03 7.69447349e-03
    -3.54793272e-03 1.13362679e-02 1.05883703e-02 -1.89946778e-03
    -2.08925130e-03 1.50166056e-03 2.49510072e-03 7.11244717e-03
    3.97393946e-03 8.49821977e-03 5.03645977e-04 -3.44807981e-03
    -4.72388091e-03 3.87843768e-03 2.91021913e-03 4.71593952e-03
    7.58109428e-03 1.97555264e-03 1.01182479e-02 3.08357202e-03
    4.39914729e-04 1.65688165e-03 -1.70238153e-03 1.48576801e-03
    5.44542260e-03 7.41001032e-03 6.52376050e-03 6.09570835e-03
    2.53783865e-03 -6.59129070e-03 -6.96193613e-03 5.29893348e-03
    4.88008000e-03 1.04906280e-02 1.14534739e-02 1.10380379e-02
    4.80414508e-03 1.79686584e-03 -5.10343816e-03 -4.52259043e-03
    5.35254460e-03 1.98072218e-03 7.50816753e-03 -2.14493775e-04
    -4.80183586e-03 5.06957201e-03 5.79315051e-03 5.99682704e-03
    4.71528945e-03 7.93357380e-03 1.61915319e-03 -3.19411559e-03
    -8.90620146e-03 -4.72513819e-03 -2.59678159e-03 -5.39878092e-04
    4.13709646e-03 3.29182250e-03 4.23707534e-03 6.22345926e-03
    2.02684775e-02 9.63500608e-03 2.90897978e-03 6.45595137e-04
    -6.81886973e-04 -2.00684345e-03 -2.06198054e-03 -5.68019750e-04
    6.27415488e-04 1.31727494e-02 1.59225811e-03 -3.56675452e-03
    4.64932906e-04 -1.67818123e-03 5.56120370e-03 -2.55493633e-03
    8.59499071e-03 6.03934983e-03 -4.27781139e-03 -7.28750555e-03
    4.26243851e-03 1.37003511e-03 3.01489257e-03 4.99480078e-03
    7.55293621e-03 7.99553934e-04 3.68842343e-03 2.26533972e-03
    -8.76810588e-03 -5.15013793e-03 -1.36394764e-03 6.84725307e-03
    5.21633215e-03 4.34057647e-03 -1.56063965e-04 9.92316171e-04
    3.28752492e-03 -3.34721687e-03 6.56275591e-03 7.72892823e-03
    8.52006022e-03 9.05775372e-03 4.62301774e-04 -2.56013614e-03
    1.29825447e-03 2.41667428e-03 -3.95008456e-03 -9.65305138e-04
    1.39105250e-03 1.00790150e-02 3.97195079e-04 -5.32381516e-03
    -2.60822871e-03 4.23499104e-03 1.18801231e-02 1.02541398e-03
    -3.43758566e-03 -7.56726193e-04 3.09244217e-03 8.50777316e-04
    -2.16927798e-03 -3.60787474e-03 4.35510697e-03 1.50257731e-02
    6.34529209e-03 4.94244602e-03 -7.16015603e-03 -3.67001444e-03
    -5.28103160e-03 -4.34697373e-03 1.09011226e-03 3.51995579e-03
    8.44246522e-03 -2.43341245e-04 3.36474297e-03 9.59369499e-05
    4.13354114e-03 -4.41622781e-03 -3.56044038e-03 5.54778241e-03
    6.18975097e-03 1.70077588e-02 4.50423034e-03 6.08450221e-03
    -5.17273135e-03 -3.43893562e-03 -4.48909914e-03 2.30973982e-03
    -3.70475324e-03 3.31953098e-03 6.48243399e-03 1.38169411e-03
    7.57419877e-03 -8.62707756e-03 -3.92542081e-03 -4.92629735e-03
    -7.26435101e-03 -3.12378252e-04 7.10488530e-03 5.22865495e-03
    -7.24710524e-04 1.56543944e-02 -9.15959291e-03 1.50610285e-03
    2.22140341e-03 -8.74193327e-04 -1.02023932e-03 3.53394938e-03
    4.55080159e-03 5.69827447e-04 2.68096477e-03 -5.80999954e-03
    -7.71382917e-03 -3.78966006e-03 -2.64589209e-03 2.95437477e-03
    3.12575977e-03 1.86894462e-03 6.95765193e-04 1.63502730e-02
    -1.26074802e-03 -9.11746291e-04 -2.59812525e-03 -1.67472044e-03
    -4.14299732e-03 7.12948618e-03 6.36964291e-03 -3.00302450e-03
    4.72290209e-03 -9.39795654e-03 3.54105141e-03 1.08772691e-03
    -1.77400245e-03 -8.68014712e-03 7.16828229e-03 7.80181261e-03
    3.38012958e-03 -4.35245037e-03 -8.82957317e-03 8.41401797e-03
    5.19933784e-03 -5.21860691e-03 2.25227303e-03 7.28320330e-03
    9.10086464e-03 -2.20459909e-03 1.13779763e-02 -2.69697793e-03
    4.96505876e-04 -4.10431344e-03 -6.46672503e-04 -5.46743628e-04
    -3.20816878e-03 2.35992193e-04 -5.14364289e-03 -3.22621269e-03
    -1.19913863e-02 2.51528248e-03 2.74278224e-03 8.14592279e-03
    -7.76764331e-03 1.53932575e-04 3.21460795e-03 -4.30653198e-03
    -9.39167384e-03 -5.45681268e-03 7.13649020e-03 5.81325078e-03
    -7.94985890e-03 -6.78836368e-04 -1.58648391e-03 2.97436118e-03
    -6.79070887e-04 -2.30234046e-03 6.08091848e-03 1.78861991e-02
    1.66717824e-02 4.35031671e-03 4.30899163e-05 -5.12339082e-03
    -4.96682292e-03 -8.08177702e-03 -1.36772059e-02 -1.28416326e-02
    -4.73290076e-03 -4.01772268e-04 -3.47129040e-04 1.16975354e-02
    -1.81574631e-03 -3.23726167e-03 -1.22790448e-02 -7.24883238e-03
    -9.27410647e-03 1.44584349e-03 4.99142101e-03 7.71978963e-03
    -4.28037811e-03 -6.55465620e-03 -7.41608813e-03 -6.12551812e-03
    -1.13654779e-02 -1.54236006e-03 7.62768975e-03 7.50033092e-03
    -1.93285872e-03 3.89563007e-04 2.00535142e-04 1.77939844e-04
    -1.35323300e-03 -1.06468063e-03 7.16732582e-03 1.07205762e-02
    2.62916647e-03 -4.95663099e-03 -1.33803824e-03 -4.49644541e-03
    -3.21048219e-03 -8.79428815e-03 -1.49244387e-02 -1.05824610e-02
    -1.11528509e-03 -3.67418397e-03 -6.10083202e-03 1.77331897e-03
    5.43429815e-06 -4.26810281e-03 -1.18732573e-02 -8.83278064e-03
    -1.22050405e-03 3.67451529e-03 1.58865738e-03 -1.06809838e-02
    3.01453914e-03 5.85443759e-03 3.10374377e-03 -5.08675864e-03
    -1.57369592e-03 2.56302208e-03 7.26678583e-04 -8.11371952e-03
    -6.90611871e-03 -3.83700943e-03 -4.72814463e-05 7.17074377e-04
    -7.42767425e-03 -1.66487298e-03 3.97936208e-03 -8.05528648e-03
    -1.28992572e-02 -1.16299251e-02 -4.37811948e-04 1.99274812e-03
    -5.97206876e-03 -1.36579527e-02 -1.09440656e-02 -5.79035282e-03
    -5.76016353e-03 -6.36264728e-03 -7.03352364e-03 -6.07291469e-03
    3.61288385e-03 -5.24851773e-03 -1.01043573e-02 -1.30311335e-02
    -1.11386273e-03 -7.73013278e-04 -9.61361732e-03 -1.28260255e-02
    -1.00718031e-03 3.42442770e-03 -1.56121457e-03 -4.04919824e-03
    3.24271643e-03 -1.09583046e-03 -4.06236108e-03 -6.89612515e-03
    -1.08128823e-02 2.58788728e-04 -2.40717258e-04 -1.45638417e-02
    -1.19598908e-02 -5.35650877e-03 5.00872033e-03 1.96417863e-03
    -5.94434422e-03 -8.34400393e-03 1.86222547e-03 5.71170729e-03
    -2.82330299e-03 -1.09922690e-02 -3.07530374e-03 2.45911442e-03
    7.26688281e-03 2.83644942e-04 -7.85722025e-03 -3.43080377e-03
    -2.28512147e-03 -7.17707630e-03 -5.11755655e-03 -1.49424863e-03
    4.19402961e-03 4.15356318e-03 -2.84879282e-03 -8.17461032e-03
    8.69693526e-04 -2.76034605e-03 -1.08123068e-02 3.63907963e-03
    -1.58627890e-03 1.92439649e-03 1.35427772e-03 -3.87617247e-03
    -5.46475116e-04 -8.48469511e-03 -1.30816111e-02 -1.29868388e-02
    4.23682388e-03 -5.59807895e-03 -1.05655147e-02 3.46062728e-03
    3.52422101e-03 -2.28387956e-03 -3.53082176e-03 -7.13513652e-03
    -2.68517411e-03 6.49088109e-03 2.98260478e-03 3.98577238e-03
    -2.53416074e-04 -7.16794841e-03 -5.79772005e-03 -8.62921961e-03
    -1.04014827e-02 -6.54401490e-03 3.39313271e-03 -3.02878814e-03
    -1.96351809e-03 -1.36793696e-03 -6.28716964e-03 -8.54600593e-03
    -1.26645099e-02 -6.86196238e-03 -4.61099856e-03 4.97008488e-03
    2.97560939e-03 -4.51567210e-03 -3.42081720e-03 3.93925933e-03
    -3.87720438e-03 -1.02870297e-02 -2.72238581e-03 -3.30433808e-03
    -6.32251799e-03 -8.74536461e-04 4.12990805e-03 5.02597122e-03
    6.52908906e-03 5.88780502e-04 -6.35424163e-03 -1.90676015e-03
    1.24148023e-03 5.26240095e-03 8.76600796e-04 -3.51500581e-03
    -4.76776762e-03 -8.08817614e-03 -4.48849099e-03 -4.88472776e-03
    2.77494709e-03 4.20332281e-03 -6.28845161e-03 -8.00255686e-03
    -3.14707751e-03 -2.29563774e-03 -1.24284474e-03 -1.15521427e-03
    -9.02821124e-03 5.77647611e-03 3.93333146e-03 -1.17330195e-03
    8.03556875e-04 1.11166574e-03 1.02126980e-02 1.00511033e-02
    -3.86909139e-03 -5.90159325e-03 4.52472828e-03 3.26846284e-03
    -4.04914375e-03 -1.17821721e-02 -9.42104962e-03 2.22960836e-03
    5.12981042e-03 4.93971573e-04 -4.17995546e-03 1.22707235e-02
    1.12083731e-02 2.00421549e-03 -5.88401500e-03 -3.15441214e-03
    -1.86881062e-03 1.17007212e-03 1.18225033e-03 -5.89160656e-04
    9.74462368e-03 -2.43688095e-03 -1.07165296e-02 -1.87873170e-02
    -1.72958728e-02 -1.10891424e-02 -1.62200746e-03 -4.86778299e-04
    -2.59028119e-03 1.63852442e-02 9.39117745e-03 6.92215189e-03
    -8.86795018e-03 -1.02201095e-02 -6.61277445e-04 1.50798319e-03
    1.32522639e-03 -1.01625978e-03 8.78050923e-03 4.88211075e-03
    1.98379671e-03 -5.74499834e-03 -1.06820920e-02 -5.60865086e-03
    -1.05116749e-02 -7.37953512e-03 9.69409291e-03 1.74125191e-02
    2.39135721e-03 -6.56030606e-03 -2.17774473e-02 -1.51719153e-02
    -9.55647696e-03 -1.88793172e-04 6.22462388e-03 5.36801433e-03
    7.00993836e-03 -1.26947707e-03 -5.91729302e-03 -1.65681187e-02
    -1.10855894e-02 -9.20872297e-03 -4.14597942e-03 -2.16846191e-03
    2.92908680e-03 1.31091997e-02 1.04342056e-02 8.07532016e-03
    9.10465512e-03 9.59438621e-04 -6.00049971e-04 -6.55973935e-03
    -4.27890383e-03 -6.43766718e-03 -7.91191240e-04 3.76109942e-03
    2.98237498e-03 7.55472016e-03 -1.31082616e-03 -3.79622867e-03
    -7.27451500e-03 -1.01686809e-02 -2.13372149e-03 5.99027565e-03
    5.28686028e-03 3.68459895e-03 1.04714243e-03 -3.61593463e-03
    -3.66291986e-03 -5.51752746e-03 -4.04747482e-03 -1.18731763e-02
    -5.23000071e-03 4.46711812e-04 -2.48943223e-03 4.96877450e-03
    -1.36492439e-02 -6.97809458e-03 -1.36002842e-02 -1.31042255e-02
    4.70809056e-04 3.20006348e-03 5.76476520e-03 9.38941352e-03
    1.72323938e-02 5.06626349e-03 5.78285521e-03 2.68811360e-03
