<?xml version="1.0"?>
<opencv_storage>
<HOG type_id="opencv-object-detector-hog">
  <winSize>
    64 128</winSize>
  <blockSize>
    16 16</blockSize>
  <blockStride>
    8 8</blockStride>
  <cellSize>
    8 8</cellSize>
  <nbins>9</nbins>
  <derivAperture>1</derivAperture>
  <winSigma>4.</winSigma>
  <histogramNormType>0</histogramNormType>
  <L2HysThreshold>2.0000000000000001e-01</L2HysThreshold>
  <gammaCorrection>1</gammaCorrection>
  <nlevels>64</nlevels>
  <signedGradient>0</signedGradient>
  <SVMDetector>
    3.32784606e-03 5.79237239e-03 6.72976067e-03 -3.74310097e-04
    1.30718504e-03 -1.17387611e-03 1.87297829e-03 2.79628299e-03
    4.47161775e-03 -9.90942935e-04 7.03856535e-03 9.06891003e-03
    3.48348659e-03 -5.08396327e-03 -1.07209114e-02 -2.87401373e-03
    -3.25237797e-03 -1.16044725e-03 1.17278863e-02 1.14483116e-02
    5.59548289e-03 5.15939726e-04 6.02016598e-03 8.38811416e-03
    7.89209642e-03 1.12927333e-02 1.16311098e-02 2.64069485e-03
    6.58934889e-03 7.69965351e-03 5.76915266e-03 8.43667425e-03
    -4.29310370e-03 -1.77000021e-03 -5.66633709e-04 3.18515184e-03
    -1.63699943e-03 7.87578244e-03 7.82601070e-03 5.73040731e-03
    -3.49219493e-03 -5.85157704e-03 -3.73253645e-03 -7.97873829e-03
    -4.74964501e-03 3.52361938e-03 9.36464686e-03 7.07593421e-03
    4.13298002e-03 3.41340783e-03 -7.53469067e-04 -4.19586711e-03
    -4.11227299e-03 -1.47585617e-03 -9.48800938e-04 4.10585105e-03
    8.42861086e-03 6.70593325e-03 2.43505626e-03 -5.46487654e-03
    -7.18103442e-03 -6.54224120e-03 -1.03031995e-03 5.25922514e-04
    5.73384110e-03 4.67269029e-03 5.93722472e-03 1.25634940e-02
    4.20647813e-03 -5.31631010e-03 -1.03558821e-03 3.41408374e-03
    -6.88649190e-04 -2.37652464e-04 2.21222895e-03 1.31222163e-03
    3.39267310e-03 -1.62402308e-03 -7.93752261e-03 -5.02427528e-03
    -4.66809468e-03 9.75428848e-04 3.61442636e-03 2.97824689e-03
    1.32289354e-03 -2.06598942e-03 -3.58884048e-04 -5.37214917e-04
    -1.71637128e-03 -3.45015246e-03 -5.07673947e-03 3.67159635e-04
    -4.91682615e-04 4.70907195e-03 1.30416462e-02 1.10020954e-03
    -5.47032757e-03 4.42583929e-04 -4.21798136e-03 1.57633808e-03
    1.07943369e-02 1.43619990e-02 6.46177540e-03 6.85745711e-03
    -3.13953869e-03 -1.16030243e-03 -1.95935245e-05 -6.45919982e-03
    -1.95630873e-05 8.19136109e-03 6.08164724e-03 -1.66822795e-03
    -5.80886612e-03 -1.77776790e-03 -1.94709783e-03 -7.82252476e-03
    -5.54036116e-03 3.10837221e-03 1.06125707e-02 1.17149903e-02
    6.37151813e-03 -5.37370448e-04 -5.23382612e-03 -4.82308771e-03
    -8.35570972e-03 -1.58111530e-03 -5.39427449e-04 7.62876589e-03
    1.00658489e-02 2.78306630e-04 -7.91463011e-04 -3.64259677e-03
    -3.37453140e-03 -7.34158745e-03 -8.90837796e-03 1.08470069e-03
    8.35874025e-03 1.22496216e-02 9.90063697e-03 6.25949120e-03
    4.35031136e-04 -5.34804538e-03 -1.03804618e-02 -5.12027182e-03
    2.17358582e-03 3.70828202e-03 5.18179080e-03 3.52712232e-03
    -5.00209257e-03 -5.41346986e-03 -1.19969039e-03 -4.34746081e-03
    -9.04190762e-04 4.14586905e-03 8.44137557e-03 5.55394916e-03
    -3.47931706e-03 -1.54596465e-02 -1.22907162e-02 -6.52856473e-03
    -4.00616881e-03 -1.30612263e-03 -2.26008822e-03 8.48660711e-03
    9.55444947e-03 6.71594217e-03 8.57717067e-04 -4.90527041e-03
    -4.28503426e-03 -4.97988006e-03 -6.35512499e-03 4.33203531e-03
    2.67060176e-02 2.56640669e-02 1.40683735e-02 -8.27848539e-03
    -1.46004958e-02 -8.53532087e-03 -5.57585619e-03 -8.29456374e-03
    -5.65037830e-04 3.74997035e-03 1.63549860e-03 -5.01583377e-03
    -1.38557702e-02 -1.67972390e-02 -9.17664450e-03 -3.65594798e-03
    -5.82149532e-03 4.20485623e-03 1.31407874e-02 5.19850012e-03
    -9.02041979e-03 -1.83042437e-02 -1.79133210e-02 -8.02949537e-03
    9.16955993e-04 -4.71811334e-04 -1.74852903e-03 1.86529551e-02
    2.33663339e-02 6.08445378e-03 -9.33706388e-03 -1.53142763e-02
    -7.02289632e-03 -6.18154835e-03 -1.01635298e-02 1.51652163e-02
    1.91433150e-02 1.97632965e-02 4.36763093e-03 -1.04746912e-02
    -1.42044192e-02 -3.57559463e-03 1.07108290e-05 2.76507344e-03
    5.02864551e-03 1.24881873e-02 2.55365949e-03 -1.02720875e-02
    -1.89480130e-02 -1.47081008e-02 -9.02454369e-03 -3.96198407e-03
    1.60522712e-03 1.06900623e-02 8.17804411e-03 7.05703103e-04
    -9.75176599e-03 -1.79459061e-02 -1.55249098e-02 -1.14056151e-02
    -3.64977401e-03 6.70190668e-03 1.27190650e-02 1.56610347e-02
    1.19786505e-02 -3.99923156e-04 -1.28923580e-02 -1.31350774e-02
    -5.67080732e-03 -5.77628426e-03 3.06584942e-03 1.00445040e-02
    1.65703762e-02 1.27583630e-02 1.89947861e-03 -5.41260885e-03
    -8.96390527e-03 -7.14788539e-03 -7.09443819e-03 1.35802035e-03
    1.37759754e-02 8.58714432e-03 -1.27388292e-03 -1.01965731e-02
    -1.64809320e-02 -1.27003724e-02 -1.10145016e-02 3.04902415e-03
    1.08418912e-02 9.54707805e-03 6.21083612e-03 -1.06843691e-02
    -1.82778146e-02 -2.21866705e-02 -1.93073917e-02 -1.12652378e-02
    1.36459339e-02 1.33245625e-02 8.35173018e-03 1.09592974e-02
    9.75944940e-03 -3.44888977e-04 -4.36091749e-03 -5.23730181e-03
    -5.25945984e-03 -1.55322181e-04 8.58311891e-04 4.27580299e-03
    3.70852952e-03 1.74479221e-03 -5.94633026e-03 -8.56611133e-03
    -1.09045934e-02 -2.97206896e-03 1.04744304e-02 6.15441520e-03
    4.42344230e-03 -1.84223917e-03 -1.19183334e-02 -1.58514827e-02
    -1.87179502e-02 -1.48343565e-02 -2.24861572e-03 1.73653997e-02
    1.25193326e-02 -1.46844867e-03 -1.11378543e-02 -1.58298574e-02
    -1.97055694e-02 -1.88942552e-02 -1.08761461e-02 5.53250546e-03
    1.64096840e-02 1.26523720e-02 2.97685969e-03 2.04811688e-04
    -3.05288541e-03 -5.11809718e-03 -7.21556414e-03 -7.67563982e-03
    5.50615089e-03 1.65170021e-02 1.21420007e-02 1.09688239e-03
    -7.31778750e-03 -7.75124691e-03 -1.30542321e-02 -9.94685385e-03
    -4.51739645e-03 1.34394625e-02 2.43816730e-02 2.00749394e-02
    -4.97473218e-03 -9.48941801e-03 -1.29525047e-02 -1.61093939e-02
    -1.72897037e-02 -9.48840752e-03 9.02718212e-03 1.51300589e-02
    7.62561616e-03 -9.34957061e-03 -9.03851632e-03 -9.96835064e-03
    -1.32888258e-02 -1.49524389e-02 -1.12233730e-02 -2.09634285e-03
    1.74366927e-04 -1.00322743e-03 3.84466513e-03 -6.16368046e-03
    -6.92865672e-03 -1.32798087e-02 -7.23864883e-03 4.36889660e-03
    2.19458956e-02 3.05937100e-02 2.27435045e-02 -3.45641980e-03
    -8.03452078e-03 -1.12215551e-02 -1.41661968e-02 -7.83141516e-03
    8.22434202e-03 1.45497918e-02 1.36715444e-02 9.54182539e-03
    4.63800854e-04 -2.39568949e-03 -1.81952561e-03 -5.11729764e-03
    -3.48526705e-03 -4.65825247e-03 -8.76115737e-05 1.39384333e-03
    8.36875383e-03 -2.66625255e-04 -3.22295702e-03 -3.01219826e-03
    -5.96284820e-03 -3.35434894e-03 -5.86596970e-03 -5.33030089e-03
    4.75189852e-04 6.73619658e-03 -1.89890107e-03 -2.79669324e-03
    -4.74901963e-03 -5.87218674e-03 6.61137002e-03 1.76426768e-02
    1.97663736e-02 1.34555083e-02 1.30245918e-02 -6.50162529e-03
    -2.55726720e-03 9.42746919e-05 -4.94219363e-03 -2.25447817e-03
    -2.56226072e-03 6.42427243e-03 7.54184322e-03 5.63775096e-03
    -8.43699847e-04 -2.14406429e-03 -3.70855839e-03 -4.82354499e-03
    1.31477008e-03 3.13209184e-03 3.71532561e-03 2.66028568e-03
    1.67462672e-03 -2.24592630e-03 -3.10449000e-03 -4.75340895e-03
    -7.91840907e-03 -5.07052930e-04 1.04094092e-02 1.11043528e-02
    6.92690443e-03 -1.10714696e-03 -2.53195269e-03 -9.23883519e-04
    5.18580060e-03 -3.54110333e-03 -2.55863601e-03 4.66090720e-03
    1.36745824e-02 9.77300480e-03 2.50161975e-03 2.61613692e-04
    9.99363605e-04 2.33431556e-03 3.47395893e-03 6.48816628e-03
    1.35133872e-02 1.39768487e-02 5.24204317e-03 -1.77437987e-03
    1.28237007e-03 -1.13218685e-03 -1.16298744e-03 -9.06668883e-03
    -2.85856891e-03 3.26523883e-03 6.54821377e-03 8.47112015e-03
    1.02666160e-03 4.92513319e-03 4.15756740e-03 6.41800882e-03
    -4.45812382e-03 -2.73329322e-03 -4.71057836e-03 2.76191998e-03
    4.86926408e-03 3.14581441e-03 4.74801566e-03 7.41019985e-03
    1.50006404e-03 2.70755356e-03 3.21829066e-05 7.44790956e-03
    7.25447480e-03 2.63294252e-03 -3.84877832e-03 3.59790446e-03
    1.15511492e-02 1.02508552e-02 -1.75931782e-03 -7.66020222e-03
    -3.51104396e-03 -6.26754889e-04 3.13271955e-03 4.46611637e-04
    3.45499651e-03 2.18286971e-03 4.39336989e-03 -3.97978770e-03
    1.13075960e-03 -6.73207268e-03 7.94149470e-04 4.35884669e-03
    6.95694122e-04 4.85865586e-03 1.65500562e-03 5.12448512e-03
    -4.34276322e-03 7.00402353e-03 -2.22504023e-03 2.64520058e-03
    5.67582529e-03 3.22110322e-03 1.10130955e-03 4.79699904e-03
    4.42862650e-03 -5.02243359e-03 -5.17690461e-03 -6.52157003e-03
    -9.67048283e-04 4.43770643e-03 1.86531001e-03 7.77375558e-03
    6.06952235e-03 3.71772377e-03 -3.26268468e-03 4.10154089e-03
    -3.91328766e-04 4.11873544e-03 7.12173292e-03 5.62542398e-03
    -1.37612806e-03 -8.98287341e-04 -1.18764001e-03 -4.93635936e-03
    4.27404977e-03 -6.55003032e-03 -2.43485789e-03 3.61646502e-03
    4.66012862e-03 -4.04801453e-04 3.15856328e-03 1.59004261e-03
    5.66400122e-04 7.75388861e-03 -3.80132627e-03 3.00304801e-03
    9.22799762e-03 1.00821676e-02 -1.29565143e-03 4.14083898e-03
    1.04830426e-03 2.24209996e-03 4.00530454e-03 -4.59390460e-03
    6.91025605e-07 8.81610904e-04 1.71615859e-03 3.97590874e-03
    7.06848688e-03 2.60287430e-03 5.84895769e-03 7.17029069e-03
    -3.32723674e-03 7.13851885e-04 5.27882716e-03 9.61721037e-03
    7.63852475e-03 7.70480046e-03 5.05321939e-03 1.74789020e-04
    -2.26858698e-04 2.67574494e-03 5.65207005e-03 6.88140932e-03
    7.34069198e-03 1.74959388e-03 6.03220612e-03 7.76767358e-03
    1.76503498e-03 1.66724843e-03 -2.80644977e-03 -1.30276592e-03
    -1.81605876e-03 -2.05038162e-03 7.84209929e-03 7.80782523e-03
    1.21155800e-02 9.80643742e-03 1.97735685e-03 -1.15445342e-04
    3.63285723e-03 4.81893728e-03 1.56489387e-03 -1.17645017e-03
    3.20390542e-03 1.62460860e-02 1.01314280e-02 -9.24650754e-04
    -3.04042478e-03 6.47091714e-04 1.26267516e-03 -5.22236200e-03
    -5.63364127e-04 1.55284046e-03 6.17414527e-03 2.31884676e-03
    1.79316994e-04 2.75714032e-04 -3.64987878e-03 -1.34767580e-03
    -2.82380660e-03 -1.70546374e-03 -1.81322952e-03 7.99974077e-04
    3.36317043e-03 6.45431550e-03 8.13179836e-03 5.13266539e-03
    4.22382029e-03 1.30840985e-04 -4.82038036e-03 -1.37974904e-03
    7.29124574e-03 3.69380857e-03 -2.63655861e-03 2.28765886e-03
    4.62418050e-03 4.75220336e-03 -6.62353355e-03 -5.77282347e-03
    2.06694030e-03 6.11979235e-03 6.19278103e-03 8.34876671e-03
    2.22406350e-03 8.26063473e-03 5.84804872e-03 -3.07720061e-03
    -3.78706702e-03 -1.18179864e-03 -2.82443315e-03 2.19001761e-03
    3.79210501e-03 2.54264544e-03 3.20837134e-03 2.92137475e-03
    -1.36288838e-03 -2.59926007e-03 7.12991785e-03 8.78085475e-03
    5.07019321e-03 5.30139077e-03 -2.63898342e-04 1.56042539e-03
    5.29654673e-04 -6.15355978e-03 -7.33772945e-03 -1.92997558e-03
    6.62383332e-04 1.98686216e-03 6.10953057e-03 -2.15612934e-03
    3.01564368e-03 -4.56002570e-04 -2.10879929e-03 -8.11033603e-03
    -4.65013989e-04 7.34908925e-03 9.02788248e-03 1.04802297e-02
    1.94182759e-03 3.45768663e-03 -2.17396580e-03 -9.36504453e-03
    -4.24044812e-03 -1.67558072e-04 4.67364024e-03 -6.71999936e-04
    -5.21665020e-03 -4.50451951e-03 -3.07262316e-03 -7.29941064e-03
    -1.16396090e-02 -1.94387173e-03 5.69308503e-03 1.52334068e-02
    1.56707484e-02 1.52812887e-03 -1.70505082e-03 -5.66880126e-03
    -9.58663970e-03 -1.16665820e-02 -7.97139015e-03 -8.17746215e-04
    6.31926348e-03 9.07010026e-03 -1.49893179e-03 -9.04184394e-03
    -8.57028458e-03 -1.09683778e-02 -1.27212973e-02 -3.00226803e-03
    1.26063945e-02 2.94692069e-02 3.22684497e-02 7.05291890e-03
    -9.78042278e-03 -1.16140461e-02 -1.39836296e-02 -1.07467622e-02
    -7.61571946e-03 5.14976820e-03 3.25869303e-03 2.72856583e-03
    -6.81876158e-03 -8.88314378e-03 -8.46261159e-03 -9.46517661e-03
    -1.39898043e-02 -8.88800621e-03 1.79743879e-02 2.04435457e-02
    6.44786702e-03 -1.30707985e-02 -1.45387677e-02 -1.07827885e-02
    -1.07332496e-02 -1.58774201e-02 -6.42042141e-03 8.68227892e-03
    1.65180769e-02 1.19332373e-02 -3.24452599e-03 -1.12308133e-02
    -1.08404281e-02 -1.23053426e-02 -1.11901769e-02 -4.30917076e-04
    1.73168220e-02 2.27072928e-02 1.16537130e-02 -8.96937959e-03
    -6.94550201e-03 7.26586906e-04 -5.11073042e-03 -6.03938848e-03
    -1.06899710e-02 1.13978591e-02 1.67521015e-02 4.59050015e-03
    -8.76058638e-03 -1.05051175e-02 -6.61798287e-03 -9.04798508e-03
    -1.59243029e-02 -1.14942389e-03 6.98495470e-03 9.00570769e-03
    2.86460621e-03 -9.63162631e-03 -7.26513844e-03 -1.64083974e-03
    -3.34261218e-03 -1.00388965e-02 -1.28934684e-03 8.94813240e-03
    1.27376020e-02 3.22080264e-03 -4.14877431e-03 -2.40663928e-03
    5.83443465e-03 1.78020447e-03 -6.74192002e-03 -4.52589570e-03
    -4.41101100e-03 -3.56441422e-04 3.21474858e-04 -5.53070626e-04
    4.84968582e-03 1.21425977e-02 8.00535828e-03 -6.29459275e-03
    3.34857590e-03 5.03735431e-03 6.97157718e-03 3.23596434e-03
    -6.91535650e-03 -2.45493301e-03 3.37175792e-03 -8.70144519e-04
    -3.01222038e-03 -3.86960269e-03 2.47727032e-03 8.08954332e-03
    6.27899589e-03 3.07481410e-03 -2.33880547e-03 1.49936485e-03
    -6.11203024e-03 -1.25356214e-02 -3.29020841e-04 -4.21568286e-03
    -1.15546002e-03 -2.70611583e-03 -3.08617158e-03 8.62967223e-03
    1.18884146e-02 1.04943970e-02 3.05136171e-04 -2.34787958e-03
    2.64032767e-03 5.30295726e-03 2.64666229e-03 1.85905863e-03
    3.71185504e-03 8.08688719e-03 4.07719379e-03 -5.32596372e-03
    -7.50917103e-03 2.30186060e-03 8.80829152e-03 9.51724034e-03
    4.30543348e-03 -1.15053053e-03 3.65002867e-04 -3.70406243e-03
    -1.21744685e-02 -8.41729529e-03 -1.63571385e-03 5.64104598e-03
    6.48346497e-03 1.87552464e-03 -2.79633026e-03 1.28030172e-03
    -1.35598864e-04 -4.22954606e-03 -6.81303302e-03 1.17067166e-03
    5.69009501e-03 1.03079341e-02 6.94163982e-03 6.68952754e-03
    7.64352316e-03 -5.09796257e-04 -1.05884634e-02 -6.05000881e-03
    -3.04689468e-03 2.04247935e-03 1.03439856e-02 1.14906365e-02
    2.20727874e-03 3.96129536e-03 4.02144203e-03 -3.93822789e-03
    -5.00105647e-03 -2.97365361e-04 3.43445735e-03 2.71318317e-03
    -9.96492337e-04 -2.88608507e-03 3.56467091e-03 6.22983184e-03
    -1.50523649e-03 -1.89196819e-03 -3.59718734e-03 -1.35020691e-03
    -4.75603947e-03 -8.88470677e-04 -3.46128619e-03 5.73394122e-03
    1.37767643e-02 4.17161360e-03 -2.44683260e-03 1.74756628e-03
    4.04315721e-03 5.07118367e-03 3.09652905e-03 1.52123976e-03
    3.80933820e-03 7.09371315e-03 -3.01175145e-03 -2.15651118e-04
    -1.43813656e-03 7.01537356e-04 -5.70889213e-04 5.87202609e-03
    1.32419681e-03 4.04386752e-04 3.90149350e-03 -4.46179602e-03
    -1.02698721e-03 -4.33986308e-03 -2.56806216e-03 -8.65598209e-03
    -3.41311656e-03 -5.18474728e-04 7.00157089e-03 1.14883063e-02
    2.80103670e-03 -7.38499872e-03 -9.03563295e-03 -6.64353417e-03
    -1.09380726e-02 -3.44687374e-03 6.11761073e-03 6.49885554e-03
    5.65047842e-03 1.12782768e-03 -2.52754195e-03 -4.37354622e-03
    1.93548657e-03 7.08848820e-04 9.28759109e-03 -1.83028600e-03
    1.47628749e-03 5.17467828e-03 -3.04278126e-03 -1.12212813e-02
    -5.03959274e-03 -7.30599975e-04 3.21044656e-03 1.04852542e-02
    8.86018947e-03 4.58238227e-03 3.61396093e-03 -3.77293443e-03
    -7.73281418e-03 -6.07470702e-03 -5.55221178e-03 -7.50209764e-03
    3.04460293e-03 1.49948271e-02 1.35598397e-02 8.72789882e-03
    2.06972053e-03 -1.23757636e-02 -4.38408181e-03 -4.14069928e-03
    -1.35425031e-02 -1.28868632e-02 -5.01823938e-03 1.37874286e-03
    4.21827368e-04 -6.98534772e-03 -9.68992058e-03 -1.82842545e-03
    -1.10215915e-03 3.91260302e-03 2.25261860e-02 2.40759067e-02
    2.22904962e-02 6.97461655e-03 -1.95761933e-03 -1.19064841e-02
    -6.38237037e-03 -5.21804113e-03 -1.10967988e-02 -2.54722638e-03
    3.95606738e-04 5.41354716e-03 -2.04204558e-03 -5.46222227e-03
    -3.90308350e-03 3.13898968e-03 5.56180207e-03 -3.80297098e-03
    -8.38395301e-03 -1.44040352e-03 5.20577608e-03 6.01049652e-03
    4.25285485e-04 1.50152293e-04 4.00423119e-03 3.30541353e-03
    1.47133449e-03 -3.20593896e-03 4.78504319e-03 1.02431988e-02
    4.80324216e-03 -1.23287272e-03 -2.80507351e-03 3.67837492e-03
    3.57321161e-03 -3.91334435e-03 -3.99644906e-03 -1.53861230e-03
    7.13924458e-03 6.98174955e-03 4.84883226e-03 -3.47344764e-03
    2.43599131e-03 -4.61259944e-04 6.07769653e-05 -2.42218259e-03
    9.83001851e-03 1.17877619e-02 7.02270027e-03 1.27902546e-03
    2.79939827e-03 8.66061728e-03 1.28935953e-03 3.20384768e-03
    -1.26797135e-03 7.67802680e-03 6.86386134e-03 1.05702682e-04
    -5.22681000e-03 1.84814725e-03 8.37925449e-03 4.73699719e-03
    -2.91696354e-03 -5.66871185e-03 -5.46411937e-03 -2.03600712e-03
    1.45571702e-03 -1.94730400e-03 -3.20147583e-03 -8.35869403e-04
    -4.69585881e-03 3.83022008e-04 6.17028261e-03 1.35414228e-02
    1.01273498e-02 1.93760137e-03 -2.66798050e-03 -7.95572632e-05
    -1.73339306e-03 2.43997158e-04 -4.61796578e-03 3.70420312e-04
    -6.94106659e-03 -6.22066611e-04 2.92754034e-04 -3.97487805e-04
    6.04506815e-03 7.47376494e-03 5.54250879e-03 -5.01330988e-03
    -1.05316648e-02 -1.18605606e-02 -5.65494457e-03 2.37662531e-03
    3.54775321e-03 1.27203902e-02 9.74999368e-03 7.00636860e-03
    8.95841920e-04 -4.69335727e-03 -4.63791797e-03 -1.78591174e-03
    3.50358803e-03 1.00973062e-02 3.12190969e-03 1.98601582e-03
    1.95050461e-03 -4.78548044e-03 -5.83850872e-03 -7.62007385e-03
    -3.10458383e-03 7.80998787e-04 3.02991690e-03 6.01645559e-03
    4.90993448e-03 5.72126918e-03 5.05582290e-03 1.11949816e-03
    2.55420688e-03 3.14522581e-03 3.97110963e-03 8.36852938e-03
    -1.56767468e-03 4.38196445e-03 2.84561480e-04 5.30542107e-04
    -3.39944428e-03 -4.36403835e-03 -2.07889383e-03 -4.90162580e-04
    1.10418058e-03 2.81625730e-03 8.45375005e-03 2.74246116e-03
    1.78584392e-04 -1.82740405e-04 -2.85666040e-03 7.75789304e-05
    1.46338437e-03 3.27246124e-03 8.06244789e-04 2.62182765e-03
    1.66768077e-04 2.39643408e-03 -2.19134541e-04 -1.65666221e-03
    -7.61182397e-04 1.74928142e-03 4.06141067e-03 8.42050835e-03
    1.35066910e-02 5.38496161e-03 1.37490942e-03 -1.32017932e-03
    -9.93394991e-04 4.62877983e-03 5.12951938e-03 4.78873961e-03
    5.69001539e-03 4.78587998e-03 1.01679703e-02 9.75284632e-03
    2.79146800e-04 5.79478126e-03 2.48582545e-03 4.21266770e-03
    4.74839529e-04 -6.72326365e-04 5.53860737e-04 1.07828453e-02
    7.61645846e-03 -7.43483286e-03 -1.47844350e-03 -1.00825775e-04
    1.04124355e-03 -3.39719607e-03 6.71574473e-03 6.54426310e-03
    1.01475613e-02 3.35117592e-03 3.17498972e-03 9.94576421e-03
    7.01494375e-03 7.61196017e-03 1.05036702e-02 1.88372203e-03
    1.11262165e-02 8.56947526e-03 4.02903929e-03 6.47462002e-05
    1.14078727e-03 -1.00405130e-03 1.90702186e-03 3.88033944e-03
    -1.59671262e-03 1.42314282e-04 4.79526259e-03 3.43202846e-03
    -2.30380869e-03 8.22457834e-04 3.02166049e-03 2.84463866e-03
    -4.51871660e-03 -3.02254513e-04 4.59071435e-03 2.11279723e-03
    -1.13110487e-04 6.89299428e-04 -4.59300913e-03 8.16049229e-04
    9.82247177e-04 2.06886372e-03 1.92829093e-03 4.84120473e-03
    4.10043681e-03 5.52419806e-03 1.38732139e-03 -2.72127031e-03
    2.63741147e-03 4.45358688e-03 1.99211063e-03 6.16756314e-03
    5.02440659e-03 5.16102463e-03 5.72946435e-03 3.75564396e-03
    -4.06016130e-03 7.39677402e-04 3.61826341e-03 7.93803297e-03
    -5.65964775e-03 -2.13035778e-03 -2.43447162e-03 -3.56894801e-03
    2.26817909e-03 -3.91925406e-03 -2.44211708e-03 -3.63459997e-03
    -1.05388637e-03 -1.01062702e-02 -5.35007101e-03 -2.59637646e-03
    4.78904229e-03 9.11818445e-03 8.76020291e-04 5.71050798e-04
    -6.74978690e-03 -9.72389802e-03 -2.57729157e-03 6.13524113e-04
    2.45693460e-04 5.30751568e-05 3.17997253e-03 1.83249381e-03
    -2.37631891e-03 -3.57860816e-03 1.29877403e-03 -4.19094553e-03
    -1.44302892e-03 1.73585524e-03 1.35129951e-02 1.63455419e-02
    1.20015685e-02 3.85837443e-03 -8.21741484e-03 -8.90929345e-03
    -1.00152856e-02 -4.52000322e-03 -6.40907907e-04 5.38069615e-03
    -2.43550632e-03 -9.99441370e-03 -1.22720236e-02 -1.36787780e-02
    -1.22368149e-02 -6.49450766e-03 3.96411773e-03 2.05853805e-02
    2.53108423e-02 5.38191851e-03 -1.19290901e-02 -1.50352828e-02
    -1.43544292e-02 -9.49192420e-03 -1.05195809e-02 -4.96945158e-03
    -1.68385962e-03 1.44986399e-02 9.34254378e-03 -1.35992770e-03
    -1.08680148e-02 -1.57992095e-02 -1.53272916e-02 -1.26252351e-02
    -5.66350250e-03 1.50540052e-02 2.95678452e-02 2.33282894e-02
    3.38394078e-04 -5.91698149e-03 -1.14852739e-02 -1.74075030e-02
    -1.04847224e-02 -7.58124224e-04 1.14968484e-02 9.85824317e-03
    -5.12928329e-03 -1.44283846e-02 -1.12702865e-02 -9.74242296e-03
    -8.11029505e-03 -5.44652157e-03 4.11162060e-03 1.21891843e-02
    5.24718314e-03 -8.97392910e-03 -8.55571404e-03 7.50504667e-03
    1.58038724e-03 -3.94554622e-03 -1.53633654e-02 -8.47925898e-03
    6.29876321e-03 9.80488956e-03 3.72744934e-03 -6.57000672e-03
    -2.60191155e-03 -5.65893715e-03 -1.64430346e-02 -5.07915346e-03
    -2.14339700e-03 6.79482799e-03 6.38735015e-03 -5.02598938e-03
    -1.00647018e-03 6.89780898e-03 9.29746684e-03 9.44991334e-05
    3.13567900e-04 5.09222155e-04 1.54356856e-03 -2.45150551e-03
    -5.73700294e-03 -5.46052260e-03 1.05544953e-02 6.15094556e-03
    -2.73932796e-03 -3.06843151e-03 -5.60732093e-03 -1.04756281e-02
    -7.07101682e-03 -4.13846364e-03 1.14775368e-03 1.11204581e-02
    8.10681656e-03 -6.30090386e-03 -4.42160264e-04 -4.07447433e-03
    -1.73197489e-03 -3.19932611e-03 -6.29949290e-03 -3.66806169e-03
    9.18114372e-03 1.45732313e-02 5.32618724e-03 1.19138299e-03
    -7.38294283e-03 -1.15593038e-02 -8.64390563e-03 -2.83704698e-03
    5.36915846e-03 1.25648687e-02 1.07121477e-02 2.55040405e-03
    -9.11399184e-05 -1.41890929e-03 -5.81031386e-03 -6.10100990e-03
    -5.19145839e-03 7.17951683e-03 6.24648249e-03 4.67091985e-03
    -1.00676366e-03 -2.04004627e-03 3.76431434e-03 -2.82722595e-03
    -6.03017816e-03 -5.32932254e-03 7.94101320e-03 4.89469199e-03
    2.12648651e-03 -4.94862488e-03 4.65435022e-03 1.92002102e-03
    -6.38967659e-03 -5.26506640e-03 -8.95774399e-04 9.57348570e-03
    1.20529644e-02 5.07851318e-03 3.22793517e-03 3.39131593e-03
    5.61331585e-03 -3.15686944e-03 -1.15710415e-03 -2.31575992e-04
    8.89529567e-03 9.77386720e-03 2.28489493e-03 4.24681290e-04
    -6.98596705e-03 -1.36256893e-03 -2.67826952e-03 2.41874577e-03
    6.02068962e-04 1.06160697e-02 7.15803262e-03 3.95900570e-03
    -7.00480118e-03 -6.00858405e-03 -6.85782125e-03 -6.36647595e-03
    1.98616530e-03 5.39902830e-03 4.70494060e-03 4.93552117e-03
    5.56904497e-03 -2.15960690e-03 -5.74821001e-03 -4.96268447e-04
    -1.88200548e-03 5.48883202e-03 5.30059636e-03 9.46224574e-03
    9.51033644e-03 7.19567388e-03 -3.77386180e-03 -9.21391696e-03
    -8.69821012e-03 -2.92046112e-03 3.72007815e-03 9.44968686e-03
    5.88812446e-03 6.75051799e-03 2.97806901e-03 -7.34968157e-03
    -1.11192500e-03 -7.26875616e-04 -3.30396550e-04 2.35099951e-03
    4.82067000e-03 5.56185283e-03 7.51976902e-03 3.48955230e-03
    -2.13168864e-03 -2.19049887e-03 -4.27172007e-03 -8.21207010e-04
    1.80421586e-04 3.71693680e-03 1.09538494e-03 -4.29041334e-04
    -1.72430638e-03 -6.66330429e-03 -2.82772729e-04 -3.90954269e-03
    -6.46991481e-04 1.35956670e-03 1.07896002e-02 7.06743682e-03
    7.86426757e-03 2.40025693e-03 -3.38084879e-03 -2.55903020e-03
    -3.86926904e-03 1.50368456e-03 3.37834214e-03 8.17058701e-03
    -1.61544373e-03 -8.35878076e-04 -3.46967339e-04 -8.39387160e-03
    -2.34041852e-03 -5.17591462e-03 2.24414188e-03 2.09086202e-03
    3.58344335e-03 -4.41961037e-03 2.08937156e-04 1.46281731e-03
    -5.85369393e-03 -3.39435041e-03 -8.96436279e-04 3.55062820e-03
    1.00908391e-02 8.18123203e-03 4.39551193e-03 3.86263384e-03
    -3.08817944e-05 -2.62703630e-03 -3.19890236e-03 -5.00686141e-03
    4.93913982e-03 2.77391565e-03 1.81895436e-03 -5.11921989e-03
    3.72478302e-04 5.52826095e-04 -4.59225848e-03 3.08555039e-03
    -4.37430386e-03 4.35518753e-03 5.66307362e-03 3.98972863e-03
    -1.02682599e-04 2.55285972e-03 2.23428383e-03 7.66148616e-04
    -6.03132183e-03 -6.97294949e-03 -1.66629674e-03 5.75246522e-03
    1.19779538e-02 1.26389479e-02 1.30518181e-02 2.24295771e-03
    -6.92759349e-04 -9.52218659e-03 -1.25371777e-02 -8.67756363e-03
    -8.33505299e-03 -1.78909302e-03 -1.87749523e-04 4.12155036e-03
    -3.84499133e-03 -4.66946512e-03 -1.54747232e-03 -9.63488594e-03
    4.52469476e-03 1.10723795e-02 1.34399924e-02 8.70442856e-03
    8.14411696e-03 6.11312827e-03 -6.93187292e-04 -1.26551641e-02
    -1.66202374e-02 -3.97419743e-03 1.47991325e-03 8.63956753e-03
    3.75437108e-03 3.81622580e-03 8.96256766e-04 -1.10267075e-02
    -2.85789673e-03 -2.19928147e-03 7.04324746e-04 -1.45101373e-03
    1.11286901e-03 -1.78108120e-03 6.57922402e-03 5.67210466e-03
    1.99904968e-03 -3.97940911e-03 1.18913820e-04 7.57763555e-05
    -1.65598886e-03 -7.75590865e-03 -3.13886069e-03 4.53566900e-03
    6.32665865e-03 -1.20590907e-03 -2.54922663e-03 -7.70793483e-03
    5.96566219e-03 8.65560211e-03 1.13462461e-02 8.85787327e-03
    1.01762852e-02 9.81163792e-03 -2.29971390e-03 2.44169519e-03
    -1.28721702e-03 2.23156298e-03 9.06318135e-04 -1.16671738e-03
    -3.78899230e-03 6.22986490e-03 8.52303207e-03 1.22481049e-03
    -2.15369626e-03 -2.28000013e-03 -1.82672858e-03 1.25097530e-03
    2.29895953e-03 8.87440424e-03 8.67543370e-03 6.02153176e-03
    1.55471178e-04 1.00950210e-03 -1.85879692e-03 -5.27985953e-03
    -6.08780561e-03 -4.93597297e-04 -2.03508977e-03 2.27481849e-03
    -8.72318225e-04 -3.29803699e-03 2.22757948e-03 -1.51148695e-03
    1.78212766e-03 6.28795824e-04 7.53349217e-04 6.10763906e-03
    1.09154955e-02 5.89986285e-03 1.58636470e-03 4.42100689e-03
    4.51695087e-04 5.01251139e-04 -1.95765682e-03 -4.70805354e-03
    -1.14745484e-03 5.40082203e-03 -3.06638586e-03 -2.25684303e-03
    -2.11833837e-03 -1.63031189e-04 -3.57942935e-03 -6.37953589e-03
    -5.98209631e-03 -2.37804558e-03 3.48203990e-04 -1.85142178e-03
    -5.84165333e-03 -6.09568204e-04 9.92348767e-04 4.02385322e-03
    2.39416375e-03 -4.96148423e-04 1.28844590e-03 2.54548411e-03
    3.10279778e-03 -2.63077696e-03 2.08408906e-04 3.02108703e-03
    2.67503876e-03 -2.79014674e-03 -5.19602839e-03 -5.08307666e-03
    3.65592679e-03 -1.17948293e-04 -4.78901248e-03 5.85302711e-03
    8.43257457e-03 1.62714943e-02 1.16098607e-02 9.06623900e-03
    -2.48607039e-03 2.79499171e-03 7.88936578e-03 -3.05956783e-04
    -1.02106459e-03 2.78758234e-03 2.23204517e-03 -1.38402346e-03
    -6.97674975e-03 -5.00097685e-03 -4.35846671e-03 1.50956708e-04
    -4.23915125e-03 3.38635501e-03 9.54898447e-03 6.28486043e-03
    6.01758133e-04 -8.55453964e-03 -2.30647204e-03 2.12405086e-03
    3.83314956e-03 -9.60092984e-06 8.15179106e-03 8.97116587e-03
    1.09574152e-02 2.64639244e-03 -4.99361148e-03 -8.01765453e-03
    -3.81977903e-03 1.71821949e-03 -2.04872782e-03 5.92639856e-03
    1.20602651e-02 1.03449868e-02 2.49682949e-03 -7.36971851e-03
    -4.44879290e-03 2.65665515e-03 7.47326948e-03 3.80718755e-03
    3.11567355e-03 4.61964682e-03 6.71855314e-03 -5.62294852e-03
    2.58671911e-03 5.13678323e-03 7.78365834e-03 7.52124516e-03
    7.67083652e-03 3.21808876e-03 9.43310000e-03 5.73867979e-03
    -3.39255715e-03 -1.97233516e-03 -5.34731545e-04 2.64329812e-03
    1.64463057e-03 5.94003359e-03 3.74917733e-03 9.97481961e-03
    6.10960089e-03 -1.04490127e-02 -2.42203590e-03 2.55199405e-03
    6.49083033e-03 8.40562675e-03 5.78507688e-03 8.92077293e-03
    8.55099503e-03 4.02135123e-03 -1.25782313e-02 -5.58468222e-04
    3.25155165e-03 1.10863801e-02 1.00476490e-02 8.03798996e-03
    3.49211390e-03 4.74425359e-03 2.88283406e-03 7.25326303e-04
    -2.87338067e-03 -4.32442408e-03 7.51610147e-04 2.51503708e-03
    5.06821834e-03 1.19746698e-03 3.23718088e-03 2.55401549e-03
    7.82604038e-04 -1.64333312e-03 -2.07276992e-03 -2.26374529e-03
    2.05668097e-04 5.94561687e-03 6.21215999e-03 8.35271366e-03
    5.29013947e-03 -4.70452337e-03 2.73177237e-03 -1.28382992e-04
    8.02265294e-03 6.79674232e-03 5.04063116e-03 4.03983024e-04
    2.81794253e-03 2.12501199e-03 -1.49160624e-03 -3.14128760e-04
    9.20145540e-04 4.24691010e-04 1.12259400e-03 1.85099209e-03
    -4.74191131e-03 -1.55101949e-03 -2.25324160e-03 -4.68388526e-03
    -3.95244919e-03 4.79140738e-03 -2.90838396e-03 -3.28520220e-03
    -1.66476110e-03 -5.86170796e-03 -2.77037290e-03 2.12057517e-03
    1.05491299e-02 8.54819454e-03 1.46630434e-02 7.53060449e-03
    -5.34437597e-03 -8.48816708e-03 -7.22572161e-03 -4.75484366e-03
    -1.69090938e-03 -1.03145477e-03 -8.12753756e-03 5.75950195e-04
    -3.35162692e-03 -4.26371908e-03 -6.56843092e-03 -9.64080449e-03
    -8.34432244e-03 5.30146714e-03 1.20405369e-02 9.65254009e-03
    1.62840951e-02 1.09532299e-02 1.22872822e-03 -6.66594179e-03
    -1.08505785e-02 -5.27494540e-03 -2.76571396e-03 8.96902941e-03
    5.48015442e-03 1.34488603e-03 -7.03946408e-03 -1.55195659e-02
    -1.45409266e-02 -1.46142654e-02 -5.26615558e-03 4.02898202e-03
    1.99091695e-02 1.79940779e-02 3.60039878e-03 -3.72251403e-03
    -1.04438318e-02 -1.73506029e-02 -1.35625415e-02 -1.09032551e-02
    -3.59151303e-03 1.71645210e-04 3.04221478e-03 1.01801502e-02
    3.16223619e-03 -8.54604226e-03 -1.17325820e-02 -7.41512561e-03
    -6.48844568e-03 2.69057672e-03 8.06202460e-03 1.34023856e-02
    1.61624271e-02 5.89015661e-03 -7.96430930e-03 -8.61915201e-03
    -1.24035133e-02 -5.52667817e-03 1.01137080e-03 7.42196664e-03
    1.64731708e-03 -1.75240217e-03 -3.40720653e-05 -9.49829526e-04
    -1.24510480e-02 -4.52367449e-03 -4.67540976e-03 4.36033530e-04
    2.29804008e-03 -1.02455234e-02 1.00222451e-03 1.09525444e-02
    1.45444507e-02 1.77849201e-04 -4.42610029e-03 -4.88601020e-03
    -2.79215001e-05 2.63175322e-03 1.17109518e-03 3.98208620e-03
    1.97161501e-03 7.93969317e-04 -1.85742672e-03 -1.54480734e-03
    -7.00174272e-03 -1.94560213e-03 -4.91443556e-03 -1.56190973e-02
    -2.89514777e-03 1.02519616e-02 1.41792949e-02 1.07264677e-02
    -2.14635557e-03 -6.02281606e-03 -1.25892949e-03 1.89192051e-05
    -7.19988346e-03 -1.89045022e-04 1.31931268e-02 2.02009398e-02
    8.09256267e-03 6.99797587e-04 -6.93145534e-03 -6.90235011e-03
    -3.33493925e-03 -2.94951047e-03 3.63361370e-03 9.76834539e-03
    1.06723923e-02 5.53383445e-03 -5.24421362e-03 -9.53675807e-03
    -6.14122674e-03 -6.10510167e-03 -1.24595566e-02 -1.73253939e-03
    9.88869555e-03 1.85901616e-02 1.07929669e-02 -1.77388859e-03
    -1.01471634e-03 -1.75229134e-03 -3.29181668e-03 -4.02081711e-03
    -4.95880796e-03 -3.23668908e-04 6.26601372e-03 2.42092158e-03
    3.30907991e-03 1.57781513e-04 -2.32394296e-03 1.38059701e-03
    3.57255246e-03 3.95524502e-03 7.04312604e-03 4.24569426e-03
    1.26245804e-03 1.25232118e-03 1.76299026e-03 6.03883900e-03
    8.60917568e-03 -1.26356108e-03 4.47072275e-03 7.22785667e-03
    1.45620690e-03 2.49485299e-03 -1.24025508e-04 4.30012401e-03
    4.18707589e-03 7.26065226e-03 2.25062063e-03 -7.00698746e-03
    -3.53712775e-03 3.28074372e-03 -2.68181367e-03 -4.26078588e-03
    3.05409404e-03 1.07365986e-02 5.96769433e-03 -6.35482091e-03
    -1.32755842e-03 -5.31399564e-04 6.06692047e-04 -6.27937773e-03
    -4.79674991e-03 2.82778055e-03 7.81970005e-03 7.76714087e-03
    1.57835730e-03 5.33817010e-03 5.92992455e-03 3.45295528e-03
    -2.21213515e-04 -7.18019810e-03 -3.80383548e-03 1.75729184e-03
    4.34989110e-03 9.13810171e-03 4.10602009e-03 1.89335854e-03
    2.36638752e-03 -5.72689949e-03 -6.51864661e-03 4.18674713e-03
    8.70160945e-03 5.22046443e-03 -3.53389652e-03 4.66846814e-03
    3.91034409e-03 -7.68736354e-04 -7.45415036e-03 -4.66889050e-03
    -2.08098628e-03 4.11361689e-03 5.07513108e-03 3.03172856e-03
    6.13018172e-04 8.87920382e-04 6.24541950e-04 -6.05730852e-03
    -3.93594150e-03 -3.67184984e-03 2.34335149e-03 3.00304103e-03
    7.79004488e-03 4.93283058e-03 1.59109000e-03 1.83300243e-03
    -2.03452143e-03 -3.52702918e-03 1.29276700e-03 7.18239276e-03
    6.59338059e-03 2.93859420e-03 -6.75543910e-03 -3.65818711e-03
    -2.07786751e-03 -7.42311589e-03 9.84821701e-04 1.15997053e-03
    1.11065106e-02 7.95154087e-03 3.87528981e-03 -2.96859443e-03
    -4.96805354e-04 2.30845786e-03 3.57821875e-04 -4.59728210e-04
    7.83032551e-03 1.62805989e-02 9.85719077e-03 -3.42494086e-03
    -1.08675053e-02 -4.45865421e-03 5.60487621e-04 -1.24744221e-03
    -1.84355560e-03 6.85191306e-04 1.10813826e-02 4.98755509e-03
    2.16490403e-03 -5.03666326e-03 -1.44620962e-03 1.94425855e-04
    -4.14888887e-03 4.36124014e-04 -4.98202397e-03 9.83055867e-03
    3.29736155e-03 3.54558439e-03 4.14020382e-03 5.41417068e-03
    2.39910418e-03 -1.52040774e-03 3.32824769e-04 7.29005411e-03
    1.02782566e-02 3.38475103e-03 -2.75111175e-03 -9.25791170e-03
    -3.66765843e-03 8.20955785e-04 -7.77693873e-04 -6.42847735e-03
    2.66588316e-03 7.10840616e-03 4.82572149e-03 1.12195720e-03
    -1.40622898e-03 1.41067605e-03 -4.46349091e-04 -4.31814324e-03
    -5.61430259e-03 -4.02931497e-03 7.59725692e-03 1.00939060e-02
    1.24845579e-02 5.02302591e-03 7.22578436e-04 7.99737318e-05
    -8.26868601e-03 -1.52479690e-02 -8.38878471e-03 -2.18499196e-03
    9.95337311e-03 1.10807065e-02 3.53536638e-03 -4.85135708e-03
    -4.38358635e-03 -1.61653534e-02 -9.65235382e-03 2.69579701e-03
    8.77797790e-03 1.28669431e-02 9.52264015e-03 5.76999271e-03
    -2.50483910e-03 -3.17072915e-03 -9.21639148e-03 -1.48974899e-02
    -5.22012264e-03 3.87904444e-03 1.65629387e-02 1.09129092e-02
    6.07450400e-03 -9.45628807e-03 -1.07960887e-02 -1.68725029e-02
    -6.91284705e-03 -3.53665021e-03 4.55738278e-03 1.04870284e-02
    8.20937380e-03 3.24540935e-03 5.04945870e-04 -8.30777921e-04
    -9.30693373e-03 -1.63331616e-03 -2.09512259e-03 5.45099960e-04
    -7.12359615e-04 -4.56667412e-03 -6.59712590e-03 1.98253110e-04
    -2.56003370e-03 -5.43559995e-03 -6.05765684e-03 6.39989390e-04
    5.93386311e-03 2.33092215e-02 1.97191611e-02 3.83197190e-03
    -4.30821721e-03 -7.61711132e-03 -1.09907547e-02 -4.47075255e-03
    3.13274586e-03 2.90390197e-03 7.44289206e-03 3.77671840e-03
    8.91417032e-04 -2.99380673e-03 -7.55467825e-03 -1.04146525e-02
    -3.29966005e-03 -2.53935461e-03 3.28077789e-04 -1.15655735e-03
    -3.83384665e-03 -7.48927414e-04 3.78382974e-03 -1.36060684e-04
    -2.43384368e-03 -5.33901900e-03 5.15594147e-04 2.06201710e-03
    -2.27727951e-03 -6.46244735e-03 -7.28540169e-03 -8.59015970e-04
    -2.76115141e-03 -4.82425466e-03 -3.75504652e-03 5.56829944e-03
    8.63466412e-03 6.70879195e-03 8.21046531e-03 1.12755504e-02
    3.42888385e-03 5.19561640e-04 -5.11775631e-03 -2.89978925e-03
    8.13549105e-03 1.25975339e-02 9.23918933e-03 5.98756224e-03
    -8.56205472e-04 -1.05017330e-03 2.52938969e-03 -4.56276862e-03
    1.19140383e-03 4.90119867e-03 1.16034027e-03 -3.39435367e-03
    -5.97436726e-03 -1.03500700e-02 -1.02650153e-03 -2.81100220e-04
    -3.67426896e-03 6.64212974e-03 7.26602878e-03 8.49063508e-03
    3.88258696e-03 4.30200715e-03 -5.20897424e-03 -1.24944327e-03
    1.92154339e-03 1.91622367e-03 4.00540791e-03 1.13764964e-02
    8.35763849e-03 3.74231627e-03 -2.42132554e-03 -7.68609531e-03
    -7.08283018e-03 -2.85208481e-03 -5.42741176e-03 8.53903033e-03
    8.19780398e-03 8.16094223e-03 -2.57043401e-04 -1.88359569e-04
    -5.50460676e-03 -7.26792589e-03 -2.33392720e-03 2.18450907e-03
    8.25538021e-03 5.83493663e-03 6.95703505e-03 3.32331890e-03
    2.15264480e-03 -2.40143389e-03 7.69387698e-04 4.94496524e-03
    3.13075795e-03 3.28387227e-03 7.82761350e-03 7.34348083e-03
    -2.15769804e-04 -7.46230653e-04 -4.52093809e-06 -4.38925053e-04
    6.93689333e-03 4.62355558e-03 3.07192723e-03 -3.97260555e-05
    6.16439385e-03 -1.95961655e-03 -4.16451367e-03 -5.53277880e-03
    -4.05082339e-03 1.29281939e-03 2.20710901e-03 -1.13324111e-03
    5.84850670e-04 3.27151013e-03 -1.12067652e-03 1.15679170e-03
    -6.02427172e-04 -1.29604782e-03 3.85326240e-03 8.14659521e-04
    4.66521224e-03 9.81418695e-03 8.63725320e-03 -8.32084939e-03
    -1.04293907e-02 -1.76888367e-03 -4.68710845e-04 4.44765622e-03
    5.98543789e-03 6.52857078e-03 9.69414227e-03 6.46873144e-03
    -1.22378226e-02 -7.45976157e-03 -1.18201692e-03 4.90378775e-03
    9.21356492e-03 7.73405796e-03 1.02994600e-02 7.59601127e-03
    9.26039834e-03 -5.99351246e-03 -1.07877320e-02 -2.81585264e-03
    7.00890692e-03 1.08007099e-02 1.44636799e-02 7.94076547e-03
    9.40821040e-03 9.95747931e-03 -5.78753417e-03 -7.92636909e-03
    5.51768404e-04 7.50044454e-03 1.77956726e-02 1.93850994e-02
    4.24433639e-03 5.16710198e-03 2.98281992e-03 -5.04233688e-03
    -1.71068485e-03 -4.43100510e-03 1.91249978e-03 5.02627483e-03
    4.86926874e-03 -2.08455557e-03 6.64444582e-04 1.92816264e-03
    -1.87861279e-03 -3.68035398e-03 -3.62827303e-03 -4.73600300e-03
    -2.12917989e-03 -3.24553554e-03 5.07358229e-03 7.88622070e-03
    6.60954323e-03 -2.02465872e-03 -3.51728477e-06 1.42003654e-03
    4.71506687e-03 1.03272460e-02 1.25154033e-02 4.65767691e-03
    7.55665405e-03 7.04374583e-03 -2.07625283e-03 1.24469912e-03
    -8.68030125e-04 2.83108582e-03 1.80106354e-03 4.26969398e-03
    -7.41528952e-03 -1.56398036e-03 4.91847470e-03 1.87500310e-03
    -4.37729713e-03 -1.71719329e-03 -2.37387582e-03 -3.89438961e-03
    -6.61766995e-03 -1.11156125e-02 -8.05160124e-03 5.29682171e-03
    8.42103735e-03 8.75729229e-03 1.22510232e-02 5.65654645e-03
    1.87404605e-03 -5.17789135e-03 -3.22446134e-03 3.71991727e-03
    6.81856461e-03 1.38243558e-04 6.67414803e-04 -1.47248502e-03
    1.59659912e-03 -1.71875974e-04 -1.39589352e-03 -8.45757220e-03
    -3.28927254e-03 1.88938784e-03 -2.95842998e-04 3.68166901e-03
    9.39048268e-03 9.12070181e-03 6.97660306e-03 -1.12344814e-03
    -1.12330969e-02 -1.06229903e-02 -4.18699766e-03 -4.55665402e-03
    3.82662262e-03 1.12360492e-02 4.75528836e-03 -3.49648995e-03
    -8.29991978e-03 -1.02101518e-02 -1.02871386e-02 -3.53361480e-03
    -1.46076281e-03 1.38860401e-02 2.10840218e-02 1.37288645e-02
    2.94153066e-03 -3.50958831e-03 -1.21017480e-02 -1.09904315e-02
    -8.91086459e-03 -9.84950271e-03 -1.93857425e-03 2.87119113e-03
    2.93699047e-03 -4.01684502e-03 -8.50495789e-03 -1.67747792e-02
    -1.62004232e-02 -1.48941297e-02 -1.16810165e-02 5.08873211e-03
    1.64610129e-02 2.10772958e-02 5.98063879e-03 -2.69573089e-03
    -8.65325890e-03 -8.49175826e-03 -3.17473174e-03 -2.78784172e-03
    2.71882163e-03 6.98538497e-03 5.14549483e-03 2.65838765e-03
    -8.66965856e-04 -1.82293518e-03 -5.55105694e-03 -3.13562294e-03
    -7.72616034e-03 -1.25886090e-02 -3.96395684e-04 1.09057575e-02
    1.48861101e-02 8.67660344e-03 -1.18319951e-02 -1.16164228e-02
    -1.33696506e-02 -1.02644647e-02 -1.96016929e-03 5.84916351e-03
    1.28169917e-02 6.68457244e-03 -3.37222521e-03 -3.29611394e-05
    -2.47828808e-04 -5.03108324e-03 -8.91444366e-03 -1.07040182e-02
    4.23726952e-03 1.05610704e-02 1.49092395e-02 4.69366414e-03
    -1.03439868e-03 -4.33617458e-03 -7.36256270e-03 -9.11155622e-03
    -1.18047604e-02 -3.00537073e-03 6.91999448e-03 1.67302284e-02
    1.03455326e-02 8.79505940e-04 2.44488521e-03 -4.48019896e-03
    -6.10554777e-03 -1.07227769e-02 -8.77677463e-03 3.07562994e-03
    5.76541247e-03 4.55289148e-03 2.95643113e-03 4.25983872e-03
    -1.30355114e-03 -5.00374101e-03 -1.07172476e-02 -8.28563294e-04
    5.66818379e-03 1.16699981e-02 7.00014317e-03 7.00300047e-03
    5.09766676e-03 8.78990046e-04 -6.67725457e-03 -1.49237365e-02
    -8.41500517e-03 3.75303486e-03 6.27287244e-03 3.44463997e-03
    2.57622846e-03 8.97417404e-03 7.37955328e-03 4.25792718e-03
    -2.07583467e-03 -4.01838496e-03 -2.15265271e-03 2.90644774e-03
    7.10493914e-05 4.28299012e-04 6.89335726e-03 8.47715884e-03
    4.30105021e-03 -5.95242856e-03 -2.16189935e-03 -2.62571895e-03
    -3.37755331e-03 -4.51097731e-03 1.07276784e-02 6.29417179e-03
    3.28436028e-03 -1.70168746e-03 -6.90679718e-03 -9.48558794e-04
    -8.15363717e-04 4.28973837e-03 5.41769713e-03 6.59083808e-03
    6.61446247e-03 2.78225727e-03 -2.79240333e-03 -7.91125931e-03
    -6.15128898e-04 -3.09227640e-03 -1.69357972e-03 5.87171467e-04
    1.59727933e-03 6.58059260e-03 8.77147354e-03 4.65813093e-03
    -3.53353820e-03 1.45977340e-03 -2.83317058e-04 -5.62129123e-03
    -5.13621233e-03 9.92353191e-04 1.45757105e-03 9.77702346e-03
    6.96364790e-03 -1.97998527e-03 -4.83278045e-03 -2.81063141e-03
    -3.36103467e-03 -3.44466744e-03 7.27532012e-03 8.83124582e-03
    7.65447319e-03 -3.14671104e-03 -6.21050689e-03 -3.04950727e-03
    -2.86010007e-04 -4.37362818e-03 3.69155779e-03 8.16677231e-03
    3.55948601e-03 1.14443069e-02 1.35147024e-03 -5.89709263e-03
    -9.34946816e-03 -4.29459987e-03 -1.10870821e-03 7.68581359e-03
    2.80397991e-03 2.45568086e-03 1.15840901e-02 7.48384697e-03
    -3.36444261e-03 -8.47088173e-03 -4.92527988e-03 -1.13179605e-03
    -7.99550675e-04 -3.17786762e-04 5.22570778e-03 1.42870918e-02
    5.19382348e-03 -8.56166705e-03 -9.68048349e-03 -7.18479790e-03
    -3.76611040e-03 -5.94128901e-03 8.34813993e-03 5.84056717e-04
    1.07574137e-02 3.05500114e-03 -4.15664725e-03 -6.57137996e-03
    -4.05004947e-03 3.68973648e-04 7.46875210e-03 4.54257242e-03
    3.74050811e-03 1.48592154e-02 4.59793536e-03 -5.86171495e-03
    -3.01915267e-03 2.60094018e-03 1.73657120e-03 1.31775090e-03
    -1.21620670e-03 4.24584979e-03 8.58203601e-03 1.59480970e-03
    -8.28438252e-03 -6.85645780e-03 -4.11778502e-03 -7.06102117e-04
    -3.80311836e-03 -6.82148756e-03 2.61874963e-03 5.43698855e-03
    6.84352266e-03 -2.25435197e-03 -7.98329990e-03 -4.77221236e-03
    -3.42141185e-03 -6.76391227e-03 2.67501897e-03 5.21764020e-03
    1.52132232e-02 9.01583489e-03 -5.78208687e-03 -3.99642671e-03
    3.60523583e-03 1.39934546e-03 -2.11143168e-03 4.12089605e-04
    1.00620091e-02 1.52925700e-02 1.42827667e-02 1.03322219e-03
    -8.23920779e-03 -4.44849674e-03 -5.28032333e-03 -4.85740043e-03
    -9.72103793e-03 4.76511242e-03 1.40980436e-02 1.35209803e-02
    7.04220776e-03 1.29951723e-03 -4.90990141e-03 -4.93745599e-03
    -8.80517066e-03 -1.36114396e-02 -5.16908383e-03 7.24562723e-03
    1.43558802e-02 6.59699971e-03 6.87265783e-05 -8.25592130e-03
    -7.76675530e-03 -1.21888686e-02 -4.98135760e-03 8.13067518e-03
    1.92165170e-02 1.60135161e-02 3.68936756e-03 -5.55242365e-03
    -5.19770430e-03 -6.22175075e-03 -9.06635169e-03 -1.24451388e-02
    -1.11499568e-03 8.67756736e-03 7.03997165e-03 -2.89879041e-04
    -4.24716808e-03 -6.23535737e-03 -9.61103663e-03 -1.31454458e-02
    -8.74484982e-03 -3.59371025e-03 5.06390445e-03 1.77599080e-02
    1.87741574e-02 -1.78496016e-03 -8.37560091e-03 -6.22893358e-03
    -9.88696888e-03 -3.72052169e-03 6.97470969e-04 7.17928808e-04
    7.39809917e-03 8.30004830e-03 -5.49081189e-04 -5.40132634e-03
    -4.95447917e-03 -6.13074144e-03 -3.88245867e-03 4.21920978e-03
    6.40650094e-03 1.26278615e-02 7.68762361e-03 -2.80141644e-03
    -7.11130630e-03 -7.28467247e-03 -1.05130840e-02 8.43844609e-04
    7.09553994e-03 6.10786024e-03 3.70240794e-03 -1.22643518e-03
    -8.63208715e-03 -8.32245592e-03 -5.00602927e-03 -5.54102659e-03
    -3.63508868e-03 5.61852427e-03 8.11538100e-03 4.18748939e-03
    8.46966263e-03 5.91096003e-03 -5.45629999e-04 -1.86779664e-03
    -5.25070960e-03 -4.88360738e-03 6.74314890e-03 8.33026133e-03
    4.30796435e-03 5.99815883e-03 -5.48675016e-04 -2.26273271e-03
    -8.52838100e-04 -6.54994184e-03 -2.66417931e-03 7.64890015e-03
    1.18165696e-02 4.94452426e-03 1.14867219e-03 -3.18922824e-03
    -5.88726532e-03 -6.15874724e-03 -8.10841471e-03 -5.43253170e-03
    6.17206097e-03 4.85616503e-03 -1.50543859e-03 2.33873120e-03
    -4.56829235e-04 -1.44009036e-03 -3.59182782e-03 -9.70118120e-03
    2.08121864e-03 1.01448977e-02 9.44171567e-03 9.03073698e-03
    2.23510317e-03 -8.35385546e-03 -6.97343936e-03 -1.92372256e-03
    -2.60356022e-03 3.72314220e-03 4.97191725e-03 5.52773429e-03
    4.05080151e-03 2.02674791e-03 -7.63893081e-03 -3.38247651e-03
    9.65635918e-05 2.99628009e-04 2.14390946e-03 8.12584627e-03
    3.62725276e-03 2.33905375e-04 2.01732991e-03 -2.28090724e-03
    -8.47644042e-05 2.22493033e-03 -1.08189858e-03 5.92711940e-03
    7.27630267e-03 4.88031004e-03 1.92296342e-03 3.15346732e-03
    -3.19443108e-03 3.31427691e-05 3.36074410e-03 1.81885296e-03
    5.71907638e-03 3.08546820e-03 5.98615501e-03 1.54928328e-03
    -4.49226331e-03 -8.31106864e-03 -9.53987997e-04 1.65704242e-03
    4.30937624e-03 4.69920505e-03 1.73082075e-03 7.28085928e-04
    5.54240658e-04 3.25921690e-03 -1.07610191e-03 2.80858064e-03
    4.40236367e-03 4.44508344e-03 6.69061253e-03 4.61198203e-03
    5.30630909e-03 1.86968828e-03 -6.98823715e-05 -5.06527210e-03
    1.92961248e-03 -1.66813115e-04 2.78275670e-03 6.39327243e-03
    5.23114251e-03 7.19170924e-03 2.49815243e-03 7.17202481e-03
    -4.32431977e-03 -1.01216661e-04 -6.99566444e-04 4.39494057e-03
    5.94851607e-03 5.03439410e-03 6.51093107e-03 -3.88399861e-03
    -1.33387260e-02 -5.01660537e-03 6.22492097e-03 9.67380311e-03
    9.70652327e-03 3.37808416e-03 1.11017302e-02 1.21456655e-02
    -1.06803875e-03 -8.82198196e-03 4.13431662e-05 4.01153089e-03
    1.08885085e-02 8.07847735e-03 1.61096954e-03 2.18118704e-03
    5.10216411e-03 -1.89630012e-03 -4.80423449e-03 4.37367987e-03
    7.33208936e-03 9.31960531e-03 1.10187717e-02 2.75677326e-03
    1.38000036e-02 1.75345410e-02 5.34210447e-03 -1.37576915e-03
    -5.58769563e-04 7.92518165e-03 6.07878156e-03 -4.41641983e-04
    2.95971724e-04 7.83182029e-03 7.14029977e-03 -8.00146081e-04
    -1.93809406e-04 2.56717438e-03 2.71258503e-03 6.62970869e-03
    3.16231092e-03 5.77156257e-04 6.80947164e-03 6.64452137e-03
    -5.45953028e-03 -5.11505734e-03 -4.04973747e-03 2.81918980e-03
    3.69257177e-03 3.65525571e-04 1.59217609e-06 1.22719584e-02
    1.13608660e-02 5.87172806e-03 2.54812092e-03 -3.92493419e-03
    8.28390708e-04 2.52382527e-03 -4.40033106e-03 -2.43236264e-03
    6.58760034e-03 7.60089280e-03 -3.66760977e-03 -4.90592327e-03
    -3.30890669e-03 8.88864510e-03 1.13228830e-02 -2.05320632e-03
    1.35657168e-03 4.37765010e-03 6.64001470e-03 -3.31289554e-03
    -4.04654676e-03 -3.15096974e-03 7.18315179e-03 7.61231827e-03
    3.41459992e-03 -4.98830248e-03 -3.84731777e-03 -4.69375926e-04
    -2.36519403e-03 3.92844580e-04 2.73127313e-04 1.10844756e-02
    1.25114741e-02 2.96208705e-03 3.07032868e-04 4.45865706e-04
    4.62447247e-03 -6.49188412e-03 -2.33438122e-03 -4.06497275e-04
    1.24112768e-02 1.12226801e-02 2.00932147e-03 -7.15901935e-03
    -4.09057643e-03 1.22219371e-03 -5.32307616e-03 -3.45145306e-03
    -2.35464610e-03 7.87596125e-03 1.34844622e-02 1.67875132e-03
    -9.25046951e-03 -7.22415280e-03 -8.35253764e-03 -8.17807484e-03
    1.12864072e-03 5.83393220e-03 6.44262414e-03 3.79604357e-03
    -2.81848968e-03 -1.16322413e-02 -1.04361726e-02 -1.28330635e-02
    -1.41640566e-02 1.13368791e-03 1.69851370e-02 2.78504658e-02
    2.39097122e-02 4.58664680e-03 -8.69913120e-03 -7.46037904e-03
    -9.51071549e-03 -1.13114445e-02 -7.25950534e-03 -2.21171300e-03
    3.35128605e-03 5.28266374e-03 -3.19539313e-03 -5.27562480e-03
    -5.57731604e-03 -1.27880750e-02 -1.39329713e-02 -7.47530628e-03
    1.81370683e-03 1.40905008e-02 1.78799089e-02 3.23368213e-03
    -9.46455728e-03 -9.75610502e-03 -1.38775380e-02 -1.11192148e-02
    -5.92980394e-03 6.95734890e-03 1.58749707e-02 1.51523566e-02
    2.90635246e-04 1.05046085e-03 5.31705888e-03 -1.75351265e-03
    -3.04377964e-03 -3.97474086e-03 1.56047968e-02 1.77998897e-02
    1.71804409e-02 8.14760290e-03 -1.22284442e-02 -1.40218800e-02
    -1.41236922e-02 -1.44118937e-02 -8.46125837e-03 1.93237793e-05
    7.21771037e-03 7.96210300e-03 -8.39116704e-03 -1.26086744e-02
    -8.44055694e-03 -9.37892217e-03 -9.73595493e-03 -4.22355812e-03
    7.59508228e-03 1.28016341e-02 1.02195106e-02 -7.58616766e-03
    3.18793725e-04 6.74772356e-03 2.77478620e-03 4.87198762e-04
    -5.01373876e-03 3.26715875e-03 3.72894900e-03 9.07318108e-03
    5.66122867e-03 2.70173233e-03 4.14954918e-03 4.77079256e-03
    -2.25113891e-03 -8.84319376e-03 -2.82087387e-03 8.22120695e-04
    3.55930859e-03 3.75546259e-03 -8.36822577e-03 -2.50319578e-03
    -2.85769883e-03 -7.13639800e-03 -2.28590798e-03 -1.99370115e-04
    2.84207007e-03 3.40452511e-03 -5.82403410e-03 -2.95693357e-03
    -3.00269667e-03 -1.70040736e-03 -2.76623690e-03 2.40243127e-04
    3.45465750e-03 3.46971513e-03 4.17469488e-03 -2.98346014e-04
    4.30114893e-03 -1.16296636e-03 1.57391024e-03 -8.15037463e-04
    -4.67925379e-03 1.94482459e-03 1.44261064e-03 4.78122570e-03
    3.42293736e-03 3.24783544e-03 -1.13245787e-03 1.52611686e-03
    -2.95648049e-03 -1.09536089e-02 -2.50149402e-03 1.79734896e-04
    5.59074152e-03 2.48134485e-03 -1.34556624e-03 -3.62636638e-03
    8.60304499e-05 2.24581431e-03 1.39385706e-03 7.84944836e-03
    6.43123919e-03 3.69951851e-03 1.06140645e-03 2.17162399e-03
    -7.00605859e-04 3.06877936e-03 4.12086723e-04 -5.38334623e-03
    7.34090107e-04 9.06103000e-04 1.01321600e-02 1.37907191e-04
    4.87350859e-03 3.62486724e-04 4.34436696e-03 -3.14149680e-03
    -1.02187209e-02 -5.83544560e-03 2.06550839e-03 7.02547189e-03
    5.92845771e-03 8.70171469e-03 -4.61091957e-04 5.72343823e-03
    4.15240385e-04 -8.13860446e-03 -1.20060658e-02 -3.96388490e-03
    4.89545614e-03 1.30894408e-02 4.43355413e-03 -1.64551471e-04
    7.10510323e-03 1.13973534e-03 -5.43056848e-03 -4.90315584e-03
    3.22817382e-03 1.20858345e-02 2.25036358e-03 3.45570967e-03
    1.50023680e-03 4.69322968e-03 1.05408870e-03 -7.21703144e-03
    -1.14775645e-02 3.71172093e-04 1.02169188e-02 5.48739685e-03
    7.38472492e-03 2.28075398e-04 8.86949338e-03 1.76871987e-03
    -7.03984359e-03 -8.19013920e-03 -1.54034945e-03 3.82938632e-03
    1.04652634e-02 7.26006925e-03 6.31461293e-03 1.14434278e-02
    4.93025919e-03 -9.06702038e-03 -5.54731581e-03 2.76015233e-03
    1.27202878e-03 2.39070784e-03 1.86828035e-03 3.01361270e-03
    8.16122163e-03 4.46473109e-03 -6.71262620e-03 -1.16616907e-02
    -8.45425006e-04 6.03048643e-03 2.52288277e-03 4.50676028e-03
    7.24856416e-03 1.06871352e-02 7.49094598e-03 -6.14487566e-03
    -1.01729613e-02 -3.30650582e-05 -1.37060834e-03 5.73373283e-04
    4.92941448e-03 1.30618056e-02 1.62739232e-02 8.89548473e-03
    -7.18193548e-03 -7.24844448e-03 -1.44315272e-04 -3.27737280e-03
    -3.82081792e-03 2.93932273e-03 1.28913140e-02 1.32165002e-02
    1.26607027e-02 2.14194250e-03 -7.15014245e-03 -5.46205230e-03
    -8.01514369e-03 -6.27512392e-03 6.33930229e-03 1.29371332e-02
    1.19047360e-02 6.74971938e-03 -4.42878762e-03 -9.68115591e-03
    -5.52456500e-03 -4.62550763e-03 -1.81171065e-03 7.22678436e-04
    1.23768635e-02 1.07314680e-02 9.26523563e-03 -1.60419833e-04
    -1.04398411e-02 -1.24279046e-02 -1.02730561e-02 -8.50609783e-03
    2.38966616e-03 1.23411017e-02 1.87846832e-02 2.13313438e-02
    7.59434467e-03 -2.87359837e-03 -5.41983778e-03 -4.22259606e-03
    -4.71489411e-03 -8.91979132e-03 3.59163200e-03 1.56699717e-02
    1.04952371e-02 -3.83421453e-03 -3.46378679e-03 -9.43437498e-03
    -8.69982131e-03 -1.09769329e-02 2.41677114e-03 1.09638544e-02
    1.70960203e-02 1.82891376e-02 4.51480038e-03 -8.10697116e-03
    -1.31088439e-02 -8.60825367e-03 -6.99287653e-03 -6.77719479e-03
    3.67416861e-03 1.37038669e-02 9.70102940e-03 -5.82036376e-03
    -1.01654725e-02 -1.44422408e-02 -1.09214745e-02 -1.15126260e-02
    -4.32614179e-04 1.49856973e-02 2.00347304e-02 1.71617251e-02
    2.21780082e-03 -3.95089824e-04 -3.75797995e-03 -6.57274248e-03
    -4.84718056e-03 1.64582685e-03 1.05205392e-02 1.33504895e-02
    6.51895825e-04 -4.04942036e-03 -9.13480017e-03 -5.83141204e-03
    -3.35401762e-03 -1.48062780e-03 -5.42510068e-03 5.09135984e-03
    1.13252345e-02 3.69691360e-03 9.66541178e-04 -1.77495996e-03
    -1.32156129e-03 -3.76026076e-03 -6.36103796e-03 -3.75501532e-03
    1.22070778e-03 7.48509401e-03 -6.15928904e-04 7.72251049e-04
    -6.28385926e-03 5.95619378e-04 -9.08756221e-04 -2.78567779e-03
    7.91392580e-04 6.03016233e-03 1.57248601e-02 5.10438811e-03
    -7.05064158e-04 -7.02137500e-03 -9.55249125e-05 -7.50892737e-04
    -3.42747965e-03 -4.66442248e-03 3.96873755e-03 4.42861859e-03
    2.11619888e-03 1.53121608e-03 1.89121187e-04 6.33791462e-03
    1.82218885e-03 -6.83565391e-03 -2.70595844e-03 1.57532049e-03
    8.17214977e-03 3.56543064e-03 7.94496480e-03 -2.64780619e-03
    3.76661168e-03 2.37530121e-03 -2.93791597e-03 -2.71645701e-03
    -1.76722428e-03 1.27263449e-03 2.90158787e-03 5.16557368e-03
    3.31927347e-03 7.32214376e-03 3.72054824e-03 -1.69616856e-03
    2.49719655e-04 8.12656991e-03 8.50329758e-04 -3.13865882e-03
    -1.25914917e-03 -9.75678733e-04 1.60652318e-03 2.43600039e-03
    -2.63175368e-03 7.10442662e-03 1.07500833e-02 4.34650155e-03
    -7.43830286e-04 2.33355537e-03 -2.00608955e-03 -1.98706659e-03
    1.52188598e-03 1.38195651e-03 -3.90669709e-04 3.24291922e-03
    -2.91354326e-03 -5.03517827e-03 5.07859327e-03 2.29905918e-03
    7.63614615e-03 7.31664710e-03 7.29035528e-04 4.27700672e-03
    1.01159327e-02 4.66008391e-03 -5.20008476e-03 1.19674997e-02
    4.49700002e-03 5.93518605e-03 7.83474278e-03 1.23089424e-03
    3.32612544e-03 3.29717924e-03 3.57264141e-03 -1.93285826e-03
    2.61640351e-04 -3.35266441e-03 -5.09203353e-04 -7.05363927e-04
    -1.19292515e-03 4.63034259e-03 7.94687588e-03 9.10956040e-03
    -2.57929409e-04 3.11850058e-03 -4.78607975e-03 1.26158074e-03
    -1.18939563e-04 -7.39240437e-04 2.90959142e-03 5.79148531e-03
    4.08079941e-03 -4.31770785e-03 7.05650821e-03 -4.00545821e-03
    5.06673474e-04 3.44862952e-03 -5.88532595e-04 1.12192202e-02
    1.30870705e-02 8.35204404e-03 -6.25838511e-05 5.31985844e-03
    -7.51984480e-04 3.58388363e-03 6.47449726e-03 3.44448863e-03
    6.17823610e-03 5.89858368e-03 4.98348894e-03 -3.94664181e-04
    -2.90200091e-03 3.97427566e-03 6.74968679e-03 8.10061581e-03
    8.24552681e-03 4.90438519e-03 1.24595203e-02 1.37770921e-02
    5.06134611e-03 -6.91438327e-04 -1.19183317e-03 5.14642242e-03
    5.37904119e-03 2.15318799e-03 1.98377902e-03 1.03877755e-02
    8.72959010e-03 -2.53995322e-03 -5.07848570e-03 -3.36986734e-03
    4.63794218e-04 6.10360596e-03 1.76649552e-03 -3.99627723e-03
    6.81170868e-03 5.75111341e-03 -1.70687749e-03 -2.96105427e-04
    3.15128942e-03 1.43791852e-03 6.07631681e-03 -1.88255263e-03
    4.87894891e-03 9.97652858e-03 8.90815165e-03 7.83096720e-03
    -8.97034945e-04 -3.37255653e-03 2.08826852e-03 2.85374327e-03
    -2.42450478e-05 4.16811230e-03 3.70503170e-03 4.47222777e-03
    7.04944774e-04 -7.15528522e-03 7.56848312e-04 8.99558980e-03
    9.20563098e-03 2.54299818e-03 1.80694310e-03 3.66792781e-03
    5.24115609e-03 5.07746451e-03 -1.60609707e-04 -5.64414542e-04
    2.71481695e-03 1.65512785e-03 -2.10944633e-03 9.70631465e-03
    5.18989516e-03 5.83331613e-03 3.83944763e-03 -5.62822074e-03
    -8.33306834e-03 7.01643992e-03 4.49506240e-03 4.76680277e-03
    4.41732380e-04 -7.54446664e-04 4.02452564e-03 -1.90410507e-03
    -3.11739254e-03 4.09789733e-04 9.73607227e-03 9.65896901e-03
    1.48145994e-03 -3.59374704e-03 -1.23671675e-03 2.60725524e-03
    -3.59973940e-03 -1.11579325e-03 -1.67482381e-03 6.93804072e-03
    1.05029503e-02 -3.10496357e-03 2.81238533e-03 4.04137326e-03
    6.50774501e-03 4.64538997e-03 -4.43800027e-03 -4.51348210e-03
    8.28966964e-03 7.25383777e-03 2.79213791e-03 -9.20878549e-04
    7.67332094e-04 1.13109930e-03 -2.67462735e-03 4.07171110e-03
    1.17643748e-03 1.01645514e-02 7.52923451e-03 -4.95237252e-03
    -3.33415088e-03 -8.18173226e-04 -2.73418357e-03 -6.92174910e-03
    -1.31290592e-03 -1.11969037e-03 8.88194982e-03 7.95763265e-03
    -6.44930464e-04 -7.06391147e-05 2.75339466e-03 -2.92124506e-03
    -1.18137905e-02 -6.40773866e-03 1.66063721e-03 1.89257246e-02
    1.50711043e-02 5.84950438e-03 -1.72118843e-03 -1.76371232e-05
    -1.61451369e-03 -3.55992047e-03 4.35967231e-03 8.10026657e-04
    9.93171521e-03 4.82076127e-03 1.12057824e-04 1.83372223e-03
    1.16960844e-03 -3.29573697e-04 -9.86190233e-03 -7.63721066e-03
    -7.17375951e-04 1.03189647e-02 4.61897952e-03 8.33670516e-03
    -5.74126747e-03 -5.72014228e-03 -5.64620085e-03 -5.22735016e-03
    -2.45067803e-03 6.39223866e-03 1.42932218e-02 1.07619511e-02
    -3.12083284e-03 -8.01128242e-03 -7.10526202e-03 -4.79208399e-03
    -3.97621235e-03 4.14716825e-03 1.35245156e-02 1.92061849e-02
    1.75894070e-02 1.70571831e-04 -6.80454681e-03 -3.80062382e-03
    -7.61008821e-03 -9.28898528e-03 -1.21466182e-02 -4.59986710e-04
    7.85753410e-03 2.46119965e-03 -2.91519356e-03 -6.64654560e-03
    -4.65417840e-03 -1.14026899e-02 -1.36211757e-02 -8.18613172e-03
    -2.15104455e-03 1.10902693e-02 8.95624049e-03 1.34383095e-04
    -3.92213138e-03 -2.26828153e-03 -3.20612709e-03 -5.74431568e-03
    -3.08821065e-04 1.19989610e-03 5.92162553e-03 6.68700878e-03
    -2.48613930e-03 6.90738438e-03 3.89435212e-03 -1.06354244e-03
    -1.94532354e-03 6.89587963e-04 5.73660340e-03 1.13042397e-02
    1.47750759e-02 1.24808960e-02 -4.19452647e-03 -3.71265225e-03
    -1.09136952e-02 -1.47981532e-02 -1.03889192e-02 -7.99022894e-03
    9.95747105e-05 1.33788830e-03 -4.00442397e-03 3.36008077e-03
    -6.67759567e-04 -9.60524939e-03 -1.33500136e-02 -1.28748128e-02
    -7.82629568e-03 3.95972515e-03 8.05533491e-03 9.19135939e-03
    1.92485313e-04 -1.61458459e-03 -3.03438748e-03 -3.76805291e-03
    -4.25165193e-03 2.92040757e-03 8.62922147e-03 1.05525749e-02
    7.50823319e-03 5.79977967e-03 5.00385650e-03 4.18180629e-04
    -2.61150999e-03 -2.63192854e-03 -3.05355131e-03 4.88714967e-03
    1.11356480e-02 4.07688506e-03 8.66744027e-04 -2.53964309e-03
    -6.58523710e-03 -1.06074447e-02 -1.21558942e-02 -7.94217736e-03
    4.34201676e-03 7.47301988e-03 5.45806251e-03 6.25436241e-03
    3.79693159e-03 -3.40641709e-03 -4.60619852e-03 -6.09523011e-03
    -1.04190456e-02 2.53363117e-03 8.10514763e-03 7.38753297e-04
    2.95000570e-03 5.58748515e-03 7.25881662e-03 9.03583714e-04
    -2.88651255e-03 -3.78154241e-03 4.58499824e-04 7.44479010e-03
    -3.17277387e-04 1.10424601e-03 9.04651172e-03 6.55511487e-03
    9.92785906e-04 -6.33138325e-03 -5.36795147e-03 2.96984625e-04
    6.47663139e-03 -8.18909029e-04 2.98553635e-03 7.88709987e-03
    2.46026111e-03 -3.34056839e-03 -6.15524314e-03 -8.76598712e-03
    -2.17021117e-03 4.86355741e-03 -3.18644289e-03 4.32333630e-03
    1.35408305e-02 8.34599882e-03 -6.27032365e-04 -7.62567483e-03
    -5.52967284e-03 -6.10582763e-03 8.39833461e-04 -3.36545822e-03
    4.03162092e-03 1.32819684e-02 1.11323604e-02 4.04874561e-03
    -5.57112694e-03 -4.41094674e-03 2.49963516e-04 5.36055397e-03
    -8.74693971e-04 5.52380318e-03 1.39670419e-02 1.55142527e-02
    2.78126728e-03 -6.30062539e-03 -7.91008119e-03 -1.55311066e-03
    -1.54638058e-03 -2.84337671e-03 5.91684878e-03 1.83432195e-02
    1.16264401e-02 -6.11046620e-04 -8.63450393e-03 -6.14638720e-03
    -6.87753269e-03 -6.80122932e-04 -4.96349530e-03 2.21977779e-03
    1.01287980e-02 1.40676284e-02 -4.22270410e-03 -1.08133005e-02
    -1.15015926e-02 -9.53884423e-03 -7.29691982e-03 -7.69396406e-03
    1.37677565e-02 1.89822651e-02 1.86868794e-02 8.18394963e-03
    -2.73466436e-03 -6.73980918e-03 -7.75742403e-04 3.32224794e-04
    2.78386776e-03 1.23287376e-03 9.30802710e-03 1.51832392e-02
    1.22176381e-02 2.05439702e-03 -5.31253172e-03 -8.03555548e-03
    -4.91204672e-03 -8.85151140e-03 1.50862429e-03 7.29705114e-03
    1.24261146e-02 -2.39605833e-05 -6.09401753e-03 -1.01360697e-02
    -3.98350973e-03 -3.38672940e-03 -6.59829145e-03 -4.92398906e-03
    3.26353894e-03 7.87100475e-03 3.63360625e-03 -1.45044411e-03
    -8.69753584e-03 -5.87397115e-03 -4.31329524e-03 -1.29372627e-02
    5.26018161e-03 1.22126155e-02 2.18604505e-02 1.76795814e-02
    1.09438254e-02 -2.98939040e-03 -9.07177478e-03 -4.18811897e-03
    -6.46540057e-03 -6.29728136e-04 6.08732179e-03 1.22492472e-02
    8.60897452e-03 -3.18181956e-05 -9.72170290e-03 -9.24656540e-03
    -2.43495358e-03 -6.89498847e-03 -1.27314311e-03 7.59843504e-03
    1.33493952e-02 8.60268530e-03 6.69942610e-03 -4.56228806e-03
    -4.63839248e-03 -1.08306808e-03 -7.88611732e-03 -3.21572064e-03
    3.90501157e-03 7.48742046e-03 2.46183272e-03 -2.59512197e-03
    -5.23133902e-03 -9.78904543e-04 -3.36967438e-04 -6.80408068e-03
    -1.95047841e-03 6.43116515e-03 1.18165156e-02 3.95231228e-03
    -1.21168979e-03 -3.52510484e-03 -6.62608014e-04 1.00798346e-03
    -6.15298096e-03 -2.37704883e-03 6.07601879e-03 1.03624230e-02
    4.86771856e-03 6.84566621e-05 -7.82643474e-05 1.39820867e-03
    -1.13759714e-03 -5.41570969e-03 -1.64911652e-03 8.37784633e-03
    1.16361594e-02 5.32518933e-03 3.03027430e-03 -6.97892683e-04
    2.74419808e-03 3.54950852e-03 -6.04381645e-03 -1.23142637e-03
    8.42857920e-03 1.32307578e-02 5.36112348e-03 7.43998354e-03
    4.06770501e-03 7.15509930e-04 6.59512240e-04 -2.63502053e-03
    -4.50097909e-03 3.66950803e-03 4.10243915e-03 1.62601541e-03
    4.81465925e-03 4.23599267e-03 2.51648179e-03 7.77262205e-04
    -5.80423465e-03 -1.89115829e-03 -1.41361449e-03 2.17702473e-05
    -6.16155914e-04 2.57143425e-03 4.78105713e-03 5.87367686e-03
    1.96977914e-03 6.90823217e-05 -4.38938988e-03 5.48160449e-03
    6.80286763e-03 2.10247259e-03 7.10680615e-03 6.10841485e-03
    3.77851329e-03 6.24541612e-03 -1.83997792e-04 2.13938765e-03
    7.25741778e-03 8.13565869e-03 2.41875090e-03 8.18758458e-03
    1.95316831e-03 7.74369994e-03 1.04398141e-02 6.28167344e-03
    -3.16688721e-03 -3.12375301e-03 -3.29779205e-03 -5.26512275e-03
    2.68534268e-03 -1.94526475e-03 6.77121663e-03 5.12352679e-03
    1.94066344e-03 -1.71949039e-03 4.95198322e-03 2.34508654e-03
    -1.34368613e-03 1.29097048e-02 3.50084086e-03 3.53699899e-03
    5.21981949e-03 -3.73589690e-03 9.45197011e-04 7.47248624e-03
    4.03130800e-03 -1.17404130e-03 6.36347570e-03 -2.35421490e-03
    4.97804116e-03 6.79561263e-03 8.00013542e-03 9.56421791e-05
    1.00109093e-02 6.94639795e-03 4.47495282e-03 1.30586382e-02
    3.40555515e-03 2.64805160e-03 5.78456325e-03 7.51189014e-04
    2.78790132e-04 5.02050715e-03 2.58427463e-03 -1.42837025e-03
    7.93909281e-03 -3.04067624e-03 -3.49376095e-03 6.30261260e-04
    -3.18396068e-03 3.77731631e-03 6.32257480e-03 5.05522313e-03
    -3.44177196e-03 5.63586829e-03 -8.93926597e-04 -3.72774142e-04
    4.07148572e-03 1.08994520e-03 -1.01992674e-03 3.10987397e-03
    2.30048990e-05 1.25836418e-03 6.32015616e-03 1.42567544e-04
    -1.34196645e-03 5.65011799e-03 -3.11346329e-03 1.74256309e-03
    4.65876609e-03 2.86228373e-04 -5.48219723e-05 1.08589455e-02
    3.99005041e-03 5.50221000e-03 1.08792791e-02 3.74087773e-04
    -1.19507158e+00</SVMDetector></HOG>
</opencv_storage>
