<?xml version="1.0"?>
<opencv_storage>
<star type_id="opencv-object-detector-hog">
  <winSize>
    96 160</winSize>
  <blockSize>
    16 16</blockSize>
  <blockStride>
    8 8</blockStride>
  <cellSize>
    8 8</cellSize>
  <nbins>9</nbins>
  <derivAperture>1</derivAperture>
  <winSigma>4.</winSigma>
  <histogramNormType>0</histogramNormType>
  <L2HysThreshold>2.0000000000000001e-01</L2HysThreshold>
  <gammaCorrection>1</gammaCorrection>
  <nlevels>64</nlevels>
  <signedGradient>0</signedGradient>
  <SVMDetector>
    -2.38329126e-03 2.23967503e-03 3.48644541e-03 -5.68744377e-04
    -3.34393559e-03 -9.31855233e-04 -1.84230230e-04 5.65729616e-03
    -6.98952645e-04 3.01862927e-03 1.05971536e-02 8.79217591e-03
    1.79276941e-03 2.43712813e-04 -1.65135064e-03 2.42133290e-04
    1.46585214e-03 2.46489374e-03 2.64197966e-04 6.08816417e-03
    4.14436217e-03 2.82499427e-03 1.16791343e-05 -2.68848642e-04
    3.80788930e-03 7.77986692e-03 1.32367728e-04 3.36954626e-03
    5.23933675e-03 6.11577276e-03 1.63136097e-03 5.36715658e-03
    2.56757415e-03 3.02175106e-03 2.91400473e-03 2.12452462e-04
    1.94170536e-03 1.22598121e-02 7.32859736e-03 -6.28920214e-04
    1.10105460e-03 -2.02697748e-03 8.88139009e-04 -9.43265681e-04
    1.65736419e-03 -7.37192750e-04 8.25372245e-03 7.93669466e-03
    -1.40551373e-03 7.83270504e-03 -1.25342014e-03 -2.59175734e-03
    -2.66831880e-03 -3.78172426e-03 1.22145022e-04 2.36603897e-03
    3.27354600e-03 -4.06511128e-03 3.08902090e-04 1.68891775e-03
    7.47822365e-03 4.80373576e-03 1.68395531e-03 -2.34990221e-04
    1.09346025e-03 1.70651852e-04 -5.13485353e-03 6.36546686e-03
    9.13411670e-04 1.12537229e-02 4.65662731e-03 4.72962536e-04
    -1.27474708e-03 4.57783090e-03 4.47848206e-03 -4.81951865e-04
    1.19562931e-02 3.89821967e-03 -1.12651451e-03 -2.13300460e-03
    -3.46795190e-03 -1.01459923e-03 1.95474247e-04 -5.40485838e-03
    -5.44692809e-03 3.08379356e-04 -3.22646485e-03 1.03244011e-03
    1.34955312e-03 -2.15205457e-03 7.16814818e-03 5.56512596e-03
    -1.75857125e-03 -1.19104178e-03 9.69895720e-03 3.95130785e-03
    6.89295866e-03 4.59254812e-03 2.39674025e-03 1.75174733e-03
    5.56050427e-03 -6.82557095e-03 -5.36669465e-03 5.83025767e-03
    -1.97417289e-03 5.35548944e-03 8.08135141e-03 3.27013386e-03
    -1.44628878e-03 1.58534653e-03 5.39313827e-04 -2.41393107e-03
    -2.28432752e-03 -4.72102966e-03 -3.00278887e-04 6.50820741e-03
    8.71653843e-04 1.00853539e-03 1.76651857e-03 2.18041544e-03
    -1.34354713e-03 -7.43684638e-03 -4.48652636e-03 -2.86345580e-03
    5.68906171e-03 6.14575925e-04 8.30811798e-04 7.31469505e-03
    3.26493406e-03 -3.07532772e-03 2.53690232e-04 -4.36719647e-03
    1.51449570e-03 8.21661390e-03 2.85937614e-03 7.29716616e-03
    7.16501288e-03 8.58063903e-03 -2.61501712e-03 -7.54741719e-03
    -6.43319264e-03 -1.47411798e-03 5.49685676e-03 6.40419405e-03
    1.80701748e-03 2.18584505e-03 4.31867596e-03 2.59664259e-03
    -6.67550659e-04 -3.33929376e-04 4.35787544e-04 2.48694164e-03
    -1.84093820e-04 -2.87222769e-03 4.73818230e-03 9.50274803e-03
    2.72920541e-03 6.03350066e-03 -2.24455446e-03 -1.77703638e-04
    -1.29295641e-03 -3.39464494e-03 5.69499843e-03 6.55169925e-03
    8.75903852e-03 5.74257399e-04 -9.47054999e-04 -1.66919956e-03
    4.94530378e-03 6.26579951e-03 7.32970750e-03 -9.24127598e-05
    6.55966019e-03 9.39653255e-03 -2.67250580e-03 3.07797641e-03
    -5.92911150e-03 2.09640549e-03 1.60863728e-03 3.93958180e-04
    -5.70762344e-03 2.51565757e-03 5.95849659e-03 5.52914990e-03
    5.01827477e-03 -4.28399257e-03 -3.27617489e-03 -3.61287640e-03
    -5.45785716e-03 -2.41735345e-03 3.55033157e-03 6.67434372e-03
    8.40978883e-03 1.16631761e-02 -5.69078326e-03 -6.48785522e-03
    -1.76102947e-03 -1.55742350e-03 3.75043892e-05 4.19162959e-03
    7.44468393e-03 7.27442850e-04 5.01115574e-04 -6.35237666e-03
    -3.82846920e-03 -3.57185956e-03 -2.46291608e-03 -7.78904534e-04
    6.63023768e-03 8.86447635e-03 9.64778569e-03 1.16716335e-02
    -5.56656905e-03 -4.85938601e-03 1.56869658e-03 -5.47989330e-04
    -4.45589144e-03 -2.78272759e-03 3.93598835e-04 -4.14717942e-03
    9.29802249e-04 -3.85261350e-03 -2.17472552e-03 -1.72144081e-03
    -4.63564740e-03 -2.86902254e-03 -2.62363232e-03 3.86801804e-03
    7.00125354e-04 7.27447867e-03 8.45717825e-03 8.42792727e-03
    5.54061588e-03 -5.05531998e-03 -4.72326670e-03 2.22960254e-03
    3.09035322e-03 -1.28739362e-03 2.59458390e-03 -3.38231446e-03
    -3.37281520e-03 -5.71589277e-04 -3.40882735e-03 -6.84142951e-03
    -1.95669499e-03 5.25927637e-03 6.79089921e-03 1.05350371e-02
    1.20870760e-02 6.13919226e-03 5.82319358e-03 -1.69688498e-03
    -8.26254021e-03 -5.97245106e-03 -5.17094799e-04 -3.07331770e-03
    -9.72984126e-04 -2.62885820e-04 3.35029396e-03 2.12808512e-03
    -7.99580012e-03 -1.09677380e-02 -6.81735948e-03 -1.35013275e-03
    -3.25843622e-03 -3.53950821e-03 -8.59668711e-04 5.67493308e-03
    -1.26991631e-03 -7.28229806e-03 -9.64063406e-03 -4.59089037e-03
    1.22444378e-03 -6.51814393e-04 3.94268101e-03 6.47961767e-03
    3.39666964e-03 6.12928416e-04 -5.79986162e-03 -6.04020571e-03
    -2.98562838e-04 9.87034664e-03 4.30559553e-03 3.16639943e-03
    8.17286875e-03 3.70647805e-03 6.45713531e-04 -6.27868855e-03
    -1.08284000e-02 -6.36972208e-03 -3.86403129e-03 -5.48883807e-03
    -9.39432252e-03 -2.67236540e-03 3.77878617e-03 8.68599804e-04
    -6.55482383e-03 -8.32145102e-03 -3.74736777e-03 4.61092079e-03
    -1.15690019e-03 -1.54320896e-02 -4.49009845e-03 -1.77292226e-04
    6.01698412e-04 -6.92735240e-03 -4.68652928e-03 -5.20181097e-03
    8.12020560e-04 2.32005748e-03 -7.97127932e-03 -1.68988504e-03
    4.37856093e-03 3.82106309e-03 -1.46757648e-03 -6.88387919e-03
    -8.26481264e-03 -5.78992185e-04 -3.00362147e-03 -7.63682742e-03
    -3.39194085e-03 5.27889514e-03 1.12154000e-02 -2.11021281e-03
    -3.30010522e-03 -2.96528940e-03 3.83017305e-03 2.56977836e-03
    -7.64436834e-03 -1.25255506e-03 3.40412650e-03 3.28056724e-03
    -2.48753140e-03 -8.68517254e-03 -8.24453961e-03 -4.88028862e-03
    -5.99243818e-03 -1.04599567e-02 -2.29872623e-03 -1.43031392e-03
    -2.58000684e-03 -5.77221019e-03 -2.75732507e-03 -7.17750657e-03
    2.51978380e-03 -4.69049774e-05 -3.84941977e-03 3.54118971e-03
    8.27458687e-03 1.62294544e-02 5.41841472e-03 -2.17018952e-03
    -1.10191731e-02 -1.13150924e-02 -7.44025037e-03 -6.77352352e-03
    7.40171818e-05 3.35513940e-03 7.34990649e-03 4.79943678e-03
    -6.51134131e-03 -5.23985736e-03 -4.93298983e-03 -5.92213497e-03
    1.39431038e-04 5.31313010e-04 -2.27767250e-05 -1.70492614e-03
    -4.46209172e-03 -5.07877162e-03 -4.18638159e-03 -7.17755035e-03
    -7.90699571e-03 -1.08564517e-03 -4.46097273e-03 -4.41877451e-03
    -2.75792158e-03 -5.30978898e-03 -4.80951695e-03 -6.32546516e-03
    -5.13524376e-03 -2.33198213e-03 6.85629947e-03 1.19312834e-02
    9.37470328e-03 3.17723793e-03 -1.99454618e-04 -1.20040041e-03
    2.58373679e-03 7.39686890e-04 -7.87423167e-04 5.20144182e-04
    1.18399749e-03 -3.02301440e-03 -2.43793917e-03 -1.43346516e-03
    -4.12683841e-03 -2.28594174e-03 -3.17337946e-03 -5.07461047e-03
    -1.31826114e-03 -5.71359601e-03 -1.46101811e-03 -1.80844008e-03
    -3.87277920e-03 1.44293474e-03 5.63848577e-03 2.13294756e-03
    -5.38086379e-03 -6.87946286e-03 -1.18490029e-02 -4.74009244e-03
    -5.34468517e-03 -2.26885383e-03 2.88991549e-04 1.04806209e-02
    4.81835427e-03 -9.93343536e-04 2.89308303e-03 -2.66657816e-03
    -2.27028839e-04 1.48436590e-03 -2.29116087e-03 1.17289880e-02
    1.59895085e-02 1.65992435e-02 -1.09876262e-03 -9.29360860e-04
    -1.09189004e-02 -4.89414018e-03 -2.58460385e-03 1.42401643e-03
    -1.64036683e-04 5.49134798e-03 -1.03659264e-03 -4.68699820e-03
    -4.55586938e-03 -5.25396923e-03 -1.06556632e-03 -3.25300172e-03
    -3.52172274e-03 -6.80347998e-03 1.08782377e-03 7.37513998e-04
    -5.41693624e-03 8.29693090e-05 -2.70595541e-03 -9.82297235e-04
    -5.12978667e-03 -7.82898720e-03 1.36742890e-02 1.38452742e-02
    1.27568683e-02 7.52971755e-05 -3.51334061e-03 -6.11863146e-03
    -6.29602058e-04 1.28575135e-03 4.44894796e-03 2.24855659e-03
    5.75916376e-03 3.54540977e-03 -1.51410210e-03 -1.44014682e-03
    -2.71296944e-03 1.18942000e-03 -2.12327903e-03 -3.25731956e-03
    -3.50668514e-03 6.82061631e-03 3.98310507e-03 9.37508084e-05
    1.01589784e-03 -3.18037556e-03 -9.43881692e-04 -2.61149043e-03
    -5.67878596e-03 -2.45494116e-03 7.77581241e-03 2.66070222e-03
    1.40607730e-03 -2.75153870e-04 -2.96503608e-03 2.78702413e-04
    -2.63814302e-03 -6.67919219e-03 8.02389113e-05 1.27003733e-02
    9.48397536e-03 2.17305543e-03 4.65796469e-03 -1.68549747e-03
    -1.57724658e-03 -2.39675376e-03 -1.75555714e-03 -9.60570469e-04
    1.45108160e-02 8.46255478e-03 5.39868185e-03 1.94680481e-03
    -6.33922406e-03 -5.06467986e-05 -1.39008532e-03 -1.91773451e-03
    -1.95052894e-03 5.29139722e-03 3.34036583e-03 1.80282432e-03
    2.34406022e-03 -3.62823135e-03 3.73374159e-03 -9.44414351e-04
    -5.60577214e-03 1.05019915e-03 2.92585100e-05 -3.01303365e-03
    -4.75254282e-03 -8.61025939e-04 -2.75650667e-03 3.80080030e-03
    6.63553010e-06 -4.76592826e-03 9.64652514e-04 1.00610033e-02
    4.79139760e-03 4.08635661e-03 5.36101637e-03 -2.69301399e-03
    4.81157890e-03 7.60374183e-04 -2.37071491e-03 7.74690555e-03
    4.90109157e-03 5.81761997e-04 -1.00021565e-03 -9.52839910e-04
    -1.15875970e-03 5.97069599e-03 3.58614442e-03 9.72323527e-04
    1.98328774e-03 -2.19123950e-03 -1.68085378e-03 -8.58824793e-03
    -2.35350663e-03 -4.86977911e-03 1.32783651e-04 1.36423961e-03
    -1.09176966e-03 2.49944278e-03 -7.53779081e-04 1.52753352e-03
    -6.02077367e-03 -6.12840464e-04 -9.73838475e-03 1.45118497e-03
    -3.77855205e-04 2.91726063e-03 9.35322233e-03 6.67721906e-04
    1.29275490e-03 -7.42139248e-03 -2.66101374e-03 -4.63830074e-03
    5.69672836e-03 5.81850344e-03 6.40460895e-03 2.13927240e-03
    1.99462706e-03 4.84128064e-03 -3.70321004e-03 2.75515020e-03
    -9.36787669e-03 9.60539095e-03 4.56960872e-03 3.07621411e-03
    8.75568716e-04 -1.65960705e-03 1.91921287e-03 -4.50325804e-03
    -3.10353329e-03 -6.94477558e-03 2.39261054e-03 1.63705822e-03
    2.07443628e-03 -1.29931534e-04 7.19151925e-04 3.06831580e-03
    -2.00683833e-03 4.66823019e-03 -2.18544947e-03 2.16016383e-03
    2.46090023e-03 3.35021381e-04 3.56785511e-03 4.32091270e-04
    4.33898019e-03 -3.54580069e-03 -2.36475491e-03 -8.39866139e-03
    7.26739503e-03 3.15746036e-03 2.48098164e-03 6.76593604e-03
    3.54677089e-03 2.73171603e-03 -2.88844761e-03 -3.79750598e-03
    -3.84909171e-03 7.57647352e-03 4.41125967e-03 3.95515794e-03
    -8.41884594e-03 -9.06291389e-05 -6.21790590e-04 -4.20937454e-03
    4.84914565e-03 -3.53329745e-03 -1.42029917e-03 -4.87285014e-03
    -8.74428172e-03 -6.38815947e-03 4.70410753e-03 5.98805817e-03
    -3.12450598e-03 6.59407256e-03 4.88814898e-03 1.48006994e-03
    -6.19504787e-03 -8.14214814e-03 8.89754301e-05 1.09653804e-03
    -3.58563545e-03 -5.42413397e-03 -3.88817559e-03 -4.09160182e-03
    4.45636827e-03 4.01268993e-03 1.70209946e-03 5.24712214e-03
    6.13377895e-03 3.31104430e-03 1.59299676e-03 6.73172669e-03
    3.89147084e-04 7.73718068e-03 4.55207704e-03 -8.41582892e-04
    -7.72321073e-04 6.38007047e-03 6.45907922e-03 -2.11994280e-03
    2.13642069e-03 4.21715807e-03 5.24023501e-03 -5.85325668e-03
    -5.09226136e-03 -2.33202637e-03 2.87075713e-03 8.58667586e-03
    3.60037247e-03 4.67233500e-03 -1.80729665e-03 2.75907782e-03
    -4.93424805e-03 -5.40744839e-03 6.50511729e-03 7.85727240e-03
    6.16734382e-03 4.26287297e-03 2.00107275e-03 -3.23740160e-03
    1.05258985e-03 -3.84864165e-04 5.75908634e-04 -1.84120508e-04
    2.41363933e-03 8.83481186e-03 2.31223344e-03 3.88739281e-03
    -1.05976444e-02 8.43700313e-04 -2.66358652e-03 -2.04486470e-03
    7.02728867e-04 9.22252610e-03 7.04678940e-03 5.39336819e-03
    5.12494764e-04 -1.44972047e-03 2.84538209e-03 7.05841754e-04
    -3.17586167e-03 -4.26979084e-03 1.10457267e-03 4.88697598e-03
    4.84502222e-03 5.98083017e-03 4.92561050e-03 5.55133075e-03
    1.84598682e-03 -4.42079455e-03 2.63513904e-03 9.07581672e-03
    1.27510130e-02 3.93940043e-03 -3.43315490e-03 2.52291939e-04
    2.50148051e-03 -1.97002781e-03 -1.10302784e-03 -7.98549876e-03
    1.05295575e-03 9.15868022e-03 7.27713108e-03 4.10242146e-03
    3.61953257e-03 2.86848261e-03 1.39837095e-03 -6.67586317e-03
    -6.02727151e-03 -2.18774262e-03 2.44953739e-03 -2.79575579e-05
    3.20757832e-03 4.93466854e-03 7.61873601e-03 7.68275280e-03
    -1.75371021e-03 -3.77367157e-03 -2.99914414e-03 -2.62236828e-03
    -3.04328860e-03 6.03449112e-03 4.82732244e-03 8.66807811e-03
    5.90230525e-03 -7.65663688e-04 -6.55651325e-03 2.44886894e-03
    7.73698930e-03 3.84815922e-03 5.05827880e-03 1.58019026e-03
    1.79313065e-03 4.55640815e-03 -2.61903182e-03 -4.94914688e-03
    -2.14278160e-04 -3.05188994e-04 -1.98398042e-03 6.92435214e-03
    4.66363458e-03 4.57750633e-03 3.71293467e-03 1.31643342e-03
    4.61356342e-03 2.42676889e-03 -2.73807184e-03 2.32935345e-04
    2.74643372e-03 1.59404485e-03 5.78086823e-03 3.19239986e-03
    1.10294705e-03 2.66565266e-03 7.88813271e-03 8.59219363e-05
    -4.97025845e-04 1.51452655e-03 -7.03949621e-03 1.44924200e-03
    2.14235322e-03 -1.11869210e-03 2.75243283e-03 4.51532472e-03
    8.83233559e-04 1.07959891e-03 6.54756499e-04 6.04860776e-04
    3.55374767e-03 2.76344176e-03 3.92253092e-03 4.18588007e-03
    1.12698721e-02 6.83561759e-03 7.30755273e-03 -4.82190121e-03
    -7.32328370e-03 -1.82280643e-03 1.39889144e-03 3.60863074e-03
    7.84972915e-04 7.83026684e-03 5.48213068e-03 -1.77080790e-03
    4.03318467e-04 -7.54635036e-03 -7.52345950e-05 2.85112625e-03
    3.52357252e-04 4.30465024e-03 7.51619739e-03 4.73083556e-03
    -2.45926902e-03 -7.28180492e-03 -7.00450037e-03 7.06976862e-04
    -4.09048189e-05 1.43121881e-03 2.93425098e-03 1.03842104e-02
    8.89881980e-03 5.70456870e-03 -1.04799098e-03 -2.69225333e-03
    1.90548948e-03 2.37966515e-03 -4.96422406e-04 -8.75483907e-04
    8.19138531e-03 6.84628775e-03 4.51857829e-03 -3.40403826e-03
    -4.18155512e-04 4.20461502e-03 -1.25802471e-03 -7.30461162e-03
    -4.57885253e-05 3.46456235e-03 2.65460787e-03 -1.52806041e-03
    -5.06869378e-03 -2.57601426e-03 4.72800992e-03 1.77463610e-03
    8.78355640e-04 9.75408067e-04 5.95735805e-03 3.90002201e-03
    -2.70182989e-03 -2.82993191e-03 -5.58192935e-03 1.14995142e-04
    2.12361012e-03 7.52817141e-04 -4.39732196e-03 4.21575410e-03
    2.83597503e-03 9.45709087e-03 7.56467599e-03 4.66314005e-03
    3.40806460e-03 -1.25435391e-03 -5.72928693e-03 2.53604236e-03
    1.05420230e-02 7.01863365e-03 6.83195191e-03 4.56341682e-03
    5.69026824e-03 7.04980048e-04 2.77771498e-03 -1.21072726e-03
    3.17769853e-04 2.45100772e-03 6.08188612e-03 -7.97381159e-04
    -8.21050163e-03 -6.79308502e-03 -6.06900081e-03 -3.27026192e-03
    -3.62479780e-03 1.54553482e-03 2.92350398e-03 8.34683888e-03
    4.30879090e-03 -5.13059273e-03 -2.78637931e-03 -3.26679903e-03
    -1.23614643e-03 4.10411879e-03 3.64303589e-03 6.76747411e-03
    6.47075800e-03 5.60913049e-03 -5.09922998e-03 -9.12396121e-04
    -4.11854917e-03 -1.54308786e-04 5.44257928e-04 1.07024675e-02
    4.89653507e-03 3.83692561e-03 3.51676834e-03 -5.19559346e-03
    1.16442505e-03 3.57549428e-03 5.74034220e-03 6.44536177e-03
    -3.19255050e-03 2.39940314e-03 9.71850764e-04 -3.26045579e-03
    -5.36155561e-03 -5.59316762e-03 -8.49546585e-03 -6.01638807e-03
    -7.71903957e-04 -8.25755950e-03 1.86094985e-04 1.81937683e-03
    9.14241374e-03 8.37815367e-03 9.77366883e-03 -3.48966406e-03
    -2.23105610e-03 -5.51443500e-03 5.19350450e-03 4.24564769e-03
    -1.22540991e-03 -5.97981643e-03 -7.25943502e-03 -3.89079517e-03
    -1.05907780e-03 3.20408936e-03 5.03466977e-03 -6.70566736e-03
    5.53898606e-03 5.76706091e-03 5.38354553e-03 3.44751170e-04
    3.57245095e-03 -9.63326136e-04 4.45361808e-03 -1.03565829e-03
    -1.12955077e-02 -6.87732408e-03 -4.32720920e-03 3.18000116e-03
    3.80432094e-03 8.62044282e-03 3.59949510e-04 -4.32422990e-03
    -9.56122298e-03 -9.29627568e-03 -4.15914739e-03 4.39396827e-03
    8.25541280e-03 -1.06570777e-03 5.22400392e-03 6.46711851e-04
    -2.03188416e-03 -1.11602265e-02 -1.25974454e-02 -7.65377702e-03
    -5.26116695e-04 7.33722514e-03 3.00839660e-03 3.13902739e-03
    1.72720430e-03 2.33922107e-03 -8.18139035e-03 -1.36732804e-02
    -7.85948709e-03 7.59465061e-03 1.52154202e-02 7.82100856e-03
    7.85389915e-04 -2.47743144e-03 -4.42512101e-03 -1.43315764e-02
    -6.38549263e-03 -3.63718695e-03 1.07336498e-04 2.99508148e-03
    -3.54168471e-03 -1.89719209e-03 1.87572301e-03 2.31599901e-03
    -6.12217188e-03 -9.86438803e-03 -8.89828242e-03 -8.06689670e-04
    -8.76958249e-04 -1.71431457e-03 -2.74929171e-03 4.64215782e-03
    6.37624227e-03 -2.15671328e-03 -1.06579764e-02 -4.72878804e-03
    5.37575968e-03 9.46855266e-03 2.60929763e-03 -4.89279861e-03
    -4.31141770e-03 -4.84667392e-03 -1.16475523e-02 -7.22700404e-03
    -2.82490696e-03 8.96053296e-03 8.20233300e-03 2.15365179e-03
    -4.61004302e-03 3.95577110e-04 -1.22703367e-03 -7.07015302e-03
    -9.67693888e-03 -7.57139549e-03 -2.68491055e-03 -7.07402578e-05
    -1.07703870e-03 2.56371661e-03 5.00052655e-03 5.33006573e-03
    -2.45367875e-03 -7.34331552e-03 -6.05398836e-03 -1.05964039e-02
    -8.94887093e-03 -2.17078114e-03 2.95535102e-03 1.92252081e-03
    -3.04765673e-03 -7.45329913e-03 -6.68761786e-03 1.62678468e-03
    3.18168127e-03 3.00822337e-03 4.40499280e-03 2.55363691e-03
    6.85208663e-03 2.95469945e-04 -3.45514924e-03 -3.32613569e-03
    2.66190502e-03 -9.89517066e-05 -3.41502018e-03 -3.15727713e-03
    6.45484310e-03 3.83270625e-03 -1.68847269e-03 -5.97045384e-03
    -9.10467375e-03 -6.27526315e-03 -9.13948845e-03 -5.83603978e-03
    4.97510075e-04 7.49772880e-03 3.30996793e-03 -4.83706687e-03
    -8.64523929e-03 -8.02880246e-03 -1.57021685e-03 -3.32871662e-03
    -8.67117383e-03 -8.50633811e-03 -1.83108868e-03 -2.51064403e-03
    -4.35600523e-03 -5.82031580e-03 -3.05689871e-03 5.57405362e-03
    2.98115192e-03 -3.73687106e-03 -1.15803024e-03 8.33817013e-03
    1.43836252e-03 -1.10303273e-03 -6.63130963e-03 -6.37857290e-03
    5.05829044e-03 -2.46342272e-04 -6.32585306e-03 -9.93767567e-03
    -4.70172660e-03 -6.99524768e-04 1.52433326e-03 -3.91772576e-03
    -3.61247500e-03 5.03693987e-03 1.07622403e-03 -4.27198689e-03
    -4.28003230e-04 -6.64023543e-03 -4.29953029e-03 -1.84334640e-04
    -3.84882092e-03 -9.55765776e-04 5.26656397e-03 3.01060500e-03
    -8.08698498e-03 -5.69254439e-03 -8.19762331e-03 -6.06006524e-03
    -1.53952371e-03 -4.16306639e-03 -3.06277676e-03 1.83768268e-03
    -5.20018395e-04 -1.99475535e-03 -3.79735813e-03 -5.24223363e-03
    -3.32586496e-04 7.59949628e-03 6.10090001e-03 -4.41487459e-03
    -1.35437085e-03 -2.58696801e-03 -6.05327124e-03 -3.52258817e-03
    -6.60441630e-03 -6.65046507e-03 4.26496286e-03 2.34957854e-03
    3.43283894e-03 6.96568424e-03 6.67772163e-03 -4.03956557e-03
    -6.27557514e-03 -8.18212051e-03 -2.18247436e-03 -3.88803717e-04
    -2.15998478e-03 2.62967224e-05 8.97184073e-04 2.18309648e-03
    -3.27914348e-03 -5.27123315e-03 -7.82179087e-03 -1.13778445e-03
    -4.29640478e-03 -5.03445230e-03 -2.75811180e-03 1.38900278e-03
    5.67021780e-03 -2.51644873e-04 -1.97729841e-03 -5.00850845e-03
    -8.75514874e-04 7.25326478e-04 -3.86548671e-03 1.92398648e-03
    5.95313078e-03 1.00949928e-02 2.77678808e-03 -1.97182316e-03
    -4.41146456e-03 2.80725048e-03 -4.22068872e-03 -3.97654762e-03
    -4.27374104e-03 -1.31726018e-04 4.34817933e-03 -1.10917026e-05
    1.72366330e-03 -5.71440766e-03 -3.46998218e-03 -3.39232222e-03
    -5.54759894e-03 -4.41125175e-03 1.46398880e-03 3.29832634e-04
    -1.99261797e-03 2.08262238e-03 -6.39834814e-03 -6.23774156e-03
    -5.07193664e-03 -5.43053960e-03 -4.44388250e-04 3.05312010e-03
    8.69472232e-03 5.46638900e-03 3.91169917e-03 -3.72162205e-03
    4.22123587e-03 2.34408863e-03 4.79451264e-04 6.38265454e-04
    -5.38092689e-04 -2.31157383e-03 -1.49568124e-03 6.23311102e-03
    2.10870872e-03 6.43327832e-03 7.03504588e-03 4.75346856e-03
    -2.43679358e-04 4.58416576e-03 7.86618621e-04 -2.69174459e-03
    4.03655600e-03 -3.57756251e-03 -1.17082382e-03 -1.46856904e-03
    -5.80636645e-03 -2.18929039e-04 -2.11597211e-03 -7.03572805e-05
    -4.56270110e-03 1.78757851e-04 -2.49122782e-03 1.06667285e-03
    1.11182895e-03 -3.14077712e-03 4.95685171e-03 2.80327396e-03
    -5.90654614e-04 -2.70143733e-03 6.75208168e-03 5.12167858e-03
    1.04849441e-02 8.61898903e-03 2.23800191e-03 2.42381939e-03
    -5.39276749e-04 -3.61856451e-04 -6.85314136e-03 2.42208666e-03
    1.86458509e-03 4.56503825e-03 5.53851575e-03 2.86910823e-03
    2.67162966e-03 2.27912841e-03 1.65492564e-03 -1.57362025e-03
    1.73159433e-03 -1.07379048e-03 6.18151994e-03 3.30556300e-03
    2.22882512e-03 -4.21553478e-03 3.45543399e-03 3.23830149e-03
    2.23704055e-03 1.14534290e-04 -7.59518519e-03 5.36549883e-03
    1.45079766e-03 -5.67314448e-04 6.85030129e-04 1.88799505e-03
    -2.43812348e-04 -8.32941791e-04 3.57979559e-03 1.12790917e-03
    2.82128295e-03 4.84875869e-03 4.94546862e-03 -4.79120621e-03
    -4.91462473e-04 9.57325741e-04 6.02150941e-03 6.07556710e-03
    -5.62529778e-03 4.33482043e-03 6.82560354e-03 9.79109900e-04
    1.53856177e-03 2.32660142e-03 1.99923594e-03 -8.83887260e-05
    -3.14941886e-03 -8.01313296e-03 4.24930919e-03 2.38287356e-03
    -1.41089520e-04 7.00064516e-03 6.76516304e-03 2.32844567e-03
    -1.88686606e-03 -3.67515092e-03 -5.22104790e-03 3.67757562e-03
    1.56502845e-03 1.95867242e-03 1.81890573e-05 1.45012804e-03
    3.17398953e-05 2.95479223e-03 2.15710676e-03 -5.23768598e-03
    7.29066925e-03 4.86187497e-03 -2.87205068e-04 -4.00589546e-04
    3.75566509e-04 -1.61926716e-03 -1.49249658e-03 7.57303648e-03
    1.38716667e-03 1.01577612e-02 4.88083158e-03 -2.12622457e-03
    7.17896852e-04 1.34188205e-03 -3.44364834e-03 -7.25667085e-03
    -5.90399792e-03 -2.51690135e-03 2.68756528e-03 2.01831548e-03
    2.69133854e-03 2.74531404e-03 5.58236521e-03 2.28413800e-03
    6.88731391e-03 4.81896056e-03 7.91211787e-04 6.75643981e-03
    4.89897095e-03 -5.35404077e-04 -8.70460831e-03 -3.64601566e-03
    -5.13648987e-03 -2.57180189e-03 5.43468166e-03 2.60191900e-03
    4.44421964e-03 1.06865249e-03 -5.08428272e-03 -4.97426279e-03
    1.03034719e-03 -7.60018593e-04 6.04895689e-03 1.02092177e-02
    1.84224464e-03 1.78667647e-03 -1.01427617e-03 -6.78365119e-03
    2.65076919e-03 6.97868364e-03 4.36733244e-03 5.25911711e-03
    1.30431319e-03 -3.55109759e-03 8.83918023e-04 3.67919309e-03
    8.85101908e-04 5.07873832e-04 2.32497230e-03 1.83891470e-03
    -4.84132580e-03 -9.06952482e-04 -1.07419109e-02 1.77950074e-03
    3.25338886e-04 4.52379463e-03 -1.18461088e-03 2.30509276e-03
    1.54695683e-03 2.71016848e-03 4.85902885e-03 -7.12265784e-04
    1.82573160e-03 3.88997723e-03 1.18935341e-03 2.36521172e-03
    -2.24379287e-03 -1.42809388e-03 -6.70938939e-03 -4.11255006e-03
    -5.41183772e-03 7.20271515e-03 7.66611146e-03 8.17599334e-03
    3.31168878e-03 3.75883444e-03 8.40532128e-03 3.41310678e-03
    4.54310211e-04 9.50136746e-04 3.01759387e-03 2.39560916e-03
    9.77132004e-04 -3.10343620e-03 1.19014992e-03 7.15558464e-03
    3.02913180e-03 4.07671742e-03 4.21385793e-03 1.67250924e-03
    3.38540599e-03 -6.01038523e-03 3.70832800e-04 -4.01250290e-04
    7.33488239e-04 -7.30224245e-04 5.15763229e-03 2.34799786e-03
    6.67983433e-03 6.21492183e-03 -7.26204540e-04 -2.90593551e-03
    5.87992603e-04 2.35342910e-03 -3.68944369e-03 -2.29930345e-04
    5.47932647e-03 7.10823899e-03 1.36044975e-02 -5.45704365e-03
    -4.23980970e-03 1.86603318e-03 8.22956674e-03 8.25193827e-04
    4.60567186e-03 7.15624541e-04 1.26889395e-03 1.22392469e-03
    -5.73520735e-03 -2.56391661e-03 4.12878668e-04 3.91598884e-03
    2.34913244e-03 6.64239400e-04 2.91815144e-04 2.35975417e-03
    -2.30045305e-04 2.80617416e-04 -3.09130480e-03 4.68010269e-03
    9.09770373e-03 2.68250378e-03 1.32353092e-03 1.26019039e-03
    1.67894480e-03 4.91530169e-03 -6.51491527e-03 2.71626608e-03
    8.56579840e-03 9.57677234e-03 1.20028462e-02 -5.33251790e-03
    -3.26895854e-03 -2.71499529e-03 -2.08561099e-03 -4.14596591e-03
    2.95283215e-04 5.49379503e-04 -9.09697192e-05 -2.72617000e-03
    -1.76382007e-03 -3.87008511e-03 1.27926387e-03 8.28367425e-04
    4.60982509e-03 5.17743034e-03 7.34245731e-03 9.01418040e-04
    -1.68053107e-03 -4.96264175e-03 -5.33464039e-03 -2.00527953e-03
    3.17501836e-03 8.34096875e-03 3.13202664e-03 4.20091627e-03
    5.16629685e-03 4.23108600e-03 -6.57702656e-03 -3.79761588e-03
    8.66229180e-04 -1.26022776e-03 -1.72135929e-04 4.91888449e-03
    5.41200954e-03 8.68320744e-03 3.01332097e-04 -1.11897262e-02
    -5.00029605e-03 6.36239350e-03 7.62101309e-03 6.80904277e-03
    3.92861944e-03 6.45385589e-03 8.40213033e-04 -8.48153199e-04
    -6.87860744e-03 -7.04706938e-04 1.97325353e-04 2.80728983e-03
    1.84980652e-03 -1.83292991e-03 4.38322267e-03 2.29090988e-03
    -1.34486193e-03 -7.99549371e-03 6.10805117e-04 1.06109760e-03
    8.76253980e-05 -5.12041291e-03 4.81282827e-03 2.48108362e-03
    2.92877294e-03 -2.17646733e-03 -9.47605539e-03 -3.68579826e-03
    7.93459732e-03 1.19214486e-02 1.01817232e-02 1.56753650e-03
    6.32967101e-03 -2.04160198e-04 -1.58777914e-03 -7.98266195e-03
    -2.99695646e-03 1.57589070e-03 5.61424671e-03 1.80317170e-03
    -9.11415648e-03 -3.16668767e-03 3.37826845e-04 5.64286929e-05
    -2.25795503e-03 -1.68214529e-03 -2.42260774e-03 -3.43559776e-03
    -9.10212845e-03 -1.81006244e-03 2.66503962e-03 -9.53287294e-04
    -1.04071572e-03 -6.58852572e-04 -2.11168357e-04 -2.62219040e-03
    -5.29443612e-03 -6.26083603e-03 -3.78526864e-04 4.14918875e-03
    2.33169901e-03 -1.13470177e-03 -7.02523673e-03 -7.35102734e-03
    -5.20571973e-03 2.66633695e-03 -3.31437076e-03 1.54275810e-02
    5.89323696e-03 -1.82273868e-03 -9.89916618e-04 -1.56873604e-03
    -3.65218637e-03 -4.84079961e-03 4.33393568e-03 1.06805936e-02
    -8.08596727e-04 -7.13311776e-04 -2.73359381e-03 -1.45553087e-03
    -5.12966746e-03 -2.04213755e-03 -4.35986836e-03 -6.40956312e-03
    -4.04125312e-03 1.16868073e-03 -1.71943184e-03 -3.23978742e-03
    -2.93136970e-03 -7.22013460e-03 -2.72179325e-03 2.07506688e-04
    2.13905773e-03 8.24360410e-04 1.66867245e-02 -1.79736025e-03
    -4.92749829e-03 -3.25435004e-03 -4.79288585e-03 -3.78017640e-03
    -4.21928801e-03 3.72192473e-03 1.07783033e-02 9.78517998e-03
    -4.17430699e-03 -5.28997416e-03 -6.10313425e-03 -8.74894578e-03
    1.32239261e-03 3.37152835e-03 1.14588877e-02 1.01412972e-02
    -2.79982504e-03 -1.60689803e-03 -5.20961965e-03 -8.11890978e-03
    -9.07061063e-03 -4.87917801e-03 -1.23035151e-03 3.01250350e-03
    -1.58905529e-03 -9.88763012e-03 -2.23949063e-03 2.71472032e-03
    2.09532632e-03 7.13274814e-04 5.37493906e-04 -3.34393419e-03
    -1.69471453e-03 -8.71991832e-03 4.54184413e-03 2.31401948e-03
    -5.48604876e-03 -1.02190375e-02 -1.48795443e-02 -3.74414306e-03
    3.28378519e-04 7.08030164e-03 6.27344055e-03 2.01825937e-03
    1.17111672e-02 3.78555991e-03 4.09377925e-03 -2.03355914e-03
    4.54211986e-04 -1.75212685e-03 -2.65004952e-03 7.31314009e-04
    -1.38788708e-02 -8.49123765e-03 -7.32495449e-04 1.09616504e-03
    -1.57685811e-03 1.12632897e-05 -4.20120574e-04 -2.50745215e-03
    -1.11336149e-02 -1.57036074e-02 -9.94530041e-03 -1.09953643e-03
    8.17547832e-03 2.12610047e-03 2.10091961e-03 2.49311212e-04
    -3.80136771e-03 -1.44952778e-02 -9.09851771e-03 2.39088375e-04
    -6.73636619e-04 2.94101331e-03 6.57556811e-05 2.70578265e-03
    2.44221184e-03 -1.95807498e-03 -7.48475734e-03 -1.24388570e-02
    -4.52243676e-03 2.72251526e-03 6.31392142e-03 5.38294495e-04
    1.01171937e-02 1.10023785e-02 9.25278640e-04 -8.78147967e-03
    -1.18052689e-02 -6.06961222e-03 1.92993297e-03 8.20297655e-03
    2.08945177e-03 -1.00632734e-03 -1.91067264e-03 -3.01260734e-03
    -9.91240703e-03 -6.87375851e-03 1.71837478e-03 7.67571060e-03
    3.66828847e-03 -1.46787369e-03 -4.99576284e-03 -3.05183022e-03
    7.01083845e-05 -9.58416332e-03 -8.27344228e-03 -2.07701512e-03
    1.17848138e-03 7.48828612e-03 2.38188123e-03 7.27475015e-03
    7.40059465e-03 4.47360240e-03 -6.27483008e-03 -4.72982507e-03
    -1.72208878e-03 3.51283071e-03 1.84408319e-03 -2.48163310e-03
    1.59878761e-03 5.90408640e-03 3.04209441e-03 -7.50692468e-03
    -5.63208479e-03 4.00192989e-03 2.82275793e-03 -3.55042197e-04
    2.54234369e-03 -1.29962596e-03 3.16772447e-03 -1.36774254e-03
    -6.51918910e-03 -6.83154399e-03 -7.18751340e-04 -5.90849062e-03
    -6.95970189e-03 -3.76144983e-03 4.08310490e-03 -3.18317179e-04
    -1.77045236e-03 -5.68261649e-03 -3.83112417e-03 2.52498430e-03
    1.62823519e-04 -1.93587062e-03 -2.78812461e-03 1.98951224e-03
    5.93860727e-03 3.85046937e-03 -6.02478301e-03 -7.30486494e-03
    -2.06997455e-03 -5.78339910e-03 -5.69537561e-03 -3.13519337e-03
    7.99488742e-03 5.96024981e-03 2.97974981e-03 -4.98984614e-03
    -5.51166246e-03 4.05107019e-03 2.91997707e-03 -2.73691048e-03
    2.20044793e-04 5.82274701e-03 -1.63705577e-03 -2.71825842e-03
    -6.47015590e-03 -1.15266144e-02 4.10137465e-03 4.45984304e-03
    -2.57947552e-03 -8.06224905e-03 -5.94873307e-03 -4.82711382e-03
    -7.42910104e-03 -1.23134991e-02 -3.75284208e-03 -3.41685815e-03
    -3.14470846e-03 -1.14842993e-03 5.87293459e-03 1.19909728e-02
    7.93817639e-03 1.91726605e-03 -4.30154894e-03 -6.10683672e-03
    1.43298972e-03 3.48868954e-04 -1.21947401e-03 -7.22908461e-03
    -2.70081894e-03 -3.57918791e-04 -7.07468996e-03 -1.10004516e-02
    -9.69728641e-03 -1.52625653e-04 3.66389914e-03 1.29000482e-03
    -2.89471867e-03 -5.58539992e-03 -3.58191435e-03 -1.53914327e-03
    -5.01041114e-03 -7.99104292e-03 -4.63520968e-03 3.09045463e-05
    2.02391669e-03 -3.89186130e-03 -1.06300460e-02 -9.48436745e-03
    -2.27904925e-03 -2.68314220e-03 -2.67516123e-03 6.60885079e-03
    5.61114354e-03 4.78609232e-03 -1.48341246e-03 -3.02587985e-03
    -3.03682941e-03 -5.79502992e-03 -7.38841761e-03 -3.45997512e-03
    -4.03551603e-05 2.58257310e-03 3.08490562e-04 -4.81723109e-03
    -1.02358758e-02 -1.06837442e-02 -5.52680437e-03 -3.00586200e-03
    -3.95377446e-03 1.12970744e-03 5.82193071e-03 4.75361291e-03
    -6.27441550e-05 -7.33483071e-03 -7.15614948e-03 -6.34122826e-03
    -6.97893323e-03 -3.12653789e-03 1.06757216e-03 5.89581160e-03
    3.21893231e-03 -3.21242330e-03 -7.50203151e-03 -3.05935973e-03
    -8.25087819e-03 -7.94643909e-03 1.62774289e-03 2.38422095e-03
    3.48233711e-03 3.32209095e-03 -2.57710950e-03 -9.11027286e-03
    -8.84119794e-03 -7.31924316e-03 -3.49715818e-03 1.12288224e-03
    7.05876248e-03 2.98087276e-03 5.47154201e-03 -8.22804286e-04
    -9.56176687e-03 -4.01644269e-03 -6.45494554e-03 -5.14338026e-03
    -4.87915613e-03 -9.72001522e-04 4.22535138e-03 5.87584497e-03
    7.94281834e-04 -5.62177645e-03 -1.02955813e-03 -4.15127072e-03
    -4.54877783e-03 -4.65432601e-03 -5.74192218e-03 -2.97671556e-03
    1.16356649e-03 -2.67168303e-04 1.09144079e-03 6.23021554e-03
    -7.29440246e-04 -1.27918704e-03 -2.72298395e-03 2.31386977e-03
    6.86037308e-03 1.06771123e-02 2.37433682e-03 -6.75751269e-03
    -2.36613862e-03 -2.44280021e-03 -4.44613304e-03 -2.10242369e-03
    -1.13773909e-04 1.29416096e-03 4.74457070e-03 2.86840694e-03
    -8.09530902e-04 8.56296276e-04 -2.34827492e-03 -6.04757853e-03
    -2.14109709e-03 -2.37772497e-03 -2.43196404e-03 -1.69071869e-03
    2.87453900e-03 6.34187507e-03 1.13108428e-02 6.24368573e-03
    2.07042624e-03 -6.42447267e-03 -3.69974016e-03 -5.61039010e-03
    -8.13389290e-03 -3.89984809e-03 -3.16507096e-04 -9.86599247e-04
    2.14656722e-03 -2.46846816e-04 2.51334626e-03 4.09867335e-03
    9.40230617e-04 1.13988435e-03 8.12038314e-03 8.08391813e-03
    6.54711109e-03 3.78764863e-03 -4.56400710e-04 -4.55734599e-03
    -1.56932382e-03 1.62164084e-04 -3.04241804e-03 3.22695065e-04
    1.96807808e-03 -3.51470406e-03 1.47217041e-04 -2.18076888e-03
    -1.88442040e-03 -1.23582897e-03 -3.49486805e-03 -2.05927435e-03
    -1.46281102e-03 1.88144634e-03 1.10335508e-03 6.57761330e-03
    3.60244862e-03 -4.00496181e-03 -4.41554096e-03 -2.52384157e-03
    -9.34182666e-04 1.68392644e-03 -2.81616230e-03 5.64999459e-03
    9.82691627e-03 1.83429185e-03 -4.20058495e-04 3.59722599e-03
    3.10505927e-03 1.07731833e-03 6.94152259e-04 3.53257754e-03
    1.36227999e-03 1.92440709e-03 1.71206600e-03 1.80072221e-03
    -1.05597207e-03 1.10665476e-03 -2.49407836e-03 8.83615576e-04
    -9.53005801e-04 6.71299407e-03 4.90090530e-03 2.76194233e-03
    4.87903948e-04 -2.57542892e-03 -1.19836081e-03 -3.04349838e-03
    4.09268017e-04 -3.70964478e-03 7.84123875e-03 6.35034591e-03
    2.81464122e-03 -3.04293656e-03 -4.03304584e-03 -4.10261797e-03
    -7.19505653e-04 7.21687963e-03 2.34701671e-03 8.55774526e-03
    4.02207207e-03 -1.45130651e-03 -1.83330849e-03 -3.30163469e-03
    9.67711909e-04 -1.40920363e-03 5.27140964e-03 2.26350361e-03
    9.99268051e-03 4.53540636e-03 1.27365242e-03 -5.15699247e-03
    -4.25303541e-03 -1.84399833e-03 -7.21469871e-04 1.37769328e-02
    6.20967068e-04 2.56526703e-03 1.11817394e-03 -2.43039429e-03
    -7.71053834e-03 -4.65731276e-03 -2.49396707e-03 1.29283569e-03
    7.43671972e-03 4.93899733e-03 3.64477187e-03 2.83625349e-03
    -3.00988695e-03 -4.93717380e-03 -6.02551154e-04 9.62016813e-04
    1.18245534e-03 1.21913161e-02 4.57285112e-03 -4.80887858e-04
    1.20903063e-03 -5.43117011e-03 -7.51006743e-03 -3.02436133e-03
    2.64613627e-05 -1.57477998e-03 5.68896858e-03 -4.18960641e-04
    1.54644856e-03 1.59349933e-03 -3.35103786e-03 -5.30981878e-03
    -1.06413296e-04 3.98044428e-03 -2.09566974e-03 7.50464434e-03
    3.51626170e-03 1.93920138e-03 1.90936937e-03 -6.24901103e-03
    -2.10565724e-03 9.25746106e-04 3.45743261e-03 7.55930669e-04
    1.09919440e-02 2.66071898e-03 1.84620987e-03 3.57263838e-03
    1.02003396e-03 2.99558905e-03 -1.27185427e-03 2.09849747e-03
    -4.72155400e-03 -1.36669015e-03 -3.35283787e-03 2.36092019e-03
    2.87419418e-03 3.78623442e-03 -6.21609157e-04 7.81662471e-04
    5.29858796e-03 -1.24346942e-03 1.11148423e-02 3.05949454e-03
    1.17163069e-03 4.41278750e-03 9.79099539e-04 7.25147501e-03
    -3.17187572e-04 1.01582601e-03 -6.93019712e-03 -1.37855951e-03
    -3.08225444e-03 1.01506629e-03 2.93744612e-03 1.08503671e-02
    2.92857504e-03 2.95722065e-03 -3.60591366e-04 -1.37922179e-03
    3.93158477e-03 3.02978489e-03 4.44987835e-03 5.00980392e-03
    3.19449021e-03 2.36162031e-03 4.52727079e-03 2.88535422e-03
    -2.99612037e-03 -3.59208556e-04 3.37021083e-05 4.30740369e-03
    9.97399166e-03 -2.05749273e-03 7.67945638e-03 7.23134074e-03
    2.12815613e-03 3.15469690e-03 -3.23138403e-04 -1.76252669e-03
    8.62106481e-06 5.38157113e-03 8.62936489e-03 2.30250251e-03
    7.69440597e-03 6.50627119e-03 2.05640635e-03 -6.03596959e-03
    -5.08848438e-03 9.41676379e-04 4.88209957e-03 1.52207923e-03
    1.25618360e-04 3.64439655e-03 4.29782784e-03 -1.50359794e-03
    3.19327437e-03 -2.98715226e-04 6.85637933e-04 3.92967835e-03
    -4.62671975e-03 4.05620178e-03 7.53555587e-03 6.59551285e-03
    2.74102530e-03 1.38762640e-03 3.76398233e-03 -1.29810593e-03
    5.46193100e-04 -6.32420182e-03 -1.14006130e-03 2.47911527e-03
    4.69501689e-03 -2.44573224e-03 -2.01082579e-03 -1.64801057e-03
    -7.12929177e-04 7.29614461e-04 -2.56495737e-03 2.17076042e-03
    2.09407322e-03 6.46404631e-04 -3.43732350e-03 2.18366040e-03
    1.20742321e-02 5.71201043e-03 9.69586952e-04 -5.76008391e-03
    2.51025916e-03 3.91902309e-03 2.93432851e-03 7.57537608e-04
    -2.82426272e-03 -2.92776123e-04 -2.82246154e-04 5.71289158e-04
    -2.84825638e-03 9.88203799e-04 1.54704216e-03 5.15073678e-03
    -2.19978532e-03 -5.89046022e-03 -4.10696026e-03 8.70933570e-03
    5.27748466e-03 -1.99092855e-03 -2.25114031e-03 1.58636039e-03
    1.54472305e-03 -2.16103788e-03 -3.00440588e-04 4.47342917e-03
    6.18818263e-03 3.19649349e-03 -4.13626945e-03 -6.72281999e-03
    -2.14563007e-03 1.92385283e-04 -3.68864881e-03 -2.55871192e-03
    -1.87783604e-04 1.35711636e-02 6.44657807e-03 -5.57993958e-03
    -2.18900247e-03 -1.88799109e-03 2.25026743e-03 -3.04188207e-03
    -8.13158695e-03 -7.48418644e-03 6.53153146e-03 7.74916587e-03
    2.56353407e-03 -1.25146681e-03 4.43037506e-03 6.87434047e-04
    -1.88393646e-03 -7.60968542e-03 -8.06586258e-03 4.28851321e-03
    8.61285534e-03 4.73470101e-03 -7.68114906e-03 -2.06321781e-03
    3.35364777e-04 -4.28348454e-03 -8.81339889e-03 -7.47367600e-03
    9.87176877e-03 7.96647277e-03 -2.56365654e-03 -5.71241183e-03
    -6.13310607e-04 5.50417404e-04 -6.30993675e-03 -1.15161538e-02
    -6.94478769e-03 1.38235856e-02 1.18227880e-02 1.79735699e-03
    -1.80131942e-03 2.55110255e-03 -2.43291724e-03 -4.61771805e-03
    -9.01437271e-03 -7.50230625e-03 -3.89216351e-03 5.51412301e-03
    8.42274108e-04 7.02670310e-03 2.25006090e-03 -2.40952196e-03
    -2.94595794e-03 -6.01258967e-03 -4.60959412e-03 -1.59959984e-03
    5.26340492e-03 8.54473189e-03 -1.29645923e-03 1.17446331e-03
    -2.69786338e-03 -9.51208640e-03 -1.44857196e-02 -6.65547978e-03
    4.72462270e-03 7.57619506e-03 2.23136018e-03 8.76670051e-03
    7.82652758e-03 -1.62122038e-03 -7.78437778e-03 -9.85115208e-03
    -6.99131889e-03 -6.43205887e-04 4.77638654e-03 7.68905785e-03
    6.86153490e-03 -1.61588925e-03 -4.12504748e-03 -5.41025493e-03
    -1.06012039e-02 -5.68597950e-03 -4.42054821e-03 2.59375270e-03
    6.21498981e-03 4.05683089e-03 2.43930248e-04 -4.60722903e-03
    -8.46380554e-03 -1.28094163e-02 4.30443877e-04 1.31543726e-03
    4.74157045e-03 5.73114492e-03 6.81106234e-03 7.80710310e-04
    -4.48597549e-03 -9.38519277e-03 -1.57211572e-02 -7.88664352e-03
    -3.57360393e-03 2.68438854e-03 5.51262451e-03 4.32702852e-03
    4.02579550e-03 -3.89595656e-03 -1.11333374e-02 -1.48990676e-02
    -3.12314765e-03 -2.66758166e-03 3.65481433e-03 6.76560355e-03
    1.82472030e-03 5.57570485e-03 -3.60884122e-03 -1.01463543e-02
    -1.63843352e-02 -2.18219962e-03 -3.33829946e-03 3.28841759e-03
    3.05805192e-03 3.28045098e-06 1.15361093e-02 -1.50964898e-03
    -3.39442072e-03 -9.27186664e-03 -6.54070918e-03 -4.42934269e-03
    1.39088673e-03 -1.88953977e-03 2.33299099e-03 6.08431222e-03
    -4.33781696e-03 -1.12212757e-02 -1.64782088e-02 -6.21324219e-03
    -5.29185636e-03 2.76677893e-03 3.37329926e-03 4.98677325e-03
    9.12542641e-03 -9.43217543e-04 -6.44927146e-03 -1.37315821e-02
    -9.97524615e-03 -3.78272939e-03 2.42098561e-03 3.39445285e-03
    -3.85921821e-03 3.61366826e-03 -1.02063047e-03 -1.00250193e-03
    -3.90136428e-03 -1.84528320e-03 7.47812446e-05 -5.34483814e-04
    -4.20123804e-03 -9.09783691e-03 -1.74024759e-03 1.53781695e-03
    1.91119988e-03 3.01224831e-03 3.38326069e-03 8.93370621e-03
    2.11481750e-03 -5.83723933e-03 4.08632588e-03 4.31968598e-03
    -3.05699767e-03 -5.55157335e-03 -9.70964134e-03 -4.08349372e-03
    3.21211148e-04 1.74670550e-03 -5.19677065e-04 -7.86881195e-04
    4.06028982e-03 5.11227809e-05 -1.16529013e-03 1.43891259e-03
    -1.37659092e-03 1.23023710e-04 -6.74810784e-04 -6.50119875e-03
    -5.51985251e-03 -9.97225405e-04 2.60243076e-03 5.77737205e-03
    5.76864835e-03 5.65861305e-03 1.05724838e-02 3.82550107e-03
    -3.55540519e-03 -7.25689763e-03 -5.22970874e-03 2.41903894e-04
    -1.79509073e-03 -4.32009390e-03 1.08128833e-03 1.04408972e-02
    1.64809858e-03 -5.26939752e-03 -7.70134898e-03 -3.63222393e-03
    -2.09489698e-03 6.84675353e-04 7.56615680e-03 1.24104635e-03
    5.80508634e-03 -8.53436941e-04 -6.31070230e-03 -1.22338841e-02
    -1.36729944e-02 -7.85585493e-03 -6.13597920e-03 1.02855498e-03
    7.20582018e-03 1.48160718e-02 -4.01510275e-04 -6.48381095e-03
    -7.02903513e-03 -2.10042577e-03 -2.26401468e-03 -5.94859244e-03
    -7.31157092e-03 3.26568517e-03 1.18258568e-02 1.62157894e-03
    -5.61131351e-03 -9.02169384e-03 -4.98170545e-03 -7.76791293e-03
    -7.03027332e-03 -3.96963768e-03 1.23511925e-02 1.04085663e-02
    1.71741459e-03 -4.64695506e-03 -6.48476696e-03 -8.90828017e-03
    -7.57598318e-03 -8.72205477e-03 -5.68440300e-04 7.56697124e-03
    1.23441359e-02 5.03722331e-05 -5.35960076e-03 -7.53638893e-03
    -4.29248204e-03 1.60704541e-03 8.10753496e-04 1.10973022e-03
    1.02023985e-02 6.73584128e-03 -1.75142649e-03 -6.50196709e-03
    -7.53744645e-03 -8.47716443e-03 -5.14217326e-03 -3.91393853e-03
    -7.28554034e-04 6.10493124e-03 8.63626879e-03 5.62480593e-04
    -6.12688111e-03 -8.15077033e-03 -2.18647998e-03 2.27796496e-03
    -4.10546549e-03 -1.13350023e-02 -3.30897397e-03 -1.74979353e-03
    -6.56549027e-03 -9.62139945e-03 -8.60209763e-03 -3.58194695e-03
    5.42889442e-03 8.52708938e-04 2.69283773e-03 3.73020326e-03
    5.80523489e-03 1.18912267e-03 -6.09649345e-03 -1.06592486e-02
    -3.20842699e-03 9.66510363e-03 -1.06360007e-03 -1.13660777e-02
    -8.95771477e-03 1.20162731e-03 -3.75413825e-03 -7.37117603e-03
    4.93454223e-04 9.64071602e-03 1.08244335e-02 3.85434413e-03
    -5.70547534e-03 -2.93832622e-03 -2.93824193e-03 -6.19764626e-03
    -7.98299536e-03 -7.27670558e-04 2.01158272e-03 2.94651068e-03
    -1.26087456e-04 -1.05698453e-02 -9.46044177e-03 -1.03776949e-02
    -8.20375606e-03 -6.41365442e-03 -3.07525811e-03 2.39151268e-04
    7.97662791e-03 3.99977062e-03 -7.11318199e-03 -6.73322519e-03
    1.22266100e-03 4.24799655e-04 -2.13095848e-03 -5.45004103e-03
    -3.85974883e-03 7.01532874e-04 -1.38779916e-03 -1.13696326e-02
    -9.80967656e-03 -9.72543098e-03 -5.10575250e-03 -5.19510219e-03
    1.98176829e-03 -5.09160454e-04 5.58731938e-03 2.68813409e-03
    -5.05570089e-03 -9.44974925e-03 -8.96755420e-03 -7.08467560e-03
    -6.53581042e-03 -2.39121984e-03 5.34571614e-03 6.44960301e-03
    1.04940617e-02 5.53051429e-03 -9.35336109e-03 -5.90912485e-03
    -6.48075575e-03 -8.37977137e-03 -3.28196934e-03 -8.04800889e-04
    3.95335723e-03 -7.40445277e-04 -6.34789281e-03 -6.19850913e-03
    -6.22685859e-03 -3.86798941e-03 -4.43227682e-03 -2.54568947e-03
    5.05170727e-04 5.96788246e-03 2.20406614e-03 2.20211339e-03
    1.01763266e-03 -3.10544949e-03 -3.81511147e-03 -5.76702598e-03
    -4.89981566e-03 9.67491185e-04 8.23944435e-03 1.48684308e-02
    9.41216666e-03 -4.16546315e-03 -3.12650925e-03 -4.37293528e-03
    -9.31359921e-03 -7.36730359e-03 -3.04492400e-03 -2.84103386e-04
    -4.06666519e-03 2.44441233e-03 -1.12569740e-03 9.95230977e-04
    -2.55870866e-03 -8.45990330e-03 -1.43213244e-03 -9.04329470e-04
    -2.30562105e-03 3.85158276e-03 9.26466007e-03 7.35519454e-03
    2.05100328e-03 -3.57969315e-03 -5.03112748e-03 -5.28922584e-03
    5.96908030e-05 -3.00669181e-03 -7.84540642e-03 -2.00454309e-03
    3.06287291e-03 7.04187667e-04 -1.57677568e-03 -6.06203685e-03
    -2.38330918e-03 1.33586815e-03 2.20024289e-04 -3.22043360e-03
    2.03677802e-03 3.97267053e-03 3.88425379e-03 1.84793130e-03
    -3.68463970e-03 -2.14902521e-03 9.05786408e-04 2.22619716e-03
    -2.75664707e-03 -3.70411202e-03 -1.65379164e-03 -1.22058822e-03
    -1.62406312e-03 -5.89329237e-03 2.46391003e-03 5.77374874e-03
    5.07524610e-03 -9.28049674e-04 -1.67934294e-03 2.96251010e-03
    4.35395679e-03 4.26153373e-03 -2.03757663e-03 6.66486518e-03
    6.82979310e-03 1.36679015e-03 -4.53655003e-03 -4.75569721e-03
    -5.44276694e-03 2.64010159e-03 3.54324817e-03 7.51857355e-04
    2.21994310e-03 4.49924497e-03 3.92295094e-03 7.99268135e-04
    1.59970194e-03 -1.39181491e-03 -8.13720573e-04 -2.94970162e-03
    -1.10659166e-03 2.92249781e-04 -1.02463958e-03 -2.80222885e-04
    -1.72269193e-03 5.02623292e-03 -3.45867220e-03 7.88225327e-04
    -3.95787694e-03 -2.04186863e-03 5.81746874e-03 7.55152898e-03
    2.39404012e-03 -2.09236075e-03 6.03390764e-03 -1.74722297e-03
    5.46980975e-03 4.90224827e-03 2.36179447e-03 -7.66237173e-03
    4.47837781e-04 6.87868567e-04 1.42288196e-03 1.31113287e-02
    4.43500612e-04 1.67224626e-03 -2.40086834e-03 -6.85153063e-03
    -3.12726176e-03 -2.44557904e-03 2.15622759e-03 8.77894636e-05
    8.05002451e-03 1.91250059e-03 3.36681283e-03 4.60871197e-05
    -3.44181852e-03 -4.22819145e-03 -3.61149921e-03 -3.24181397e-04
    -2.58224993e-03 6.36992790e-03 9.22306135e-05 2.27425291e-04
    2.96514318e-03 -1.53269002e-03 -7.95120280e-03 1.53437126e-04
    3.57763213e-03 3.48707521e-03 1.19765997e-02 8.01521004e-04
    -3.14049714e-04 -1.06624444e-03 -6.35091867e-03 -6.83274353e-04
    -3.21653351e-04 8.43583490e-04 -4.18940606e-03 -6.62741877e-05
    2.57715612e-04 1.97331724e-03 8.23088363e-03 3.35640996e-03
    -3.06286546e-03 1.41903199e-03 -8.32891557e-04 -2.72237207e-03
    3.25715728e-03 -2.28798063e-03 8.12988204e-04 3.04229348e-03
    -3.14351707e-03 -5.71516692e-04 2.64975382e-03 -1.37200742e-03
    -2.51649553e-03 9.97748878e-03 6.92547706e-04 1.92856905e-03
    2.09539221e-03 -6.73296768e-03 1.28065574e-03 1.77330687e-03
    -1.01235393e-03 -2.44014850e-03 3.31869745e-03 -3.47971777e-03
    3.47315450e-04 6.86495379e-03 6.76032505e-04 -3.14412755e-03
    -1.48790411e-03 -2.17007077e-03 -3.95635422e-03 1.49348276e-02
    -2.43479866e-04 3.67739284e-03 7.13975402e-04 -8.48637987e-03
    3.73271806e-03 2.02194540e-04 -7.75254681e-04 -1.96878565e-03
    9.24233720e-03 -8.60393120e-05 -6.11638185e-04 4.92366683e-03
    3.06853588e-04 6.52576983e-03 3.95554118e-03 1.75226451e-05
    -4.94709564e-03 -5.59035782e-03 -6.75740093e-03 1.11625355e-03
    8.32166243e-03 9.35727917e-03 -3.11261858e-03 -4.70406329e-03
    -1.32137956e-03 -1.71721703e-03 1.49653535e-02 -2.92616518e-04
    2.12922459e-03 3.35334893e-03 -6.09487388e-03 6.09731651e-04
    1.10402042e-02 6.71429932e-03 6.61255617e-04 2.08636560e-03
    -3.81325535e-03 2.55261618e-03 5.59971947e-03 5.96130616e-04
    1.65319757e-03 1.84702547e-03 -1.17257521e-04 2.40745535e-03
    -6.11995300e-03 -2.53842771e-03 -2.78497988e-04 3.78342136e-03
    4.35861154e-03 -2.74764746e-03 3.69038922e-03 4.80275322e-03
    4.17881925e-03 -7.72799877e-03 -4.52357484e-03 -1.00607576e-03
    2.04715412e-03 -2.12199218e-03 3.68657475e-03 3.04101710e-03
    1.41029319e-04 2.79315468e-03 -3.22986278e-03 -2.71864410e-04
    8.83788243e-03 1.18315611e-02 8.07566661e-03 -1.34345633e-03
    2.67646695e-03 1.24866923e-03 4.95255133e-03 -1.75818603e-03
    4.92202118e-04 7.57119432e-03 7.60765933e-03 -9.89625347e-04
    -1.42088404e-03 2.76640477e-03 5.98035753e-03 1.64017791e-03
    -4.38604178e-03 -2.66350596e-03 -1.96507503e-03 -1.07157939e-04
    7.56028094e-05 2.68748170e-03 4.33868496e-03 2.56222649e-03
    -4.50410414e-03 -7.16853235e-03 4.31080087e-04 2.19085533e-03
    -2.43599439e-04 -4.28272906e-04 6.49165246e-04 3.55040678e-03
    6.10783929e-03 4.15087305e-03 -7.71769963e-04 1.13602332e-03
    4.36110562e-03 5.71903680e-03 6.51408918e-04 1.99465803e-03
    6.00566389e-03 8.78043473e-03 3.37665225e-03 -8.59172083e-03
    -4.68811393e-03 2.23433995e-03 9.99378040e-03 6.87277969e-03
    -4.04573791e-03 2.18941062e-03 1.92054652e-03 3.14936595e-04
    -2.03167484e-03 -1.03911478e-03 4.07647016e-03 1.76385976e-03
    -3.07014538e-03 -9.17553529e-03 -3.38495383e-03 1.18728646e-03
    3.90130794e-03 -1.96959567e-03 -2.51322193e-03 9.10796039e-03
    6.32970070e-04 -5.87022072e-03 -2.77173216e-03 3.92948510e-03
    5.36032673e-03 5.44128614e-03 2.06854398e-04 -6.14564354e-03
    2.35406193e-03 8.02684762e-03 9.34517710e-04 -5.62933134e-03
    -4.14861046e-04 5.07271430e-03 5.53999096e-03 4.40625986e-03
    -3.46126896e-03 2.73337471e-03 -2.93696206e-03 -9.52541083e-03
    -6.11408334e-03 -1.58795726e-03 -4.06134641e-05 -2.46605556e-03
    -9.81874298e-03 -5.60192531e-03 7.81989377e-03 4.51932149e-03
    1.95056113e-04 -3.61103914e-03 -3.47178872e-03 -3.95887438e-03
    -7.81753287e-03 -1.13565074e-02 -4.15810198e-03 1.09251440e-02
    1.07147293e-02 4.64564841e-03 -4.17283503e-03 -3.27709806e-03
    -6.38483150e-04 2.90118949e-03 -4.39497409e-03 -5.72155509e-03
    1.20727438e-03 1.74783054e-03 -6.34352793e-04 1.16688549e-03
    -9.10474395e-04 -5.47354529e-03 -5.00206416e-03 -1.16506619e-02
    -8.50273389e-03 5.22192800e-03 7.27635296e-03 7.26148672e-03
    -9.13244556e-04 -4.46414482e-03 -5.52888447e-03 -9.28501505e-03
    -1.35104246e-02 -3.32896505e-03 6.31149625e-03 3.26133939e-03
    1.83368952e-03 5.43617690e-03 -2.52528233e-03 -4.13004449e-03
    -8.91022664e-03 -8.77349265e-03 -4.03259881e-03 4.79147444e-03
    3.62467836e-03 2.88382615e-03 1.27051573e-03 -1.91825384e-03
    -8.44628643e-03 -8.18713941e-03 -1.49394739e-02 -5.25155757e-03
    2.98911799e-03 7.47415749e-03 2.16482277e-03 5.77616505e-03
    1.35820941e-04 -4.42987680e-03 -1.10227196e-02 -1.01577565e-02
    -6.91959821e-03 4.98160161e-03 1.02969715e-02 7.03461748e-03
    1.88105542e-03 -5.51083731e-03 -4.72862599e-03 -8.66842549e-03
    -1.52864493e-02 -6.38865307e-03 2.81410757e-03 3.50752799e-03
    1.45923201e-04 4.12403722e-04 -4.11429256e-03 -4.38742992e-03
    -9.41052195e-03 -8.80797394e-03 -2.88905972e-03 8.76836013e-04
    4.98519512e-03 2.60837516e-03 4.45858063e-03 -2.44155456e-03
    -5.17371809e-03 -1.12522263e-02 -1.78276990e-02 -9.08701494e-03
    2.95385555e-03 1.23094497e-02 9.90305189e-03 5.86351613e-03
    5.64154238e-04 -2.71964376e-03 -7.79077318e-03 -7.58058624e-03
    -2.72115646e-03 3.34823667e-03 6.63186330e-03 5.94852958e-03
    3.67672252e-03 -1.89946021e-03 -9.15466808e-03 -1.19861998e-02
    -1.31069534e-02 -2.68979999e-03 -1.27705105e-03 2.24224641e-03
    3.01136728e-03 7.22960802e-03 4.19196254e-03 -5.71491336e-03
    -1.12734912e-02 -1.52580515e-02 -3.45421489e-03 1.49194559e-03
    3.96020390e-04 6.36319723e-03 3.25688836e-03 7.40203890e-04
    -6.86983578e-03 -9.89587791e-03 -1.00440467e-02 -1.56747352e-03
    6.85490959e-04 -3.60396248e-03 -7.54877401e-04 4.19228832e-04
    1.71367603e-04 -5.15646534e-03 -1.37308454e-02 -1.26888715e-02
    1.79072295e-03 1.36064156e-03 -4.00908524e-03 -2.17190105e-03
    8.36804416e-03 7.82522745e-03 -2.58457242e-03 -7.74115883e-03
    -9.40058380e-03 -4.58912458e-03 6.01040293e-03 3.66321765e-03
    4.16267989e-03 5.44668455e-03 6.14338880e-03 -4.37338516e-04
    -5.29264752e-03 -5.77273872e-03 -6.25026645e-04 1.62186109e-06
    3.13741271e-03 -2.34622555e-03 9.96714109e-04 -7.86242708e-06
    -4.04453510e-03 -1.36701204e-02 -1.25515610e-02 -4.09029704e-03
    -1.80280162e-03 2.83433334e-03 3.08250706e-03 2.67528975e-03
    -4.13294043e-03 -8.25533830e-03 -1.17502837e-02 -1.15999160e-02
    -1.72419101e-03 -1.74037949e-03 8.27638060e-03 5.46471635e-03
    -2.04297947e-03 -2.38845637e-03 -1.52799161e-03 -2.57127802e-04
    3.16378102e-03 2.85071461e-03 3.22066643e-03 -1.59612251e-03
    -4.61181346e-03 -9.66174528e-03 -1.17220143e-02 -8.01353343e-03
    -7.80544151e-03 3.42766149e-03 1.06166285e-02 9.98131558e-03
    -8.45230243e-04 -4.53519402e-03 2.32059672e-03 -4.94310586e-03
    -3.71080334e-03 -2.76112836e-03 -2.20186217e-03 1.46670104e-03
    -1.30288070e-03 4.43302002e-03 6.22853125e-03 -1.51681481e-03
    -3.30614299e-03 3.10364692e-03 -4.21337644e-03 2.23289360e-03
    3.51456273e-03 6.64884364e-03 4.34039533e-03 2.05891090e-03
    -1.00205652e-02 -8.51371884e-03 -6.87344279e-03 -8.63760058e-03
    -1.91518653e-03 4.16986365e-03 4.67134826e-03 -2.01591803e-03
    -5.39005920e-03 -9.80928261e-03 -4.76505654e-03 3.89342336e-03
    1.20671967e-03 3.95567768e-04 7.25619402e-03 3.53210908e-03
    -1.85908459e-03 -6.22332934e-03 -7.42357736e-03 9.74026683e-04
    1.16402749e-02 2.23891041e-03 1.53846724e-03 1.14626333e-03
    8.81211483e-04 -2.88282451e-03 -6.28822809e-03 1.47971383e-03
    1.02826385e-02 1.36100156e-02 5.48267644e-03 -1.85254123e-03
    1.42417743e-03 1.71983894e-03 -8.46972922e-04 -4.70441859e-03
    -9.12249461e-03 -4.00509918e-03 3.36555229e-03 9.25586966e-04
    -4.75813751e-04 2.67490337e-04 4.36419883e-04 -3.41809215e-03
    -6.21576142e-03 -1.03673302e-02 -4.14613634e-03 4.47824039e-03
    -4.64564050e-03 -1.06420806e-02 -8.98101740e-03 -5.68028819e-03
    -6.29001623e-03 -6.03214838e-03 7.12281512e-03 1.44400997e-02
    4.83843079e-03 -2.51214369e-03 -5.29135996e-03 -4.71305335e-03
    -4.32830624e-04 -3.06562375e-04 -1.15941500e-03 9.83633660e-03
    1.07817734e-02 -2.18578428e-03 -1.33287646e-02 -7.75318732e-03
    -8.07231292e-03 -4.63564834e-03 -1.32831081e-03 2.26951204e-03
    -5.09193074e-03 -1.36585056e-03 -6.22917840e-04 9.28276160e-04
    -5.98586677e-03 -6.46674540e-03 -5.86623279e-03 -1.90781849e-03
    -1.03046105e-03 -5.18638687e-03 -1.65625685e-03 -3.07163782e-03
    -5.00362599e-03 -1.12853907e-02 -1.06672747e-02 -9.49703995e-03
    -5.71480813e-03 -5.19916229e-03 9.98112746e-03 8.11857171e-03
    -3.69091897e-04 -9.21548530e-03 -7.27517530e-03 -1.20167958e-03
    2.68219714e-03 8.58283695e-03 1.01594413e-02 7.55734334e-04
    1.88361388e-03 -4.49610408e-03 -1.23766279e-02 -1.63930785e-02
    -7.84489326e-03 -2.64102384e-03 7.31182331e-03 1.61302323e-03
    -5.26251271e-03 2.40548723e-03 -2.36854074e-04 -1.84700824e-03
    -9.53929964e-03 -6.68372260e-03 -5.09743160e-03 -3.43567971e-03
    -6.22686092e-03 -3.51227610e-03 4.38325776e-04 7.01793528e-04
    -6.93176873e-03 -6.14338042e-03 3.49003728e-03 -1.02875754e-03
    -1.28884136e-03 -7.47054536e-03 -2.36103870e-03 4.12404770e-03
    2.40501855e-03 -5.08557307e-03 -1.34391850e-02 -6.41666166e-03
    -5.70341712e-04 1.60328895e-02 2.95542181e-03 -4.12982376e-03
    4.51825399e-05 1.33396511e-03 -5.49468864e-03 -1.32769868e-02
    -7.66269071e-03 -4.77626780e-03 7.58429011e-03 -4.11474658e-03
    -6.72043907e-03 -3.03631416e-03 -3.77240591e-03 -5.00423787e-03
    -2.55180942e-03 8.42163526e-03 3.62675264e-03 -3.49048595e-03
    -8.50548595e-03 -1.03835277e-02 -3.30718956e-03 -5.10991039e-03
    -6.28655637e-03 -9.35932435e-03 4.95135272e-03 1.85761752e-03
    -4.60997177e-03 -1.26359863e-02 -5.21224504e-03 2.33016023e-03
    -2.61282519e-04 -2.67852750e-03 -7.41762575e-03 1.27768528e-03
    -1.37844973e-03 -3.14736419e-04 -7.95650203e-03 -6.66901935e-03
    -6.55981828e-04 1.75601046e-03 -3.89502593e-03 -1.21197999e-02
    7.07779452e-03 5.87577792e-03 5.27598138e-04 -9.16342810e-03
    -4.56128502e-03 3.50564136e-03 5.18239569e-03 3.49501707e-03
    -4.18765377e-03 4.05274099e-03 2.72882148e-03 6.94040500e-04
    -8.39444157e-03 -3.44208907e-03 5.28628472e-04 -1.61213928e-03
    -2.04930920e-03 -4.24931711e-03 -5.04151313e-03 -5.06367395e-03
    -3.33483401e-03 -8.07648525e-03 -5.18001756e-03 3.38939973e-03
    3.37109622e-03 1.28666506e-04 -7.18909828e-03 1.20017407e-02
    1.38534475e-02 5.19072451e-03 -2.96936207e-03 -6.98464783e-03
    -4.51670581e-04 -2.69559212e-03 -4.92165703e-03 -5.99192828e-03
    -2.58789794e-03 -5.94167598e-03 -6.28157426e-03 -5.92701556e-03
    1.16998819e-03 5.71686635e-03 3.03919683e-03 -4.50169784e-04
    5.10581350e-03 -6.07473543e-04 -6.16023259e-04 4.35998700e-05
    -5.53374086e-03 -1.07967705e-02 2.96482071e-03 -2.14176762e-04
    -2.27011915e-04 8.57315864e-03 -2.84938200e-04 1.36546791e-04
    -4.13738977e-04 -8.79018940e-03 -2.76738009e-03 5.63001586e-03
    4.49381629e-03 7.57793081e-04 1.83646000e-04 -3.01415421e-04
    8.59504798e-04 -1.36969332e-03 -7.99849909e-03 -1.01992832e-02
    -1.07410760e-03 -1.28556916e-04 -4.10810520e-04 5.68279391e-03
    1.33195205e-03 8.85727443e-03 7.07546342e-03 -6.66422350e-03
    -7.37979356e-03 1.75456598e-03 2.22039269e-03 2.69570178e-03
    8.16556066e-03 3.70826409e-03 1.36135402e-03 3.12896096e-03
    -3.34025803e-03 -1.74364226e-03 1.55801850e-03 3.41937295e-03
    -3.17223603e-03 -4.51918226e-03 -2.87606235e-04 3.01584043e-03
    7.84523785e-03 1.29838905e-03 -5.53014316e-03 2.87828530e-04
    1.75388856e-03 1.49214920e-03 7.63049209e-03 3.00607737e-03
    5.77614224e-03 7.63195194e-03 3.00289597e-04 -3.40581732e-03
    2.89754150e-03 5.71601838e-03 -7.22338154e-04 1.27070537e-03
    -2.00327672e-03 1.59669120e-03 4.01995610e-03 -1.26539462e-03
    -1.89664355e-03 -4.66905884e-04 -1.10903638e-03 -5.71066746e-03
    -3.45326192e-03 -3.37680778e-03 3.88641114e-04 6.78557670e-03
    2.22410425e-03 -9.10123251e-03 -4.02946491e-03 -2.45552801e-04
    -5.45471441e-03 8.01242515e-03 3.69440508e-03 5.38982917e-03
    6.94978400e-04 -4.85821813e-03 -5.64933522e-03 -1.02470432e-04
    3.44865746e-03 -4.03001177e-05 3.45188309e-03 -3.54443234e-03
    5.52657933e-04 3.02808010e-03 -2.49753916e-03 -8.11792351e-03
    -3.33469640e-03 6.59654383e-03 3.85180418e-03 1.15052788e-02
    5.54421498e-03 3.79874348e-03 5.88058867e-03 6.09599345e-04
    -7.95958750e-03 -3.42305284e-03 2.66230386e-03 -1.81203661e-03
    1.25779724e-02 2.03736708e-03 4.73561557e-03 1.39722426e-03
    -5.62699325e-03 -5.88964904e-03 4.68882173e-03 4.13549086e-03
    4.47781873e-04 9.99573246e-03 -2.22889183e-04 8.51441466e-04
    1.26516283e-03 -5.41306939e-03 -5.85257262e-03 1.19156542e-03
    6.44705957e-03 5.78999810e-04 9.24079306e-03 3.96882975e-03
    2.18252791e-03 6.27809996e-03 2.74493766e-04 -3.88632668e-03
    3.77093884e-03 1.62140513e-03 -4.69293259e-03 7.61161558e-03
    -3.72999231e-03 -2.16927310e-03 -2.04342301e-03 -5.59019297e-03
    1.05306786e-03 3.33729060e-03 -1.22170919e-03 -2.46365112e-03
    -3.77152907e-03 -1.30154751e-03 4.58053872e-03 8.70837085e-03
    7.59164430e-03 -3.17085488e-03 1.31673703e-03 7.56091671e-04
    -2.95208953e-03 -3.05352709e-03 9.44142637e-04 6.53477991e-03
    7.01590208e-03 -4.92751540e-04 1.41363998e-03 1.34565181e-03
    -1.15425722e-03 -3.75552592e-03 -8.57562199e-03 -1.12336373e-03
    2.83891987e-03 8.78861547e-03 8.89314711e-03 -2.74214568e-03
    1.12818438e-03 5.60675189e-03 3.17309838e-04 -8.60124454e-03
    2.19140411e-03 5.86094288e-03 8.10746662e-03 4.92172875e-03
    -5.50899305e-04 4.36494173e-03 5.00403298e-03 1.14085176e-03
    2.38759618e-04 6.89524459e-03 6.69899909e-03 4.18428378e-03
    -8.57979932e-04 -1.83286460e-03 6.21359795e-03 8.76503810e-03
    6.13274798e-03 -3.89458775e-03 1.94093096e-03 1.18193054e-03
    9.47841816e-03 2.97982432e-03 -4.29448264e-04 7.31499353e-03
    9.82816704e-03 1.52917777e-03 -1.83510862e-03 4.74552100e-04
    1.68663939e-03 4.03796649e-03 -1.25075385e-04 -6.13247138e-03
    3.12784454e-03 8.05055164e-03 -1.27734602e-04 -5.88824041e-03
    -3.44365858e-03 -2.01222068e-03 2.54375534e-03 -5.31653827e-03
    -2.84481235e-03 4.74342750e-03 1.07957702e-02 1.19909290e-02
    5.81505522e-03 -3.80469457e-04 1.57025584e-03 4.94832220e-03
    -5.00563125e-04 -4.65062074e-03 -3.01585795e-04 6.26413664e-03
    8.08218215e-03 4.61705308e-03 -8.61507840e-04 1.32446096e-03
    2.48581811e-04 -9.92344227e-03 -7.33834226e-03 -1.27840089e-03
    3.97884985e-03 3.92954750e-03 2.45818961e-03 -1.17258076e-03
    -2.37244909e-04 -3.34308774e-04 -6.81572780e-03 -6.97355764e-03
    -4.70156549e-03 4.47837263e-03 6.40527764e-03 4.76478972e-03
    -3.29430768e-04 -1.58919871e-03 -1.70089421e-04 -8.39296542e-03
    -3.74961784e-03 -8.87185801e-04 -2.91602733e-03 2.57963053e-04
    -7.70651316e-03 -5.31494990e-03 3.69074591e-03 6.98129414e-03
    -3.40899709e-03 2.61021918e-03 3.80412000e-03 -5.89628611e-03
    -5.17036300e-03 -6.78768568e-03 -2.42480962e-03 1.06867580e-02
    8.69950000e-03 6.17973506e-03 -3.44342808e-03 7.12648034e-04
    -3.83470644e-04 -2.93592340e-03 -3.98476329e-03 -5.16974833e-03
    -1.20985578e-03 3.76853743e-04 -6.83165900e-03 5.55027043e-03
    9.62898042e-03 3.51401628e-03 -3.04372539e-03 -3.50527279e-03
    -1.10394601e-03 1.50235704e-04 7.40205683e-03 1.56124437e-03
    -1.75043661e-03 -2.23345077e-03 -9.63148288e-03 -9.39818658e-03
    -1.44104576e-02 -5.20081632e-03 1.89446053e-03 4.44251858e-03
    7.88284291e-04 5.88833960e-03 5.94900048e-04 -6.93180645e-03
    -1.14643956e-02 -1.16328960e-02 -3.51604330e-03 4.67974320e-03
    8.71160813e-03 8.63197166e-03 -4.32573771e-03 -7.57927774e-05
    -1.75748242e-03 -8.36908258e-03 -1.26787797e-02 -7.62281427e-03
    -4.68707317e-03 3.36901564e-03 -5.13752690e-03 -4.34126146e-03
    3.16093327e-03 5.30611374e-04 -5.03892824e-03 -7.62599101e-03
    -3.37584130e-03 4.93959617e-03 4.41205362e-03 -8.50762357e-04
    -8.12151819e-04 -1.74925150e-03 -8.86128005e-03 -1.25115085e-02
    -1.62524916e-02 -7.34641729e-03 2.79635750e-03 9.42891371e-03
    5.60375536e-03 5.11934748e-04 -4.39108611e-04 -3.73944291e-03
    -8.04393180e-03 -8.43413547e-03 -3.72814294e-03 2.70495715e-04
    5.60568087e-03 2.85868440e-03 -5.59694320e-03 -7.01055280e-04
    -4.35803039e-03 -9.83380433e-03 -1.31037142e-02 -5.18686743e-03
    1.28323410e-03 8.06638133e-03 2.16745189e-03 -4.40062676e-03
    -5.89251006e-03 -3.42058344e-03 -9.22277756e-03 -8.13924242e-03
    -3.36794741e-03 3.48982448e-03 1.03388205e-02 2.32037692e-03
    7.09803950e-04 2.60423549e-04 -3.26170074e-03 -4.92294505e-03
    -5.31615084e-03 -8.39993183e-04 2.66596559e-03 -1.05516077e-03
    -5.97162812e-04 -2.41995254e-03 -2.91417120e-03 -5.83692407e-03
    -9.89653636e-03 -7.17462460e-03 9.18489299e-04 -6.97980577e-04
    1.08714576e-03 -1.36655918e-03 -2.55737011e-03 -3.45104630e-03
    -4.00231499e-03 -5.83685935e-03 -5.71224559e-03 -4.31925850e-03
    -8.20445945e-04 9.19431355e-03 3.29540973e-03 -3.85602470e-03
    -2.35553971e-03 -1.01797553e-02 -1.06676258e-02 -8.94971658e-03
    -4.09324095e-03 -2.43206648e-03 1.08174495e-02 8.38258676e-03
    9.57103795e-04 -1.39936549e-03 -4.84101102e-03 -1.23414118e-02
    -8.21494125e-03 -3.24739143e-03 -2.37022480e-03 8.62373319e-03
    5.68072405e-03 1.06962770e-02 -5.96524915e-04 -7.17592239e-03
    -8.20968300e-03 -7.87111092e-03 -5.88638475e-03 -5.37821464e-03
    3.96756269e-03 1.00902049e-02 5.82430512e-03 1.42223400e-03
    -9.59433895e-03 -1.11455135e-02 -7.85573758e-03 -3.90807446e-03
    -1.37757172e-03 1.41819725e-02 1.52426017e-02 1.22475326e-02
    1.51380124e-02 -2.81238067e-03 -8.07027705e-03 -1.00466441e-02
    -8.80728476e-03 -1.17539717e-02 9.20531573e-04 8.01950227e-03
    7.96252023e-03 2.43829505e-04 -4.12209658e-03 -4.02682956e-04
    -4.40463889e-03 -4.07692278e-03 -6.89214608e-03 1.02288614e-03
    4.96320054e-03 1.29783561e-03 7.52353249e-03 1.07674943e-02
    -1.64309447e-03 -2.17382936e-03 -3.86732770e-03 -1.32442382e-03
    1.88471354e-03 1.00039155e-03 8.62870738e-03 1.69548988e-02
    5.50475204e-03 -2.10804329e-03 -6.75865076e-03 -1.11386767e-02
    -1.25740245e-02 -5.84146800e-03 -5.10058657e-04 2.26374832e-03
    1.46179125e-02 1.02006709e-02 3.29246186e-03 -3.52388364e-03
    -9.34716593e-03 -1.02011291e-02 -4.73148189e-03 -3.45403864e-03
    -7.06415903e-03 5.53793041e-03 1.20944409e-02 1.74729142e-03
    -4.48190607e-03 -5.14381845e-03 -3.76095134e-03 -5.94165595e-03
    -6.56533521e-03 1.79742300e-03 1.20001715e-02 1.05073480e-02
    2.53872294e-03 -8.24014563e-03 -6.17209077e-03 -2.79977242e-03
    -4.58925264e-03 -8.50355625e-03 -3.41793755e-03 5.39692258e-03
    1.15250284e-02 -1.47605781e-04 1.53464207e-03 -2.95525999e-03
    -9.55135282e-03 -9.53581929e-03 -6.80111907e-03 -1.81132846e-03
    1.67869474e-03 6.76538984e-05 1.26128172e-04 -2.89480726e-04
    1.12123846e-03 2.40876083e-03 -9.67302884e-04 -4.02785605e-03
    6.81646541e-03 1.05164694e-02 -1.32442173e-03 -4.69382573e-03
    -6.54825149e-03 -6.74213236e-03 -6.52683608e-04 8.45064118e-04
    -3.40397703e-03 5.37713710e-03 7.72667490e-03 -1.06739067e-02
    -1.15027381e-02 -7.45688565e-03 -5.21332165e-03 2.92717130e-03
    2.44977605e-03 2.55514216e-03 3.23626236e-03 -1.28244760e-03
    -1.14159752e-02 -5.70024550e-03 -2.45642895e-03 -2.57982756e-04
    4.20425599e-03 1.24348723e-03 7.87254365e-04 -3.49074107e-04
    -6.06977381e-03 -1.89544465e-02 -1.03732906e-02 -9.12052672e-03
    -5.05284872e-03 1.62475416e-03 1.77369511e-03 2.73574283e-03
    1.89298333e-03 5.08478563e-03 -8.53564870e-03 -1.12093501e-02
    -8.18516128e-03 3.12486751e-04 7.83621985e-03 1.00934971e-02
    6.58306701e-04 -9.27192718e-03 -3.72325419e-03 -5.98794920e-03
    -1.34248231e-02 -1.70393791e-02 -5.58796665e-03 2.77385954e-03
    6.84589660e-03 -3.49112856e-03 -1.19867106e-03 -3.13556171e-03
    -1.36928530e-02 -1.35093192e-02 -7.96267577e-03 -2.54902174e-03
    1.23797692e-02 7.25251622e-03 3.77292768e-03 -4.47274232e-03
    3.58181144e-03 1.16810587e-03 -1.31755210e-02 -1.63501836e-02
    -8.93304311e-03 6.51032059e-03 9.14790481e-03 -3.38745391e-04
    -9.94504895e-03 1.67740014e-04 9.96352057e-04 -9.11676884e-03
    -1.50774308e-02 -9.91566852e-03 3.31298419e-04 1.30345505e-02
    -1.02834334e-03 -7.54274894e-03 -3.18797422e-04 1.01507979e-03
    -8.31741095e-03 -1.49823362e-02 -1.42671522e-02 -3.77721060e-03
    9.51975957e-03 -5.72169852e-03 -6.45302469e-03 5.51560149e-03
    7.59883458e-03 -8.04515276e-03 -1.38890902e-02 -1.00300517e-02
    2.55526369e-03 9.41787008e-03 -2.47077527e-03 -9.08910017e-03
    9.34916432e-04 1.60867537e-04 -1.05672702e-02 -1.32585093e-02
    -9.35112406e-03 5.01723960e-03 1.01851579e-02 -4.59959172e-03
    -8.96149839e-04 8.63431022e-03 9.14634205e-03 -2.29934556e-03
    -5.68801770e-03 -6.88836351e-03 -1.76812848e-03 5.04801143e-03
    -4.54801368e-03 -1.14720396e-03 2.18581664e-03 3.22252931e-03
    -6.51506195e-03 -1.19399056e-02 1.01102376e-03 3.83272674e-03
    2.17182981e-03 -4.42397874e-03 -8.40080902e-03 1.87524129e-03
    -2.22233171e-03 -8.39304645e-03 -7.18006957e-03 -3.29595222e-03
    6.39409060e-03 1.29354801e-02 -8.55011633e-04 -8.73147324e-03
    -6.29832968e-03 -7.94743560e-03 -9.27591976e-03 -1.01610757e-02
    -6.04591239e-03 1.43959234e-03 7.91789684e-03 -2.82082416e-04
    9.46168962e-04 5.42001147e-03 3.58135370e-03 -4.26788721e-03
    -1.14266686e-02 4.39836411e-03 1.22494744e-02 6.73150551e-03
    -7.23799923e-04 -6.59880973e-03 2.89900578e-03 -2.05939449e-03
    -6.14421023e-03 -6.95945183e-03 -4.39825002e-03 -1.52411626e-03
    -4.38214093e-03 -5.93354553e-03 -4.14309744e-03 -1.74438022e-03
    -2.71281390e-03 -4.61308332e-03 -5.97539637e-03 -1.56276964e-03
    1.02554504e-02 1.30654685e-02 4.09610337e-03 -9.89052188e-03
    -4.26689954e-03 -1.97128858e-03 -3.14395339e-03 -6.83932798e-04
    -6.03549997e-04 1.03471419e-02 5.80829475e-03 -6.95163198e-03
    -2.74420338e-04 6.27712673e-03 5.15516149e-03 3.13214702e-03
    -1.56660378e-03 -2.52136495e-03 3.28507880e-03 1.32523780e-03
    -3.04082758e-03 -4.83684614e-03 6.08268374e-06 3.23141390e-03
    -4.45528160e-04 -5.16465690e-04 -1.93664315e-03 6.78023975e-03
    7.12998956e-03 -1.77671586e-03 -3.73641588e-03 1.74123072e-03
    6.00644527e-03 6.62976503e-03 5.21974638e-03 2.03938643e-03
    1.10476865e-02 9.74348933e-03 -1.37119996e-03 -6.11202233e-03
    -6.91569992e-04 6.20083744e-03 -2.08337372e-03 -2.25793701e-04
    -5.79541549e-03 -1.33801441e-04 2.93447822e-03 -4.56415536e-03
    -5.11617586e-03 1.81199619e-04 4.21727775e-03 2.66055996e-03
    5.80991851e-03 -2.52785790e-03 4.49356297e-03 8.36229883e-03
    6.05651585e-04 -4.47056210e-03 -5.12899540e-04 6.46772329e-04
    2.64662411e-03 3.82339931e-03 -3.43042752e-03 5.85205015e-03
    8.71467404e-03 -6.44307001e-04 -7.34842801e-03 -4.67622827e-04
    8.51386134e-03 -7.48620543e-04 2.68546888e-03 -4.49330080e-03
    4.63808747e-03 4.65482613e-03 -5.31162601e-03 -3.99940007e-04
    4.56856191e-03 5.91592724e-03 1.81268202e-03 -2.48808810e-03
    -3.40921967e-03 6.88519236e-03 1.01881186e-02 -2.24941596e-03
    -4.95545706e-03 -2.86489166e-03 -6.05477253e-04 4.72898362e-04
    4.41210158e-03 -5.80779929e-03 -4.39824478e-04 4.54050070e-03
    -4.31419903e-04 -5.18699689e-03 -3.93199921e-03 2.83040060e-03
    3.48629360e-03 1.05670411e-02 -5.78614068e-04 -2.79055722e-03
    6.24314789e-03 5.45291277e-03 6.19405007e-04 2.40581518e-04
    -2.53163557e-03 -2.16257828e-03 1.13427534e-03 -3.97791201e-03
    1.99259934e-03 7.26447301e-03 1.13180128e-03 4.02608002e-03
    3.02269636e-03 -4.73091433e-07 -1.06559950e-03 4.26806277e-03
    -2.86810636e-03 -2.08544967e-04 5.27910888e-03 7.78014399e-03
    -4.45484044e-03 -4.74063400e-03 -7.12173583e-04 -3.07820598e-03
    5.93988365e-03 -1.07940845e-03 -2.00505578e-03 7.98949786e-03
    2.76738266e-03 -1.29599113e-03 -4.57828515e-04 -2.44818232e-03
    -7.99831375e-03 1.89188553e-03 -7.96968210e-03 -3.77112580e-03
    -2.22528339e-04 -1.24459120e-03 8.21298454e-03 1.57384039e-03
    -9.72280744e-04 -2.73377309e-03 9.58363293e-04 -5.36310580e-03
    6.85368024e-04 8.34254455e-03 7.15507474e-03 7.25563895e-03
    5.99357905e-03 1.98276760e-03 -2.98095518e-03 5.80501650e-03
    -6.14557927e-03 1.22886756e-03 5.58227301e-03 6.04510913e-03
    3.07563599e-03 -5.05717995e-04 -1.05584471e-03 -2.99437717e-03
    -6.62915129e-03 7.95874104e-04 8.14075582e-03 7.63970148e-03
    6.27796818e-03 5.73111745e-03 3.45560932e-03 7.71532999e-03
    3.26185324e-03 -8.14547110e-03 1.08918163e-03 1.75558031e-03
    5.27905021e-03 1.04385428e-02 3.46207246e-03 -1.57579343e-04
    -3.58734117e-03 -5.41264238e-03 -9.86400340e-03 -4.58214228e-04
    6.45601284e-03 1.52200577e-03 2.31724675e-03 1.05141588e-02
    5.26261143e-03 -4.95504122e-04 -1.75371428e-03 -1.02560194e-02
    -4.10609995e-04 5.96604217e-03 7.03823194e-03 1.15002226e-02
    4.68448922e-03 7.70766614e-03 1.17151579e-02 5.18059544e-03
    -4.08174761e-04 -1.95508054e-03 -2.56882445e-03 4.20018053e-03
    6.85994746e-03 3.24090681e-04 2.85929907e-03 9.40035842e-03
    1.91364565e-03 -8.91012512e-03 -8.89185444e-03 -5.69666969e-03
    3.18412064e-03 -1.01068144e-05 9.26302373e-03 4.01064195e-03
    3.09393229e-03 1.12666271e-03 -3.61500192e-03 2.17184701e-04
    3.66708124e-03 8.27850401e-03 1.29935704e-02 -8.42289475e-04
    -2.40794514e-04 8.91142525e-03 3.10909585e-03 -6.39440026e-03
    -6.97474414e-03 -5.30259160e-04 6.90934760e-03 3.53828841e-03
    -2.59189354e-03 -9.72937851e-04 3.77481338e-03 -5.75162820e-04
    -2.45750509e-03 -2.70797242e-03 -1.14204595e-03 2.83585256e-03
    -2.64179474e-03 -1.51371909e-03 6.13806827e-04 5.00344206e-03
    -3.78066004e-04 2.88909534e-03 -6.31381350e-04 -1.54231908e-03
    4.26406693e-03 1.78147829e-03 -2.36159447e-03 6.77665637e-04
    3.37404571e-03 -7.45246885e-04 -3.22413817e-03 -5.74714737e-03
    -5.03297802e-03 2.36442545e-03 1.02066156e-03 9.43021383e-04
    7.79747730e-03 9.88923106e-03 -8.36157997e-04 -2.11329525e-03
    -4.57878970e-03 -4.18124022e-03 4.88001527e-03 6.58646971e-03
    -1.89744611e-03 2.95205304e-04 3.40834283e-03 -4.76929499e-03
    -5.95112843e-03 -3.71368858e-03 -6.28304621e-03 -1.80175377e-03
    -3.34516796e-03 2.64404900e-03 7.85156246e-03 6.56328676e-03
    -1.07961544e-03 -5.74803725e-03 -2.21144338e-03 -5.48675144e-03
    2.35078915e-04 -4.60805837e-04 -4.04105242e-03 1.41470286e-03
    6.50500739e-03 -3.27923312e-03 -7.20675150e-03 -4.35572304e-03
    -3.95338750e-03 1.98199297e-03 4.62299329e-04 -6.71425369e-04
    3.61031410e-03 2.02201437e-02 4.58086422e-03 -4.88225464e-03
    -3.83923086e-03 -2.99551641e-03 -2.98641738e-03 -3.48295970e-03
    -2.89624138e-03 3.39126633e-03 5.48127713e-03 8.96636280e-04
    -1.02634253e-02 -4.81033884e-03 -6.10221829e-03 9.16220481e-04
    -1.59541785e-03 -3.88836046e-03 1.64859390e-04 9.42858960e-03
    2.72251130e-03 -4.73348657e-03 -3.58967297e-03 -1.53045147e-03
    4.14111419e-03 2.94410274e-04 -6.04402460e-03 5.96450351e-04
    8.05952400e-03 -7.05539191e-04 -1.44825503e-02 -7.60736410e-03
    -8.92546214e-03 -9.33130737e-03 -7.80307781e-03 -3.31751024e-03
    -4.22906771e-04 3.52653302e-03 1.56163506e-03 -5.25188725e-03
    -6.15131389e-03 -5.69328340e-03 -7.04477169e-03 3.20412475e-03
    -5.41880587e-03 -2.82963808e-03 1.82998832e-03 -4.51882323e-03
    -1.02614956e-02 -4.06027865e-03 -2.37014680e-03 8.27953313e-03
    3.62168322e-03 -3.09446687e-03 -4.34403075e-03 -1.32299610e-04
    -3.31880362e-03 -8.42404272e-03 -4.85259993e-03 5.21745416e-04
    8.57908931e-03 9.85841174e-03 -6.91994233e-03 -6.27748203e-03
    -3.16643831e-03 -3.55498306e-03 -1.18615665e-02 -7.63365161e-03
    -7.48139387e-03 -3.07749235e-03 1.40511722e-03 -3.11133408e-05
    -8.79938342e-03 -5.98842045e-04 -5.53280627e-03 -7.73260230e-03
    -7.60771148e-03 -5.83794992e-03 3.03218058e-05 4.19496326e-03
    -1.59111968e-03 -1.94941356e-03 -6.77471701e-03 -4.70608892e-03
    -9.93050914e-03 -7.20226392e-03 -3.31596006e-03 4.00578650e-03
    6.89079612e-03 -9.82969999e-04 1.14779826e-03 -4.64150775e-03
    -6.92333048e-03 -1.13513088e-02 -9.63456370e-03 -5.67942951e-03
    9.65947006e-03 5.96220093e-03 4.80618840e-03 -5.66466537e-04
    -5.05901314e-03 -5.34035079e-03 -1.17963478e-02 -9.95874405e-03
    -6.70764828e-03 -5.25493780e-03 2.44448730e-03 3.52170691e-03
    1.37822446e-03 2.73867743e-03 -4.63101314e-03 -1.66204069e-02
    -1.17642870e-02 -8.83602723e-03 -4.16081958e-03 3.80569394e-03
    3.23045976e-03 5.94840338e-03 -9.77154472e-04 -8.13626125e-03
    -1.24048786e-02 -1.04500912e-02 -6.98737660e-03 6.40795194e-03
    3.74484970e-03 1.02480873e-02 1.55902170e-02 6.24794094e-03
    -5.75723033e-03 -1.11704860e-02 -1.34307835e-02 -9.98674054e-03
    -3.44447675e-03 1.53024180e-03 6.33003470e-03 7.10589392e-03
    3.80143058e-03 -3.23116477e-03 -1.62371565e-02 -1.01457518e-02
    -6.98586274e-03 4.24402126e-04 2.18036352e-03 8.98908637e-03
    1.14879776e-02 9.43506137e-03 -3.49720079e-03 -1.44102639e-02
    -9.34525207e-03 -6.61921408e-03 -2.96032522e-03 1.00243335e-04
    6.37055235e-03 1.51107637e-02 1.22560021e-02 -2.43961834e-03
    -7.78007088e-03 -1.10628465e-02 -9.29432083e-03 -7.75711983e-03
    -3.53202899e-03 1.05858443e-03 1.00786565e-02 1.05518410e-02
    5.15604671e-03 1.09050178e-03 -5.48654515e-03 -1.10338666e-02
    -7.12564215e-03 -3.37744667e-03 4.93821455e-03 1.23404888e-02
    1.01874936e-02 3.00218468e-03 -1.03043225e-02 -5.83189260e-03
    -4.39852010e-03 -3.21535789e-03 -2.52662599e-03 8.49176024e-04
    7.21192511e-04 7.12862238e-04 1.28781539e-03 1.16893521e-03
    3.14112846e-03 -5.53271966e-03 -2.84523726e-03 -1.37656648e-03
    -4.93794819e-03 1.73452264e-03 4.29128716e-03 4.25649853e-03
    7.73738883e-03 1.21904677e-03 -7.19432766e-03 -5.75163495e-03
    -5.04686683e-03 -7.40281306e-03 -2.90832459e-03 -4.05467441e-03
    7.63174961e-04 8.15427862e-03 1.10605061e-02 5.93622541e-03
    3.78876121e-06 -4.17357916e-03 -7.26077007e-03 -5.94044197e-03
    -5.01878140e-03 1.81057688e-03 8.39633588e-03 5.68869803e-03
    -4.62864572e-03 -4.32771834e-04 -7.02322600e-03 -1.06064035e-02
    -4.65179002e-03 -6.29514642e-03 -2.70962366e-03 6.22408465e-03
    5.30179404e-03 1.19288021e-03 -4.90577222e-05 -1.31593486e-02
    -3.97555949e-03 -8.12175963e-03 -1.04722278e-02 -4.86226799e-03
    5.89026092e-03 7.48768914e-03 5.49943978e-03 3.65477870e-04
    1.72095548e-03 -2.66242609e-03 -8.35926645e-03 -1.47537356e-02
    -7.28859054e-03 -2.46285531e-03 1.35764643e-03 -5.09611855e-04
    1.14535121e-03 1.03765691e-03 -5.26923174e-03 -4.70238226e-03
    -8.13728105e-03 -8.79494380e-03 -1.96793277e-04 3.18987574e-03
    4.37948061e-03 1.46231571e-06 -1.04400637e-02 -3.11012520e-03
    -5.69352414e-03 -1.28139649e-02 -9.31321271e-03 -4.13405523e-03
    9.66504274e-04 1.56757224e-03 4.31920053e-04 -3.94407194e-03
    -2.38133129e-04 -5.71041564e-05 -9.87652317e-03 -9.02810972e-03
    -5.81336813e-03 -4.03025607e-03 4.13373765e-03 4.67281276e-03
    6.45138696e-03 -2.34095240e-03 4.23620827e-03 -5.59153501e-04
    -1.09956088e-02 -1.37010030e-02 -7.00759050e-03 6.10509561e-03
    1.46468841e-02 2.19423999e-03 -3.82489269e-03 -2.73348321e-03
    -9.58586670e-03 -8.69310554e-03 -7.58776721e-03 -3.74068785e-03
    -2.18534071e-04 1.90143823e-03 8.42538488e-04 -8.72658158e-04
    -5.02239820e-03 -9.97590832e-03 -1.23829143e-02 -1.56898201e-02
    -5.50627615e-03 2.03675567e-03 6.43751165e-03 1.11518218e-03
    2.21354701e-03 8.40231869e-03 2.33369158e-03 -7.82067329e-03
    -1.04350876e-02 -3.13274981e-03 4.13174322e-03 8.35513137e-03
    6.57211582e-04 -5.73428022e-03 -1.30366650e-04 -6.81448728e-03
    -1.08925430e-02 -1.29906926e-02 -3.80998803e-03 3.59701645e-03
    5.53273922e-03 -2.49035493e-03 4.56487003e-04 -4.65966435e-03
    -8.51607230e-03 -9.77896526e-03 -1.07632652e-02 5.67729701e-04
    7.89747294e-03 5.04512386e-03 2.64602108e-03 -4.41484479e-03
    -7.28732627e-03 -9.78434831e-03 -9.75360256e-03 -1.43996757e-02
    -2.52545485e-03 5.00033656e-03 4.64525400e-03 -2.06018565e-04
    -5.03260130e-03 3.30765895e-03 -3.08504864e-03 -5.99302538e-03
    -7.16612441e-03 -1.97837502e-03 7.52576208e-03 9.47485119e-03
    -6.31312025e-04 -7.02734571e-03 -3.43332812e-03 -4.31087660e-03
    -5.87103283e-03 -6.66518137e-03 -6.88592112e-03 -7.89084239e-04
    7.72858132e-03 -5.77172125e-03 -3.99523973e-03 -4.30904143e-03
    -5.82580781e-03 -5.24481246e-03 -7.08289817e-03 -1.56888866e-03
    9.69534554e-03 1.11142043e-02 5.62229659e-03 -6.08959654e-03
    -8.62255972e-03 -3.35001806e-03 -5.21886488e-03 -7.26038264e-03
    -6.24248758e-03 8.17789230e-03 8.87349341e-03 -2.63912836e-03
    -2.04517669e-03 1.63046340e-03 4.35761455e-03 -1.76378328e-03
    -1.28441188e-03 -2.69655348e-03 8.33561737e-03 9.56921279e-03
    -2.01705354e-03 -8.33381619e-03 -3.12409061e-03 3.59956431e-03
    2.28582229e-03 2.86431308e-03 5.45595482e-04 1.01762582e-02
    6.39756024e-03 -7.95719214e-03 -1.85228966e-03 -4.78332024e-03
    6.22203248e-03 5.42424573e-03 -1.93412683e-03 -5.19834040e-03
    8.95692501e-03 1.02200871e-02 1.91298212e-04 -7.23198103e-03
    -6.19994011e-03 6.19219895e-03 7.84741156e-03 -5.04676718e-04
    -6.90426352e-03 1.67340809e-03 3.40762944e-03 -3.02590849e-03
    -6.94685942e-03 3.24610667e-03 8.67019128e-03 1.03827473e-02
    8.55390169e-03 4.02481109e-03 9.88950860e-03 1.15386155e-02
    -3.92756518e-03 -6.03527809e-03 1.08795147e-03 4.01844829e-03
    -5.31581370e-03 -3.12584103e-03 -5.97224245e-03 2.77949643e-04
    5.10372641e-03 -4.75248788e-03 -7.84520153e-03 -5.48254349e-04
    1.03550591e-02 1.37764821e-02 6.04115240e-03 -1.16811518e-03
    2.65494618e-03 5.43254241e-03 -3.80336307e-03 -3.76874814e-03
    6.86745509e-04 3.79340281e-03 -1.04195671e-03 6.19244156e-03
    -5.80497552e-03 -3.99084733e-04 1.49367889e-03 -5.87120792e-03
    -7.66047090e-03 4.65450459e-04 4.01368504e-03 -7.87320081e-03
    -5.82769653e-03 -4.49860701e-03 5.07135177e-03 6.99847937e-03
    -6.65863650e-03 -5.37836226e-03 6.56861253e-03 1.22268591e-02
    -2.60444451e-03 -5.49135963e-03 -2.01355037e-03 4.61860606e-03
    5.60305966e-03 -3.22084082e-03 -3.24034342e-03 1.83805067e-04
    1.06290739e-03 -7.32424622e-03 4.78154607e-03 -1.24738971e-03
    5.68970852e-03 7.62113137e-03 -2.02602916e-03 -8.71326309e-04
    6.25536544e-03 1.34291127e-02 -3.08400136e-03 2.72974046e-03
    5.03316848e-03 1.05147762e-02 7.83236232e-03 1.02928560e-03
    -3.34280613e-03 2.20046262e-03 1.75812503e-03 -4.58195899e-03
    -1.60245152e-04 -1.58757437e-03 2.23826454e-03 2.16689237e-04
    -5.16440021e-03 2.35266658e-03 3.60190752e-03 2.03211908e-03
    -6.34708023e-03 -3.46587796e-04 -4.23011603e-03 4.93872957e-03
    1.22246318e-04 -4.49660374e-03 -6.33865315e-03 4.31637280e-03
    1.11728963e-02 -3.88152571e-03 2.62376143e-05 1.56745699e-03
    7.14208325e-03 8.20364803e-04 -8.32537003e-03 2.37814849e-03
    6.60359254e-03 7.96295796e-03 -6.25986606e-03 -8.70009128e-04
    1.42064190e-03 1.09028537e-02 2.82988558e-03 -7.97471404e-03
    7.55498419e-03 6.20401837e-03 9.21816682e-04 -4.23909677e-03
    -2.32104631e-03 -4.99980664e-03 2.70492164e-03 -1.11199064e-04
    -2.49242759e-03 5.81927132e-03 5.58576593e-03 1.72192988e-03
    -3.39416740e-03 1.92293909e-03 -5.40444534e-03 -1.69055464e-04
    -3.62217397e-04 3.37135352e-05 2.64492678e-03 5.45145152e-03
    4.54626232e-03 -5.90323471e-03 -1.45910680e-03 -1.21511729e-03
    5.00359526e-03 4.29104269e-03 -4.10494115e-03 2.86363903e-03
    3.13939247e-03 3.76050384e-03 -5.35826944e-03 9.41747294e-06
    -8.76600482e-03 -3.69938381e-04 5.35907736e-03 -1.29353022e-04
    1.63853122e-03 3.25907767e-03 -2.57796026e-04 9.02617176e-04
    -2.27770954e-03 8.25539813e-04 4.54573333e-03 1.06559217e-03
    -2.82918196e-03 9.71817877e-03 6.42037485e-03 -6.00314699e-04
    5.49907889e-03 -3.20186839e-03 5.36729116e-03 1.23415235e-02
    8.21776688e-03 6.14521373e-03 2.35276413e-03 -1.13512913e-04
    -1.09131343e-03 3.58389661e-04 8.67423310e-04 -1.43786555e-03
    -5.01075410e-04 -1.15455338e-03 -2.45350343e-03 1.43055040e-02
    7.41713960e-03 4.11920762e-03 1.13067927e-03 -1.03622368e-02
    -7.44935533e-04 5.06636268e-03 1.20674772e-03 3.40585900e-03
    7.01672817e-03 4.12766077e-03 3.08022578e-03 6.60594692e-03
    -1.36660237e-03 3.34964995e-03 8.87490343e-03 8.14916380e-03
    6.40964974e-03 -1.13997748e-03 8.16920656e-05 7.31215952e-03
    7.87752960e-03 -1.78295234e-03 -1.06409064e-03 4.69292095e-03
    5.43848937e-03 2.53735739e-03 5.96086821e-03 3.41078197e-03
    5.41130407e-03 2.76490487e-03 -6.29017409e-03 1.07391423e-03
    5.55538153e-03 2.95932230e-04 -6.56632998e-04 -3.64795676e-03
    -4.60727466e-03 4.56499308e-03 6.00704970e-03 -4.15015873e-03
    3.09595303e-03 6.18763268e-03 1.51908875e-03 -1.39643889e-04
    -2.49630073e-03 3.54819419e-03 5.29556349e-03 2.04248331e-03
    -1.09209074e-03 -1.10410678e-03 8.15996318e-05 5.60328690e-03
    2.92129087e-04 -1.04041141e-03 8.23152345e-03 1.01525011e-02
    5.72398491e-03 1.10477279e-03 -3.15664872e-03 -2.85765831e-03
    4.46418393e-03 -7.46845617e-04 -5.26189990e-03 -2.68772850e-03
    1.99390599e-03 4.29744320e-03 3.46585177e-04 3.25400569e-03
    5.26464451e-03 3.29013774e-03 -2.66025700e-06 -4.61911596e-03
    4.66495170e-04 4.81103873e-03 4.40638140e-03 6.52583223e-03
    2.18367181e-03 1.53114763e-03 1.77418318e-04 -4.26771725e-03
    -8.81108828e-03 -4.27913852e-03 1.81436550e-03 9.82817262e-04
    -2.31368560e-03 -1.84870802e-03 -4.35427763e-03 -2.30656890e-03
    -6.18476560e-03 -5.05732093e-03 -5.98626502e-04 9.76188015e-03
    6.85089175e-03 8.00722686e-04 2.80580251e-03 6.23289903e-04
    -3.41352518e-03 -5.50420210e-03 -8.41003563e-03 -4.21349704e-03
    -2.63300771e-03 -5.90233540e-04 2.59010214e-03 6.64107502e-04
    -2.53025955e-03 -5.81582915e-03 -9.58863832e-03 1.05585495e-03
    2.32215808e-03 7.73810083e-03 6.78622862e-03 3.09569295e-03
    5.75203961e-03 4.46678698e-03 -5.22117689e-03 -4.91945166e-03
    -5.01060579e-03 1.46543304e-03 1.11866905e-03 9.57210315e-04
    -5.68375271e-03 3.31588089e-03 -3.42572544e-04 -2.57788715e-03
    -6.12073159e-03 -1.61105988e-03 4.31583350e-04 -1.53035088e-03
    2.39934982e-03 -6.75726682e-03 -3.17563768e-03 -2.50466494e-03
    -3.11467284e-03 -1.51004351e-03 4.79860581e-04 1.12614315e-03
    -7.60729949e-04 3.65917082e-03 -3.63318576e-03 2.58671213e-03
    2.07520416e-03 -1.58824481e-03 -4.10196371e-03 1.23504596e-03
    1.65704417e-03 4.96659020e-04 4.94420435e-03 -7.14566652e-03
    -3.00009805e-03 6.97747513e-04 -2.54247594e-03 -3.78060574e-03
    -8.34249542e-04 -8.54837184e-04 -4.06447193e-03 -1.94208755e-03
    -5.63885318e-03 -4.30484582e-03 -1.48752821e-03 8.62718851e-04
    -4.58073337e-04 1.95328728e-03 9.61456273e-04 -1.84416538e-03
    -3.66958836e-03 -1.26917934e-04 -3.38860531e-03 2.47476914e-04
    -1.10529421e-03 -3.83464317e-03 -9.08288290e-04 1.24791090e-03
    3.45357723e-04 -7.10052380e-04 -6.98310090e-03 -3.56640178e-03
    2.55265302e-04 -3.24255298e-03 -6.43306132e-03 3.67623591e-03
    4.70144348e-03 2.60248943e-03 -1.62342610e-03 -2.50057087e-06
    -4.27212246e-04 -1.51933485e-03 -6.27266103e-03 -8.37858394e-03
    5.46434103e-03 4.49157972e-03 -1.12251320e-03 -4.08313610e-03
    -4.83426685e-03 -4.21519345e-03 -5.00573777e-03 -7.81892426e-03
    -3.07307206e-03 2.08925852e-03 3.68944416e-03 4.08534845e-03
    3.63899046e-03 -5.86580811e-03 -2.42622267e-03 -4.29106224e-03
    -1.38124812e-03 4.37295064e-03 1.75935240e-03 5.11596096e-04
    -2.28246677e-06 -3.41631868e-03 -2.90175830e-03 -3.67987691e-03
    -5.51692024e-03 -7.31046079e-03 -9.71716736e-03 -1.13237975e-03
    2.14198953e-03 1.24537374e-03 1.89339393e-03 -2.98394472e-03
    -1.95951248e-03 -9.59612336e-03 -9.20192339e-03 -9.19544511e-03
    -2.54529552e-03 2.47148843e-03 6.10332144e-03 5.90250641e-03
    -6.92209089e-03 -3.27241234e-03 -3.25573073e-03 -6.80083060e-04
    -6.78660290e-04 -1.15701265e-03 3.93366767e-03 9.79283638e-03
    8.56833253e-03 -6.71658618e-03 -4.45833523e-03 -5.68552408e-04
    -5.39896253e-04 -1.36145379e-03 -7.57600972e-03 1.69849882e-05
    7.00129662e-03 5.20154461e-03 -9.52197996e-04 -1.60613470e-03
    -5.10497298e-03 -7.99451023e-03 -1.15040522e-02 -5.21535380e-03
    3.92536167e-04 1.22483633e-02 6.61449414e-03 -5.28097525e-03
    -3.15663940e-03 -1.52752339e-03 -5.35079371e-03 -5.03123133e-03
    -2.68373708e-03 5.11214428e-04 8.60577542e-03 9.02184937e-03
    -8.99586268e-03 -3.12234578e-03 1.19977642e-03 -2.23035598e-03
    -5.58008673e-03 -3.81265790e-03 -2.37738458e-03 -4.01151180e-03
    5.79631655e-03 8.58999323e-03 1.00849736e-02 2.88914162e-04
    -1.05264969e-03 -2.46414100e-03 -3.29458993e-03 2.89828959e-03
    1.07263131e-02 3.57751781e-03 -1.04836840e-02 -7.27024116e-03
    -1.88847713e-03 4.53978428e-05 -1.76599307e-03 -1.23280389e-02
    -4.16272174e-04 2.89435708e-03 3.19589744e-03 4.57887724e-03
    6.16800180e-03 3.30853346e-03 -3.60799185e-03 -1.08258529e-02
    -9.10943188e-03 -5.97284548e-03 -8.68056715e-03 3.28735146e-03
    1.40493689e-02 1.36740236e-02 8.44597467e-04 6.15620229e-04
    -7.02276360e-03 -1.16242925e-02 -3.94645985e-03 -5.25825331e-03
    -1.84442906e-03 8.94139241e-03 1.02223577e-02 5.94604644e-05
    -3.90285626e-04 -1.36957997e-02 -1.33888898e-02 -4.12423722e-03
    -1.81635981e-03 3.14404769e-03 9.15035140e-03 1.07582659e-02
    1.81472627e-03 -7.16796936e-03 -1.14242183e-02 -1.20208533e-02
    -6.21338328e-03 -4.73074941e-03 -1.18031143e-03 9.92338452e-03
    1.19795073e-02 2.22514546e-03 -5.46144415e-03 -1.35998130e-02
    -3.80939874e-03 1.39902870e-03 2.52097449e-03 2.82920781e-03
    5.71814319e-03 5.07511385e-03 2.41564284e-03 -5.89007512e-04
    -1.09996935e-02 1.10643241e-03 4.73040296e-03 -1.21746107e-03
    -6.14594319e-04 -3.25985486e-03 -3.45798023e-03 4.90317994e-04
    3.96789191e-03 1.36179500e-03 -4.50205384e-03 -3.23961792e-03
    1.95109798e-03 7.50858150e-03 1.30477445e-02 2.36193393e-03
    -3.82277742e-03 -6.27401704e-03 -1.23301642e-02 -4.33722651e-03
    -1.35376526e-03 -2.51788786e-03 -1.09806075e-03 -9.44376923e-04
    -5.74282976e-03 -9.64799523e-03 -3.96864722e-03 -6.34988444e-03
    7.03004247e-04 2.77713581e-04 -2.28124321e-03 -3.80450999e-03
    -4.25267313e-03 -3.00864503e-03 4.71070549e-03 1.00090196e-02
    5.60664525e-03 3.36789712e-03 -2.88150157e-03 -5.63369505e-03
    -8.68894439e-03 -1.34829050e-02 -4.45101969e-03 4.32130275e-03
    1.38851879e-02 8.18969309e-03 -7.09250895e-03 -7.01727299e-03
    -7.43247895e-03 -6.64983178e-03 -5.47088962e-03 -3.33605474e-03
    1.61223952e-03 5.95101621e-03 -3.73103027e-03 -5.44761680e-03
    -1.13421930e-02 -8.13869201e-03 -1.03374366e-02 -1.30348951e-02
    -9.90606658e-03 9.47343942e-04 4.85375198e-03 1.37382350e-03
    4.99216933e-03 -1.88587117e-03 -4.23434889e-03 -6.51581399e-03
    -8.26476328e-03 -1.37704087e-03 5.39286761e-03 9.21831280e-03
    5.47371525e-03 3.03627196e-04 -2.64073838e-03 -2.06445041e-03
    -7.13135395e-03 -6.99865166e-03 -2.56335159e-04 3.36064585e-03
    4.10366192e-04 2.32594879e-03 -6.03867322e-03 -7.72557035e-03
    -3.22566531e-03 -6.21938938e-03 -7.23172678e-03 -4.43854788e-03
    9.96048097e-04 1.78037165e-03 -3.84791452e-03 -4.64214012e-03
    -3.74968839e-03 -3.86780617e-03 -8.36641528e-03 -9.01216175e-03
    -1.21112091e-04 6.99839380e-04 -1.33339968e-03 -4.94578248e-03
    4.93819546e-03 -8.59123829e-04 -2.32637837e-03 -4.43922961e-03
    -5.56249870e-04 -1.03276386e-03 4.78467252e-03 5.84192201e-03
    8.59003421e-03 5.32215135e-03 -4.46058949e-03 -2.02268991e-03
    -2.55970680e-03 -2.38405517e-03 -3.08392546e-03 3.03241331e-03
    7.43851019e-03 2.12876638e-03 -1.51656731e-03 1.09845481e-03
    -1.80032430e-03 -6.00326620e-03 -1.79324870e-03 2.29417323e-03
    1.48169859e-03 8.88149603e-04 8.79039115e-04 8.50141369e-05
    -4.31027170e-03 -5.13668451e-03 -5.73641481e-03 -4.54368535e-03
    -4.02466906e-03 -4.19382984e-03 -2.78616510e-03 -7.88833364e-04
    5.80423791e-03 1.51143277e-05 1.01509765e-02 6.36701519e-03
    -5.74864389e-05 -3.96115473e-03 7.12211151e-03 9.75081883e-03
    3.49028822e-04 -6.82255393e-03 -3.44554801e-03 8.29712208e-03
    8.02804995e-03 9.57753044e-04 -7.04609975e-03 -7.97412824e-04
    6.23372151e-04 -4.35513025e-03 4.46425052e-03 2.89921911e-04
    1.98562373e-03 -2.81656906e-03 -3.40140983e-03 3.11161741e-04
    6.26516948e-03 5.64920192e-04 2.27185944e-03 -6.35144068e-03
    -2.95049115e-03 -1.36700319e-03 -1.56524300e-03 4.60322574e-03
    -1.87313731e-03 4.60482948e-03 -4.39466722e-03 -8.32554977e-03
    -5.65891340e-03 4.69294231e-04 8.76462646e-03 8.03048257e-03
    4.76119295e-03 -4.75449162e-03 1.87443953e-03 2.67398031e-03
    -3.14048538e-03 -5.45516144e-04 2.09636777e-03 6.31207554e-03
    -4.46814374e-04 3.14825377e-03 -8.17507599e-03 1.22668967e-03
    9.58319579e-04 -3.46701988e-03 -7.31443474e-03 1.81588018e-03
    2.40865373e-03 4.75631049e-03 1.53435422e-02 1.04079046e-03
    4.16928576e-03 1.76170826e-04 -6.95749233e-03 -1.42679783e-03
    2.81584333e-03 2.21944600e-03 -1.01670518e-03 2.76278355e-03
    -4.66831308e-03 4.29297984e-03 -1.60507776e-03 -3.77037283e-03
    4.05351369e-04 -1.38609947e-04 1.60757103e-03 -2.37784814e-03
    5.00138558e-04 -3.20257293e-03 5.85508300e-03 4.38395608e-03
    -4.19575488e-04 2.71026115e-03 1.52111938e-03 2.20121816e-03
    -2.34304136e-03 2.05022795e-03 5.65465540e-03 9.71082412e-03
    8.82675406e-03 1.95668638e-03 1.94158370e-03 5.31644141e-03
    1.99207477e-03 -3.66315222e-03 -1.79852324e-03 -4.60519781e-03
    3.48218926e-03 -5.57059771e-04 -1.29238586e-03 1.28251861e-03
    -8.67096940e-04 2.27926444e-04 -8.08513316e-04 3.17489891e-03
    2.46856152e-03 3.75684071e-03 2.24521896e-03 -1.11349369e-03
    -2.10278830e-03 3.57415085e-03 1.88490853e-03 -3.54971364e-03
    1.26993709e-05 2.47495249e-03 6.23340160e-03 4.41459706e-03
    -3.77550069e-03 5.28414315e-03 9.16919578e-03 6.48842007e-03
    -3.84810660e-03 -1.77853310e-03 1.04654662e-03 3.80169903e-03
    2.46645231e-03 -2.79223267e-03 -6.09550579e-03 -5.46854502e-03
    -3.12918983e-03 -5.25938114e-03 -1.97810796e-03 1.63962820e-03
    4.58204560e-03 2.36196606e-03 -5.85209485e-03 1.88999088e-03
    8.02825671e-05 1.72157562e-03 -3.00596259e-03 1.19753473e-03
    1.45949249e-03 2.11371575e-03 4.19752486e-03 -1.13484671e-03
    1.24912581e-03 3.89941782e-03 5.41075319e-03 -5.51090529e-03
    -6.67606853e-03 -2.45163427e-03 1.23666890e-03 6.06853655e-03
    -2.47105211e-03 -1.29641616e-03 3.09409486e-04 1.93531695e-03
    -6.74440386e-03 -4.58021089e-03 -1.02750529e-02 1.21124077e-03
    1.06858555e-02 -3.65620275e-04 1.75058158e-04 4.78020357e-03
    4.41797310e-03 -3.61353951e-03 -5.22953167e-04 -3.93125881e-03
    6.70659138e-05 6.58047991e-03 -9.76813608e-04 -2.90920702e-03
    3.20904539e-03 2.37727584e-03 -7.43216276e-03 -2.13206792e-03
    -5.55071328e-03 1.81772187e-03 1.14103947e-02 1.26265478e-03
    2.35960749e-03 7.20077718e-04 9.07997892e-05 -2.90150195e-03
    -3.74773471e-03 -7.80236034e-04 2.29957676e-03 9.09711001e-04
    -4.59124101e-03 2.89800391e-03 4.26551932e-03 3.28089134e-03
    -1.43699627e-03 -8.78289901e-03 -1.96324522e-03 3.48743424e-03
    2.53834901e-03 -3.77531652e-03 1.14825042e-02 4.37845476e-03
    4.03870549e-03 3.67724081e-03 4.24534921e-03 4.99864668e-03
    1.06337890e-02 8.78261123e-03 2.52429978e-03 8.83265678e-03
    1.00389998e-02 1.05657680e-02 1.35830026e-02 4.26921016e-03
    5.69900125e-03 6.33754069e-03 4.61335946e-03 -3.44369397e-03
    -2.37771124e-03 2.48223497e-03 3.61695746e-03 2.80933897e-03
    6.95861643e-04 4.76032915e-03 6.17089728e-03 2.12439476e-03
    -5.28642908e-03 -6.45801239e-03 -4.27071936e-03 1.53039722e-03
    6.99541904e-03 3.25598288e-03 4.36000666e-03 6.76189363e-03
    -4.74134169e-04 -6.95193931e-03 1.37907616e-03 5.42225176e-03
    5.53637790e-03 1.42535456e-02 1.01903370e-02 8.26775841e-03
    5.44792134e-03 3.90218245e-03 -3.34526924e-03 2.60858401e-03
    1.48593576e-03 -4.15330380e-03 4.62990394e-03 4.19202680e-03
    5.50370617e-03 8.15331750e-03 5.07901050e-03 4.49087820e-04
    -3.90127185e-03 -1.70983385e-05 -1.06931548e-03 5.90349408e-03
    1.09769031e-03 3.71407648e-03 6.00875076e-03 1.14122266e-03
    -3.51129007e-03 1.29379879e-03 5.66872582e-03 2.24484620e-03
    1.51437731e-03 2.34345696e-03 3.61620705e-03 4.22011875e-03
    1.47641718e-03 -3.25862714e-03 5.81414578e-03 3.29823303e-03
    -5.22207329e-03 -2.31712661e-03 -2.46146182e-03 2.66651413e-03
    7.02364231e-03 3.87712545e-03 5.65073872e-03 8.01478326e-03
    5.71203185e-03 -1.85307942e-03 -5.99027844e-04 3.19846789e-03
    4.67561791e-03 1.79954222e-03 3.70826572e-03 9.21148714e-03
    -2.28679134e-03 2.16644257e-03 -2.74086767e-03 4.19823395e-04
    1.51238812e-03 4.58713714e-03 -1.07685430e-03 -2.94559076e-03
    -7.70982588e-03 4.41521360e-03 8.23277235e-03 8.98559671e-03
    7.45009165e-03 1.12782838e-03 2.76384782e-03 2.22771414e-04
    -2.39774468e-03 -3.72853654e-04 -1.40545506e-03 -3.13387788e-03
    -3.43787856e-03 -3.39985080e-03 -1.36333774e-03 1.94036157e-03
    -4.51027323e-03 -2.06652214e-03 -3.35266930e-03 -2.53253407e-03
    -3.98957520e-04 -1.82060397e-03 -2.83245067e-03 -2.73956452e-03
    7.82934774e-04 -1.46078388e-03 5.20386733e-04 -4.67618695e-03
    -2.96989572e-04 5.15282061e-03 4.80247522e-03 5.93245821e-03
    -2.47534551e-03 -1.10521005e-03 4.91390820e-04 7.03398488e-04
    -6.14440243e-04 1.11398904e-03 9.84079763e-03 6.74783951e-03
    4.26719012e-03 -1.74278044e-03 -1.38038734e-03 -1.13793940e-03
    -4.72003128e-04 7.01482582e-04 -6.25808444e-03 -4.50089778e-04
    -6.76745898e-04 -2.93882238e-03 -5.80118038e-03 -1.04117917e-03
    -1.82766025e-03 -1.86943007e-03 -7.61832250e-03 -2.68987566e-03
    3.06691532e-03 1.06071611e-03 2.03386694e-03 2.82439729e-03
    -3.48992390e-03 -7.55527569e-03 -6.49405317e-03 -3.69663630e-03
    2.26599467e-03 9.30125266e-03 4.49297903e-03 -1.75589928e-03
    -2.77065532e-03 2.17236840e-04 -2.24974635e-03 -2.87314062e-03
    -4.50439705e-03 3.84847005e-03 5.53940330e-03 6.78155245e-03
    7.54474662e-04 1.36708957e-03 2.03178870e-03 -3.16564692e-03
    -3.16947838e-03 -3.04243364e-03 -5.59884473e-04 9.95781040e-04
    1.22901215e-03 -1.55046652e-03 2.06072419e-03 -6.63947687e-03
    -8.52285884e-03 -9.87113826e-03 -8.23200680e-03 2.88863026e-04
    3.43316700e-03 7.24303583e-03 -1.07875059e-03 -1.28312455e-03
    -3.90203763e-03 -6.51535532e-03 -3.76235554e-03 -5.47149591e-03
    3.52956401e-03 1.52359391e-03 2.42097490e-03 -2.23991764e-03
    -4.34414716e-03 -2.89863301e-03 -3.78654036e-03 -3.35776596e-03
    -3.02998023e-03 -9.48603905e-04 3.40626528e-03 4.55198810e-03
    1.70683453e-03 -1.31740654e-03 4.49171319e-04 -4.42917272e-03
    -3.35475267e-03 -4.82499180e-03 1.23366213e-03 3.55724245e-03
    6.58721337e-03 -2.20486824e-03 -9.20323376e-03 -3.79009522e-03
    -5.64071303e-03 -2.73615494e-03 -4.28220630e-03 -2.21996335e-03
    2.71845050e-03 3.25759850e-03 6.15869509e-03 -3.27877654e-03
    5.06603066e-03 -5.88967232e-04 -5.71837462e-03 -7.75207346e-03
    -6.09887391e-03 1.00790896e-03 4.63299360e-03 -1.78585469e-04
    -1.41463848e-03 2.76719715e-04 -5.02754003e-04 -4.91156662e-03
    -8.25959165e-03 -6.24294439e-03 1.09613792e-03 7.96127971e-03
    -4.44305735e-03 -2.95591843e-03 2.87614879e-03 3.62160360e-03
    -6.92828093e-04 -5.98771265e-03 -4.90789581e-03 2.09077843e-03
    6.79521181e-04 1.00453640e-03 -5.98238828e-03 -1.53777772e-03
    -2.13772105e-03 -7.22230226e-03 -7.23897619e-03 -9.92641784e-03
    -1.84592232e-03 3.87675734e-03 -3.84036731e-03 -1.23059482e-03
    6.17125630e-03 6.09571300e-03 -2.61847768e-03 -9.31032281e-03
    -6.56541763e-03 2.66902824e-03 6.70703594e-03 -1.07172970e-03
    -1.02077099e-02 -5.12800692e-03 9.83705511e-04 7.60180352e-04
    -5.73885720e-03 -9.73811280e-03 -1.36460434e-03 4.15558135e-03
    4.31829644e-03 -4.23513353e-03 9.39260062e-04 2.73814984e-03
    -1.68203330e-03 -1.04318159e-02 -6.44202344e-03 1.24779428e-04
    6.01056032e-03 2.25581648e-03 -9.28930286e-03 4.33512544e-03
    4.97016124e-03 -1.44068466e-03 -9.03840084e-03 -3.98353813e-03
    9.89775057e-04 3.16520454e-03 2.20103422e-03 -4.58627660e-03
    2.68588099e-03 2.34104437e-03 4.98926092e-04 -9.81079508e-03
    -8.75391811e-03 -2.17273366e-03 2.59586517e-03 1.14147621e-03
    -3.46895307e-03 3.78093682e-03 1.99842523e-03 -5.87079115e-03
    -8.97190720e-03 -8.16515740e-03 -4.10054438e-03 4.95096343e-03
    2.93259020e-03 2.64236541e-03 6.46606646e-03 -3.06645571e-03
    -5.85690979e-03 -8.95918999e-03 -5.31107374e-03 1.96631067e-04
    6.49977569e-03 2.71891884e-04 -3.40223708e-03 6.22589421e-03
    1.99442875e-04 -8.25360324e-03 -1.19499359e-02 -7.28838844e-03
    -7.17352610e-04 4.17086482e-03 3.59130534e-03 1.20967941e-03
    -1.29362766e-03 -7.84116425e-03 -1.04377028e-02 -1.22508863e-02
    -2.07403046e-03 -2.28979439e-03 5.21632005e-03 1.13120824e-02
    1.65619310e-02 3.71152814e-03 -5.71073033e-03 -4.07367526e-03
    -6.99860370e-03 -4.53901477e-03 -1.57092884e-03 -2.82151019e-03
    -1.46167853e-03 -8.21522204e-04 -2.63557117e-03 -5.73289022e-03
    1.01012259e-03 -6.95541687e-03 -7.01908488e-03 -4.65563172e-03
    4.21547703e-03 6.67394465e-03 6.35281345e-03 2.67858792e-04
    -1.05116945e-02 -3.99865536e-03 -8.39236379e-03 -1.21421786e-02
    -9.38215572e-03 -6.68038893e-03 -7.32795289e-03 -5.33935893e-03
    -6.23360090e-03 -4.05316567e-03 -8.16654006e-04 -5.20459982e-03
    -4.00692719e-04 3.35402973e-03 -1.64416025e-03 -1.85149244e-03
    -1.81714084e-03 1.32903946e-03 2.71583302e-03 7.50101171e-03
    7.64639466e-04 -7.63027871e-04 -2.15134327e-03 -2.47934484e-03
    -6.92729698e-03 -6.97033154e-03 -2.50587263e-03 5.59062604e-03
    4.57440177e-03 1.82433240e-03 -1.06586488e-02 -3.02102230e-03
    -1.73768145e-03 -2.37280456e-03 -5.04184002e-03 -2.33203988e-03
    4.96421428e-03 7.23977014e-03 7.28298794e-04 -9.71386023e-03
    -3.07850377e-03 -5.72726270e-03 -7.92761147e-03 -1.04856603e-02
    -2.33111996e-03 7.30510941e-03 6.32249191e-03 2.97511084e-04
    -1.73354300e-03 -7.34736153e-04 2.67520983e-04 -5.06479014e-03
    -5.97234024e-03 -1.26885541e-03 8.02204851e-03 5.03464649e-03
    -5.64544578e-04 5.52191748e-04 6.26925984e-03 3.82016785e-03
    -5.42898336e-03 -1.07695032e-02 -3.52550368e-03 3.70074343e-03
    5.24881715e-03 -4.32161707e-03 -9.93008353e-03 -2.20579491e-03
    -5.89781255e-03 -1.03370110e-02 -8.59051757e-03 3.32354801e-04
    9.17373784e-03 6.23205863e-03 -4.90451604e-03 -6.50026882e-03
    1.14868698e-03 1.10427476e-03 -1.13754831e-02 -1.34377321e-02
    -4.47717728e-03 5.70542598e-03 6.63490314e-03 -3.72436689e-03
    -2.96950876e-03 7.13542523e-03 7.54273776e-03 -1.73524383e-03
    -2.94139539e-03 1.86276622e-04 4.30627726e-03 4.38233977e-03
    -2.82436376e-03 -1.05341838e-03 3.16221733e-03 1.00784795e-03
    -1.56716676e-03 -4.37035412e-03 -4.13953327e-03 -7.12843204e-04
    4.44618578e-04 -4.12665261e-03 -2.25847960e-03 2.17311783e-03
    6.85009733e-03 -4.95623238e-03 -2.59045628e-03 -1.65643124e-03
    8.77362676e-03 8.60376563e-03 -3.98860499e-03 -2.80645699e-03
    -3.76042468e-03 -4.25222516e-03 -5.26578585e-03 -2.71179690e-03
    -3.45291221e-03 9.94152669e-03 3.02626402e-03 -6.89032627e-03
    5.65519370e-03 6.02203514e-03 2.10401858e-03 -6.75840478e-04
    -2.44692969e-03 -8.25417810e-04 6.16702531e-03 3.81304719e-03
    5.69582102e-04 -2.76050926e-03 2.79961317e-03 3.86593892e-04
    -3.85074387e-03 1.16522075e-03 9.79910837e-04 1.03365369e-02
    1.99012877e-03 -4.14963625e-03 1.43880467e-03 -1.04191899e-03
    -6.24406245e-03 -7.99101684e-03 3.20049678e-03 1.42254925e-03
    1.00556044e-02 6.42556697e-03 4.51951841e-04 7.61739677e-04
    1.41045381e-03 6.75607065e-04 -1.11574046e-02 -5.30027784e-03
    -4.57645580e-03 1.36509666e-03 7.01735308e-03 1.35021156e-03
    -5.56577137e-03 4.68293019e-03 2.23802240e-03 1.40217214e-03
    7.48617714e-03 1.35109632e-03 6.88508991e-03 1.87025277e-03
